2708 128
35 0.06216885 0.039992478 0.38812447 0.25272006 0.15537412 0.023528095 0.06149685 0.11378704 -0.061244182 0.30873507 -0.012514126 -0.13148576 -0.13852704 0.07168601 0.22580072 -0.087400764 -0.054928645 0.05076146 0.04095606 0.08602844 -0.033678263 0.039670732 -0.12109717 -0.35069078 -0.01978318 0.14981294 -0.004224504 0.17428522 0.07064001 -0.070788056 -0.017407216 -0.23839876 0.11026609 -0.011111111 0.039783955 -0.28326052 0.062764674 0.065041535 0.16462368 -0.05867407 -0.1367822 -0.087392434 0.22548205 0.098456204 -0.09218178 0.15035364 -0.31146276 0.014605218 0.04878712 0.1225988 0.08759867 -0.15174368 0.15604012 0.016274981 0.18344556 -0.08600109 0.10675144 0.03171569 0.08587923 0.23867936 -0.1047722 -0.23223731 -0.018826243 -0.21752974 -0.13527142 0.039126083 -0.12814836 -0.19905673 -0.22463705 0.41322717 -0.118926525 -0.12750638 0.11024448 -0.13349758 0.16064256 -0.22515383 -0.28471628 -0.045703106 -0.025756791 0.2012809 -0.04637546 0.16307552 0.17535044 -0.08746279 0.15739425 0.21809404 -0.06971413 0.15418167 0.20058016 -0.14515321 -0.12536344 -0.21009906 -0.1117282 0.02604966 0.29590198 0.0826269 0.021238407 0.08184707 0.25134957 0.20979854 -0.3777789 0.4861424 -0.14891492 -0.23735926 -0.27610055 0.17649068 0.27104416 -0.033200428 0.05157801 -0.17802924 0.14885859 -0.12553382 -0.07123225 -0.04603775 0.2151588 0.077622816 0.1604084 -0.14983226 0.03231607 -0.11789211 -0.12465891 0.3906987 -0.060005017 -0.24269123 0.16737504 0.037338275 -0.007105184 -0.04480166
1365 -0.042789653 0.27403343 0.2937637 -0.058931254 0.21585755 0.26379737 0.12577184 0.17920639 -0.14366812 0.052257225 -0.5952611 0.44095522 0.23128521 0.039262597 -0.018946383 0.30413368 0.040276702 -0.31650135 -0.07932547 -0.1103992 -0.009907877 0.074198216 0.048828654 0.19472039 -0.08920847 -0.08861319 0.002339136 0.11393067 -0.047968987 -0.36950368 0.3400194 -0.19786593 0.17110524 0.30043215 0.12645972 -0.10110291 -0.27194443 -0.3199429 0.07877314 -0.0446761 0.38605502 -0.0069874255 -0.0167401 0.0792705 -0.054747857 0.43409896 0.018477732 -0.18047856 0.028938679 -0.059798528 -0.26110914 0.09210469 -0.05922636 -0.46820015 0.26770228 -0.36499825 0.23445612 0.03279322 -0.27498916 0.04079789 -0.0063014454 0.1614889 -0.29989672 -0.2962852 -0.012082264 0.04165201 -0.011177624 0.16776015 0.1347979 0.233886 0.044412613 0.11013242 -0.18388386 -0.018110087 0.02303943 -0.10384617 -0.047036078 0.06520438 0.08468616 0.18609239 -0.1676679 0.19093008 -0.50473434 0.31346697 -0.05806755 0.20551425 0.09413488 0.16864412 0.16492388 0.02342903 0.069139436 0.09205711 -0.13195832 0.039853945 -0.085508935 0.30662867 -0.015219252 -0.05532804 0.07149934 -0.17527561 -0.00802743 0.2621439 0.13247764 -0.16137996 -0.1703985 -0.20240574 0.004118685 0.11608216 -0.05627991 -0.34122297 0.112438776 0.043956015 -0.25156727 0.2390678 0.34802577 0.17071246 0.1733187 0.013667739 -0.094443426 0.1560268 -0.47010496 -0.1867293 -0.09500905 -0.12571469 -0.08204809 -0.242583 -0.04382191 -0.01656403
6213 -0.30849224 0.020684797 0.09955232 -0.056200784 -0.2792127 0.00433142 -0.15689357 -0.164948 -0.19249213 -0.0157063 -0.14592092 0.18861224 -0.09683941 -0.28795397 0.07980278 -0.071169585 0.20683923 -0.13730957 -0.011283283 0.14103557 -0.075927675 -0.06413665 0.24424523 0.17634413 0.1128516 0.04621177 -0.26884958 0.33657956 -0.32136217 0.014447409 0.31349742 -0.053152 0.0382069 0.17652278 -0.25320336 0.0043908167 -0.09702973 0.1407556 -0.20815684 0.2512747 0.11520245 0.10169865 -0.21874215 -0.015948914 -0.17377888 0.112936296 0.0014904256 -0.21165046 -0.053020082 -0.10922755 -0.1664286 0.026475238 0.45090494 -0.010035849 -0.28875294 -0.14116521 0.17043789 -0.14327817 0.10351073 0.68950427 -0.31762373 0.16175066 0.03951812 -0.41973305 -0.07478677 0.33952272 0.11074823 -0.039911564 -0.0130259525 0.10868629 -0.15500142 -0.05643662 0.3682113 -0.008230213 -0.07432526 0.25218177 -0.045903753 0.15781917 -0.20384012 0.110443704 0.043501116 -0.22332951 -0.1646558 0.06950004 -0.029883137 0.20338997 -0.09202476 0.21437319 0.012382023 -0.3255738 -0.3842338 0.087805 0.17987119 -0.0070755514 -0.1408672 0.03175989 0.09097354 0.080806285 -0.04052375 0.024563806 -0.058072835 0.45483568 0.20205273 -0.18646014 0.054740865 -0.08456047 -0.053813178 -0.278616 -0.33577183 -0.355116 0.20547485 -0.18889499 0.119331345 0.09171364 -0.0077072 0.11881063 0.0057416447 0.02458547 0.17484534 -0.03697875 -0.218485 0.20983957 0.11327747 -0.28156346 -0.0101198265 0.10972291 -0.029806377 -0.16879697
3229 0.08835025 0.036302015 0.27783644 0.031506572 0.24984968 0.05450072 0.21740001 -0.08851764 -0.20313852 0.23944943 -0.2075535 0.2089666 0.07282656 0.0397943 0.028566975 -0.053057157 -0.005898827 -0.13181283 0.15211962 0.14937776 -0.052638415 -0.09692642 0.29551134 0.12075512 0.07675388 0.0051318277 0.28172415 0.035433125 -0.072469175 0.024389816 -0.15870784 -0.19507033 0.07669673 0.42944917 0.15432735 0.4229914 0.08542674 0.03731797 -0.08878158 -0.019158592 0.14863537 -0.29563817 -0.028749848 -0.12023424 0.07121985 0.027464805 0.007024855 -0.21461272 -0.04305107 0.1670076 0.075926095 -0.109220326 -0.07098678 -0.5568991 0.13246432 -0.25123885 0.18740341 0.07848395 -0.09412224 0.05431537 0.23717149 0.08854144 -0.44750565 -0.08603678 0.22989579 -0.1705923 -0.026047857 0.10931727 0.18857831 -0.08564272 0.2680949 -0.16827215 -0.22962682 0.13306148 -0.09077991 0.07725666 -0.083767496 0.01704852 -0.013041563 -0.19347204 -0.119765684 0.100357726 -0.035637137 -0.014850265 0.11608829 0.25997365 0.08389523 0.00076493307 0.35329407 -0.10064968 -0.08856862 0.15266204 0.21285824 0.24162796 0.12303081 0.057664417 0.3156731 -0.069006585 -0.21019737 -0.17427441 -0.42977548 0.24792127 0.08407824 0.06726581 0.040144943 0.33597094 -0.14817952 -0.0066239005 0.04218227 0.103686355 0.26053482 0.21153662 -0.1744087 0.22043763 0.38938805 0.35925284 -0.04947624 -0.1767735 -0.28632239 -0.28868118 -0.35423067 -0.10118444 0.16997807 -0.22907026 -0.13074605 -0.121846534 0.21551764 -0.18820526
910 0.13670738 0.23815304 -0.005694892 -0.014275211 0.44750464 -0.24491608 0.099234104 0.14474754 -0.28908244 0.23538373 -0.27400845 0.18008903 -0.007902367 0.00714088 0.06684814 0.20407674 -0.027911354 -0.38107175 0.13163576 0.17271055 -0.22504604 -0.0447993 0.03767533 0.07954913 -0.10062409 0.08563952 -0.21615359 -0.05196516 -0.5306737 -0.58921725 0.0022803168 -0.32446656 0.15236743 -0.13430166 0.1566088 -0.29465073 -0.2286727 -0.29833207 0.005597057 0.06509092 0.08812767 -0.29808757 0.34345892 0.04023043 0.27177966 0.19443877 0.15495805 -0.34607592 -0.03101841 -0.060605347 0.6735006 0.34309343 0.21493301 -0.33830592 -0.22615401 -0.09226675 0.09229412 -0.111747816 -0.14612475 0.1267039 0.03711677 -0.015680796 -0.13175061 -0.045837644 0.069093294 0.0560334 0.27120122 -0.11326172 -0.43774244 -0.07351959 0.06074786 0.040024765 -0.24046765 0.18628018 0.036606446 0.15896858 -0.23571962 0.14952883 0.19476764 -0.26525795 -0.35786694 0.19525923 -0.051283102 0.38645115 0.070065044 0.22848342 0.10008019 0.09894564 0.32626605 0.065300785 -0.21475868 0.036190078 -0.013303911 -0.20104823 -0.15631671 -0.024881896 -0.40261868 -0.2555274 -0.10940234 -0.4560857 0.07519993 0.25093782 -0.0021842974 -0.41978124 -0.0044738045 0.13317119 -0.5012752 -0.061030652 -0.024385279 -0.34715286 0.001837732 -0.30332214 0.04245654 0.3710759 -0.078427136 -0.108790234 0.27007434 -0.16950397 -4.654623e-05 -0.19531325 0.14578275 0.11471288 0.30253008 0.15919332 0.11332136 -0.051494118 0.17458563 -0.11797756
4330 0.05355748 0.14816412 0.22298904 -0.07566542 0.21665882 0.2324084 0.0887335 -0.25377923 -0.12527728 0.072002396 -0.0633184 0.28160742 -0.028630774 -0.23568225 0.1301844 -0.32763615 0.21304223 -0.30675215 -0.12743017 -0.23378214 -0.24270546 0.33097717 -0.21328938 0.19144711 0.31900293 0.3405591 0.12428911 0.07821446 -0.48261967 -0.19456169 0.17582458 0.24034083 0.28430173 0.23893471 0.1463433 -0.28269866 0.17646694 -0.23039383 -0.20257124 -0.11656145 0.31983733 -0.30761477 0.11906278 0.1401548 -0.046223246 0.111536756 -0.12751076 -0.18734956 0.027798718 -0.028682677 0.40751457 0.34084904 -0.077569425 -0.043467827 0.3570805 -0.13882706 -0.0788272 -0.12901963 -0.17958398 0.06618379 -0.16901417 0.2159607 -0.29855132 0.046707887 -0.22686161 0.43930712 0.103406675 -0.19920757 -0.38025564 -0.2756099 -0.115977995 -0.19542253 -0.40593094 -0.29910758 -0.29919744 -0.107784726 -0.0027680958 0.19562943 0.104480214 -0.19056882 -0.07027558 0.104043834 -0.12458727 -0.14876422 0.4155674 0.18007185 -0.007809838 -0.0026083924 -0.26679558 -0.23184069 -0.29678664 0.33736992 -0.048180465 0.035525467 -0.047035657 0.40209472 -0.22414193 -0.4779256 -0.30618155 -0.17505956 -0.2201778 -0.13985597 0.21529667 -0.14548135 -0.04234447 0.0933313 -0.22883777 -0.09576993 -0.10874783 0.1408355 -0.037344445 0.018768147 0.12499698 -0.009344129 0.19823384 0.11382546 0.10333803 -0.2866962 0.25625902 -0.26917955 -0.036788896 -0.041294053 -0.26859155 -0.17502888 -0.17619824 0.15850204 -0.3438418 0.2004194
114 -0.39393044 -0.10993102 0.08397073 -0.30495 -0.5581909 0.12420656 -0.026957748 -0.18895252 -0.3585408 -0.11097611 -0.26562607 0.0025416382 -0.0480548 -0.10703801 0.1923628 -0.0074620065 0.22183579 -0.030457307 0.093964934 0.18888764 -0.0114111025 0.24854346 -0.043147538 0.33197442 0.30761406 -0.054550257 -0.066513665 0.25712067 -0.25971344 -0.16278656 0.26555303 -0.39284968 -0.060789775 0.2836224 0.056064986 0.44050193 -0.17322303 -0.031321805 0.040554073 0.4280572 0.0123294 0.09416728 -0.052647337 -0.24922624 -0.10752336 0.1905124 -0.12138004 -0.28967965 -0.07224351 0.015458686 0.16394266 0.14425461 0.6155979 -0.062280163 -0.32153633 -0.1809899 -0.110345066 -0.10531787 -0.04649479 0.6701606 -0.4330748 0.20333758 -0.20351209 -0.42072853 -0.18108588 0.25382853 0.11852244 0.10101065 -0.054850273 0.11224524 -0.29922974 -0.1357925 0.33060402 0.04686401 -0.079592206 0.3277629 -0.045841962 0.14197622 -0.39288002 0.35956743 0.06917793 -0.2818676 -0.0036521067 -0.0745012 0.04852386 0.45227456 -0.123470485 0.5734073 -0.21358657 0.0302441 -0.08810238 -0.042169966 0.002072027 -0.09469093 -0.051097732 -0.19904362 0.022906119 0.14087844 0.068628535 -0.060144328 -0.065031864 0.35512516 -0.080175765 -0.0816495 0.09180428 0.029227389 -0.079416454 -0.37623942 -0.15068129 -0.5743125 0.3000489 -0.0077004475 0.24608986 0.26279652 0.06504555 0.40989155 -0.4593112 0.021872936 0.008650187 -0.27086812 -0.20543839 0.16334127 0.14361939 0.16519554 0.0864861 -0.016881114 -0.38110983 -0.05741544
3231 0.18939689 -0.4000884 0.21836853 0.20977528 -0.23624542 -0.050654937 0.03491355 0.31549978 0.1880749 -0.1924256 -0.08800077 0.26908755 -0.36920923 -0.07351658 0.21544847 -0.07991706 -0.0023731224 -0.30624196 0.21464674 0.14554724 -0.17139491 -0.04922849 0.0033399973 0.20490564 0.051456448 -0.30006528 -0.13353354 0.027475463 0.08052893 -0.116128236 0.13386932 0.021229155 0.5646174 -0.26076153 0.28746957 -0.48430383 0.22299209 0.14708595 0.51355875 -0.081065685 -0.16098839 -0.28875965 -0.056182053 0.30632794 0.19162631 0.39385414 -0.12103538 -0.19556367 0.06147651 0.29919717 -0.26227513 -0.26615113 -0.1918256 -0.14155036 0.28380105 -0.17882372 -0.13070941 -0.41734594 0.33875 0.07765471 -0.10448704 0.2372954 -0.26700824 0.10386506 -0.2181974 0.21406382 -0.116833344 -0.47319502 -0.16494632 0.07363344 0.017125905 -0.22049321 0.30250442 -0.08158861 -0.024043772 0.0022368839 0.31733033 0.26426247 -0.4070971 0.112281114 -0.21280879 -0.08341106 0.5738353 0.07316705 0.16551338 0.022178251 -0.016778072 -0.054575026 0.41275588 0.27161077 -0.13345493 0.17496839 0.20762672 0.14624596 -0.09248482 -0.09609885 0.2982491 -0.2442391 -0.2422201 -0.15915117 -0.26370937 0.08947405 -0.085498504 -0.18368883 0.08301838 -0.06696122 -0.009372198 0.12778899 0.013319249 0.23460202 0.14156708 0.64280623 -0.08043885 0.029658511 0.1818355 0.24632078 0.17201082 0.06608613 0.22291407 -0.34745035 0.05081392 -0.08461697 0.0774292 0.05484194 0.28311253 0.31889024 -0.1078599 0.20103523
19621 0.09472237 0.26096958 0.19409508 0.1410365 0.16591895 0.21733558 -0.26168138 0.5174689 -0.19949342 -0.060469396 -0.3316337 0.3999671 -0.14772694 -0.099194735 0.028891487 0.20678093 -0.2136661 -0.08343112 0.12509808 0.019138835 0.045468837 0.2213292 0.38210136 -0.09375703 -0.2721334 -0.18755034 -0.15858562 -0.16270897 -0.09661703 -0.30108738 0.12488107 0.030546347 -0.17607638 0.04585684 0.3597275 0.28810388 -0.10696076 -0.35893732 -0.2580995 0.21696848 0.14926453 -0.20364845 0.14686152 0.08565213 -0.14044932 0.23993586 -0.17021857 -0.049678948 0.11581246 -0.18178754 -0.011550999 0.16413374 0.0076454333 -0.39216253 0.28368998 -0.1316144 0.51637256 -0.09388629 -0.2507066 0.2287961 0.2638904 0.07861394 -0.08171061 -0.42440078 0.1597209 -0.1567628 0.04595949 0.31078827 -0.18803972 0.397349 0.333505 0.05516042 -0.36513928 -0.33867607 0.1800003 -0.02848016 0.13189918 -0.15493864 -0.052155085 -0.28973383 -0.51809984 -0.22151907 -0.3036412 0.7234059 0.46591735 0.31057155 0.17553367 0.23132664 0.08472059 0.06370905 -0.18389827 0.2828954 0.012039659 0.3124846 0.1741131 0.25803864 0.20701022 -0.41896868 0.0052329116 -0.18011677 -0.013414714 0.07082855 -0.087262385 -0.07767986 -0.36601633 -0.11867557 -0.075308375 0.19419418 -0.1100747 -0.30093524 0.48024473 -0.13424623 -0.06770014 0.5013988 0.29317176 0.07522786 0.03611665 -0.293835 0.11543944 -0.4209636 -0.44818166 -0.13918781 -0.25851086 0.19152719 0.25991583 0.35999674 0.27562955 0.013961735
1272 -0.094926804 -0.19548252 0.023225136 0.47472233 0.13181561 -0.0606271 -0.09485853 0.06318641 -0.12705895 -0.19089317 -0.03546773 -0.41497973 0.03840887 -0.23930979 0.31708565 0.18366992 0.13767649 -0.07580357 -0.37372985 0.07176952 -0.17972739 0.054013923 0.19639573 0.05821479 0.285303 0.044122644 -0.3838999 0.28581348 -0.096075654 -0.004216803 0.1941143 -0.15908898 0.504265 -0.095574185 -0.026429307 -0.08070533 -0.037783515 0.1277761 0.0018968334 0.21290515 -0.1401381 0.090389416 0.23729691 0.2849073 -0.11309749 -0.026244981 -0.3461308 0.13767083 -0.07728518 -0.31530383 -0.34069437 0.021097952 0.065914005 -0.3367085 0.19583327 -0.24118303 0.046268694 -0.021557542 0.0987888 -0.098235555 -0.023274003 0.01630524 -0.13381842 0.34225607 -0.18479073 -0.07245672 -0.3264286 -0.32336456 0.15173048 -0.18552355 -0.42601627 0.27892232 -0.19058344 0.24026522 -0.13112438 -0.10373364 -0.058569066 0.1153081 -0.25123125 -0.010251586 -0.36002555 -0.33758688 -0.064270414 0.18617065 0.07819948 -0.059277095 0.18485942 0.12465833 0.12142041 -0.31669396 -0.15397483 0.01737188 0.09736197 0.21111502 0.1662771 0.037130717 0.08083616 -0.06503578 -0.14100969 -0.18308619 -0.3225541 0.35170358 -0.095843 -0.1473274 0.05830458 -0.24157682 -0.16335015 -0.11185493 0.26314628 0.17692535 0.09837908 0.28339016 -0.08312624 0.07637499 0.10854849 0.23616756 0.18710344 0.050341435 -0.33604276 0.009772085 -0.0047200276 -0.09511639 -0.32369784 0.051083516 0.16600153 0.19843291 -0.5561169 -0.063353285
2440 0.5031476 -0.10683757 0.086782336 0.36268708 0.03108049 0.37934893 0.01582376 0.096351616 0.035888385 -0.22383332 -0.35537374 0.13157108 0.20463349 0.03386299 0.121828005 0.2003128 0.36397782 -0.055056103 0.14094757 -0.18409625 -0.31920192 0.39640728 -0.009839428 -0.02491733 0.44995376 0.15945157 -0.37104067 0.40142694 0.39338183 -0.003556373 0.07717912 -0.21592799 -0.01688304 0.066574775 -0.46813002 -0.26763752 0.26288155 -0.16638727 -0.5600865 0.33067882 0.11569456 0.094133705 0.116781354 0.037739325 0.019384667 0.029954812 -0.11628528 -0.21111727 0.077542454 0.17204893 0.23611991 -0.02606748 0.0302582 0.18021752 0.20121115 -0.18091916 0.07301867 -0.3444699 -0.010002996 0.16393475 -0.050744686 -0.14331317 0.23936184 0.07917161 -0.6693598 0.074435495 -0.33140847 -0.22572757 0.022311788 0.33298093 -0.046233226 0.14867494 -0.15001015 0.6914486 -0.4248722 0.107631296 0.32995766 0.1406866 -0.39035589 0.08445747 -0.27555922 -0.16715267 0.12941821 0.06512265 -0.047469545 -0.20242278 -0.2911506 0.06510508 0.0020294476 0.0054029925 0.09283829 0.11106152 0.25121853 -0.088029414 -0.045324843 -0.4183379 0.45681375 -0.07303078 -0.0025717565 -0.011743694 -0.7454645 0.509294 -0.30680317 0.26476026 -0.0889535 -0.005196996 -0.480759 -0.13250837 0.4285417 0.2865197 -0.33133256 0.033249307 -0.33678702 0.46254146 -0.09076815 0.40335116 0.17297135 -0.215607 0.047446672 0.43521455 -0.010388476 -0.3129223 -0.04433307 0.1893822 0.30756178 0.29045206 -0.07662195 -0.28161266
4584 -0.20363274 -0.015302007 0.11529987 0.08375369 -0.11725415 -0.062202305 0.02133445 -0.07555557 -0.19295262 -0.040429484 -0.17973514 -0.0012728313 0.0054959212 -0.07741607 0.0011869693 0.20256394 0.1615878 -0.27458966 -0.15895006 0.09647419 -0.03010999 -0.17011477 0.23249242 0.4306589 0.22814909 -0.15279996 -0.124653354 0.56684923 -0.2837651 -0.3386219 0.078459695 -0.48087463 -0.07038516 0.027280087 0.017960465 0.096376576 -0.19820815 -0.31641683 -0.17167895 0.19180825 0.044884898 -0.09402527 0.097981356 0.20527041 0.05734406 -0.066836126 -0.079446815 -0.23452498 0.06981516 0.13399138 -0.46457967 -0.027248112 0.45484868 -0.3020801 -0.14681523 0.044702083 0.22447063 -0.2255269 -0.054907046 0.25157404 -0.5182414 0.046659507 -0.112679824 -0.32365313 0.09241523 0.3469402 -0.18705514 0.1127774 0.015732255 0.087879665 0.11825736 -0.17416266 0.049496688 0.11613199 -0.091884375 -0.12147695 -0.15239796 -0.021136701 -0.13710764 0.27619126 0.14991795 -0.022440536 -0.24625036 0.15623048 -0.08133479 0.4518118 -0.054270163 0.26411742 0.17114224 -0.32966065 -0.22370692 -0.11810484 -0.06637034 -0.14774176 0.028641293 0.13334475 -0.048125166 -0.26264808 0.04104052 -0.1905444 0.09022627 0.56012994 -0.12974095 -0.15666905 -0.119316004 -0.28233084 0.0313372 -0.053384226 -0.16702266 -0.08919102 0.20635922 -0.2225649 0.08507938 0.11440454 -0.1070055 0.14419368 -0.023174468 0.01702216 -0.05132374 0.07306053 -0.4126231 0.2125809 -0.012127238 -0.16837673 0.11531369 0.12314235 -0.3860195 -0.052440863
24966 -0.121082716 0.17758907 0.46164694 -0.017879518 -0.3425636 -0.4562129 -0.3166803 -0.1554727 0.15560211 0.31734505 -0.19115233 0.104008935 0.10450409 -0.38146886 0.17157795 0.12860669 -0.059881277 -0.31080386 0.35980797 -0.02368702 -0.19735853 0.221825 -0.26982677 -0.07815391 -0.06427663 0.31952924 0.09150545 -0.21369228 -0.23237991 0.03400155 0.03643624 -0.8375151 0.72929084 0.105453454 0.057366963 0.26317123 0.121407494 0.18849584 -0.1935968 0.05922625 0.50417143 -0.47883824 0.24200462 0.10951534 0.27586827 -0.2379799 0.32988465 -0.47919583 0.023100475 -0.21121588 0.21911483 -0.12288825 -0.021114783 -0.41477153 -0.045320872 -0.082309976 0.049273964 -0.039016984 -0.16233149 -0.025209736 0.45037124 0.38463947 -0.31981274 0.34032586 -0.17610936 0.3553511 -0.11046056 0.048513852 -0.40971467 0.07286999 0.24770008 0.22889905 -0.26821968 0.053071413 0.050724126 0.26413518 0.046426494 0.35287622 0.13995682 -0.2894882 -0.27373707 0.09613058 0.05692085 0.1790582 -0.03187442 0.3223391 0.33982617 -0.25138924 0.10131197 0.086670764 0.27258885 0.16469808 -0.18343167 -0.080580145 0.08659006 -0.36147887 0.0052436753 -0.43897805 -0.1951079 0.09018606 -0.08598367 0.25140455 0.22317734 -0.30979264 -0.011596971 0.40762487 0.15351483 0.029783815 -0.15944272 0.24815986 0.46820882 0.20235844 -0.03457721 0.46599722 0.2517699 -0.18551569 -0.004388762 -0.21498014 0.49960446 0.28533486 -0.03150817 0.22753787 0.03977312 0.117667265 -0.1602997 -0.08734392 0.014282835 -0.01633881
6214 -0.11498793 -0.10283014 0.10578443 -0.15702628 -0.16756678 -0.10083694 -0.12705076 -0.2129616 0.07136186 -0.17885378 -0.12100384 -0.018532412 0.018497529 0.01877904 0.054875445 0.43147385 0.30874556 -0.011042101 -0.18014503 -0.0038643852 -0.17506744 -0.041726895 0.2476915 0.37686676 0.29411754 -0.014562107 -0.12808907 0.51924706 -0.20992504 -0.2437624 0.2256203 -0.19396034 -0.25292227 0.30777362 0.3048028 0.1783717 -0.046611577 0.18672921 -0.062139187 0.24832714 -0.1502928 -0.07419875 -0.0973618 0.13232942 0.057795368 0.11160111 -0.4216725 -0.11344786 -0.0013903269 0.009370469 -0.2537869 0.119460866 0.42282918 -0.165271 -0.42004144 -0.13265485 0.3494717 -0.010105468 -0.015635332 0.37084112 0.0024424575 -0.12546548 0.034909118 -0.15639031 -0.016149836 0.5112055 0.015560162 0.13171633 0.12855992 0.072763264 -0.2638662 -0.19900818 -0.16926724 0.0005701625 -0.13331616 -0.07031948 -0.05207923 -0.0422799 -0.046757612 0.24780403 0.31825405 -0.21987697 -0.0312737 0.094906524 0.039007615 0.3519242 0.16450837 0.31665957 0.13508318 -0.009947833 -0.23194177 0.23592646 0.056046974 -0.043750927 0.085483454 -0.07808599 -0.112133026 0.042633656 0.19329149 0.10608893 -0.056032 0.3136889 -0.114802316 -0.21064629 -0.3301543 0.040436085 0.36275315 -0.041309744 -0.099086545 -0.40130895 0.24773738 -0.166585 0.20434356 0.16682602 0.07179244 0.34255478 0.16369554 0.09207103 0.19608265 0.22673504 0.09875146 -0.027010767 -0.10524955 -0.087579705 0.030241152 0.14166676 -0.2540225 -0.29256207
887 0.11975655 -0.06643711 0.09839328 -0.0027917945 -0.026081132 -0.04265779 0.20651327 -0.21880528 0.03262868 0.091426894 -0.00048163708 0.18345167 -0.063582286 -0.20893992 -0.1026313 -0.12653217 0.29156747 -0.407075 -0.32217196 -0.03162194 0.19220667 0.028654514 0.18252507 0.20445517 -0.02939488 0.19741991 -0.15603364 0.20328386 -0.049457453 -0.09406092 0.025080401 0.13919467 0.09935657 -0.13189155 -0.29100174 -0.026818745 -0.037459053 -0.053539757 -0.25909165 0.25487515 0.046834115 -0.13641965 -0.13425441 -0.05042457 0.22096579 0.097495526 -0.1327944 0.11240842 0.11158592 -0.34247327 0.1595966 -0.16939019 0.14093721 0.082892366 0.012318532 -0.18267202 0.33039328 0.052813943 -0.028693698 0.58825356 -0.122367136 -0.24713406 -0.4484181 -0.057052802 -0.011071838 0.43514356 -0.06962842 -0.27395582 0.19520174 0.49840352 -0.14256524 -0.009355425 0.3185352 0.019369835 -0.020085713 0.08118032 -0.14261363 0.017227571 0.029389985 0.13090202 0.34497625 -0.3501993 -0.14525135 0.08989953 0.04149747 0.101799436 -0.007712696 0.07292569 -0.064861275 -0.47285512 -0.14113826 0.045694154 -0.2537467 -0.1949824 0.0071662194 -0.40457314 0.44587713 0.1118022 0.11479192 0.14404365 0.08889129 0.4573884 0.5639634 -0.09679251 -0.33277643 0.0448231 0.2096491 0.03417429 -0.26631337 -0.21823297 0.032224994 0.22278328 0.012264244 -0.1127087 0.16387461 -0.07460114 0.34885693 -0.061107054 -0.067352906 -0.3703436 -0.025544193 0.21258484 0.052171342 -0.13529424 0.26576257 -0.060580373 0.118311755 -0.3106757
2665 0.30517647 0.69565415 0.1844501 -0.012079793 0.112017944 0.18686876 -0.32139117 0.014857444 -0.4851516 -0.1750394 -0.15019903 0.6187109 0.055812653 -0.2505715 0.6037528 0.2168116 0.00011920083 0.41132993 0.4589411 -0.15226084 0.2799642 -0.14475338 0.048601028 0.27761889 0.04674206 -0.00093543675 0.20955932 -0.2680194 0.393658 0.27707168 -0.12387956 -0.45059985 0.17997806 0.38373834 0.33956483 -0.49270028 0.17413433 0.10941172 0.3509468 0.30402464 0.33002025 -0.56245345 0.32366168 0.1773403 0.40407047 -0.112847105 -0.040640064 -0.6124986 -0.26188642 -0.022257822 0.181639 0.25700638 -0.097740985 -0.27780205 -0.22452784 -0.2859393 -0.27254802 0.181243 -0.78015745 0.52299094 -0.27695966 0.17962423 -0.19231313 -0.24643229 0.40018126 -0.20318201 -0.45085213 -0.34748608 0.30103782 0.28607333 0.13894115 -0.258184 -0.11222601 -0.0831183 0.02121058 -0.14145756 0.33564174 -0.054693848 -0.13418154 -0.26412448 -0.17520496 -0.11037203 -0.3141125 0.67867875 0.76796454 -0.06634372 -0.09908781 -0.10962929 0.19839694 -0.025142167 0.11978173 0.47505236 0.13992207 -0.37316182 0.32094985 0.064588465 -0.11711239 0.4777622 0.026566833 -0.21257624 -0.1302769 0.45066357 0.4034664 0.17827718 0.14958194 -0.7331331 0.13459447 0.36064437 -0.7026447 -0.5359817 0.48065206 -0.22663598 0.17869112 0.13916673 0.55960274 -0.21524777 0.58622104 -0.5904831 -0.16332112 0.19176553 -0.41852772 -0.3802017 0.24013177 0.16871302 0.124317415 -0.024024148 -0.5674813 -0.38997376
20193 0.16167861 -0.24310671 -0.23360386 -0.6093323 -0.5514242 0.14532101 0.20162857 0.24189036 0.17308564 0.87597936 -0.4066746 0.14497262 -0.038036883 -0.2891093 0.26047504 -0.29332253 0.6208869 0.29079875 -0.5794974 0.027373262 0.12083269 0.21453297 0.6437618 -0.6239242 0.68378544 0.19099107 0.23543881 -0.34556845 0.03756478 -0.09358738 -0.25069505 0.33286226 0.33299434 0.14997543 0.0704236 -0.24015795 -0.48201472 -0.44069996 0.20128286 -0.016439794 0.46803886 -0.0776736 0.20912376 -0.13311765 -0.24806234 0.17791383 0.012974918 -0.31847537 -0.17088093 -0.0053422945 0.12175354 -0.44127414 0.076548114 0.2986213 -0.20137143 -0.37428078 0.3645939 -0.49275237 0.45464456 0.4287591 -0.33449996 0.14956243 0.08658653 -0.36556098 -0.05044229 0.4751098 -0.38125193 -0.77653605 -0.36192355 0.065866165 0.17705674 0.10937489 -0.34046692 0.33641133 0.047378227 0.18327759 -0.15569782 -0.2883981 -0.16420211 -0.2612935 0.25887907 -0.7912776 0.25808668 0.02299689 -0.4727446 0.11502436 -0.013148998 -0.042315044 0.26507267 -0.1775419 -0.27472386 -0.6102032 -0.3425186 0.24787 0.49099582 -0.34231675 0.29165608 -0.4093333 0.28505602 -0.35622355 -0.62135804 0.22196966 -0.40732712 -0.044152196 0.35216826 -0.34159815 -0.544871 0.4396869 -0.1950814 0.16805156 0.54285705 -0.3253087 0.55413 0.59044343 0.50993526 -0.008911191 0.10338231 -0.24775858 -0.1133445 0.8511242 0.12624331 -0.40379405 0.22260316 0.15698496 0.31279266 0.079221815 -0.3613104 -0.015968278
8224 0.55905217 -0.10706045 -0.35299695 0.2142252 -0.43034473 0.24710599 0.0570923 0.3522979 -0.044688154 0.015755622 0.051816963 -0.28177217 0.20398328 -0.29029578 0.34944206 0.2065523 0.07702528 -0.07909653 -0.21432269 0.14295152 -0.7317529 -0.06808128 0.07776005 -0.12737209 0.23490164 -0.14865153 -0.265446 0.29685596 0.029098537 -0.15327446 0.6625098 0.09192216 0.36935002 -0.34765813 -0.06951268 -0.08679451 0.048939876 0.46848854 -0.36232528 -0.082525656 0.04151699 -0.025602033 0.28430486 -0.12966163 0.17374551 0.04614194 0.09722429 -0.59903663 0.22619581 0.05369263 -0.06463349 0.24873841 -0.5027625 0.63276964 -0.04954073 -0.009831602 -0.022967223 -0.24924877 0.16738743 0.008983729 -0.21082342 0.09579216 -0.13285503 -0.1812491 -0.17161109 0.13975473 -0.41008693 -0.23646893 0.14764957 0.032320168 -0.19639537 0.089934714 -0.27194372 0.022635221 0.0011404242 -0.10647048 0.11239788 0.24198648 0.0014113659 0.023464696 -0.19109818 0.06031167 -0.02991528 -0.14164253 -0.102582164 0.036113504 0.3519355 0.2636511 0.00028809186 0.03973766 0.27498716 0.12682332 0.026907291 0.007078248 0.09892434 -0.06789643 0.0892259 0.031620793 -0.11442167 -0.20944138 -0.39110175 0.3380034 -0.03687375 0.15054043 -0.15768106 0.24222535 -0.04310181 -0.060019948 0.16365464 0.091639906 0.027409324 0.11713674 -0.13436873 0.580638 0.8519652 0.05826512 0.33968806 -0.07940809 -0.10409481 -0.044929303 -0.02835476 -0.0053183655 -0.17059119 -0.017531782 0.26543584 0.352252 -0.09274359 0.008390288
12182 -0.21799569 -0.08040844 -0.07085457 0.25246906 -0.03357619 -0.16185646 -0.45520467 0.13743399 -0.1691686 0.69066477 0.037984557 -0.0036826665 -0.31401917 -0.19332315 0.23215851 0.02214051 -0.47039628 0.25788328 0.54132736 0.17513928 -0.1238974 0.016314464 0.3476873 0.14605321 -0.1789552 -0.021507988 -0.46741375 0.18963072 0.1414321 -0.39400035 0.13931227 0.00015561384 0.34451252 0.14271031 0.510748 0.026479 0.14247723 -0.13321005 -0.15915781 0.021027869 -0.21638685 -0.014041102 -0.003782767 0.4182698 0.12697673 0.23113172 0.25718376 -0.41620415 -0.15286262 -0.70973593 0.2904868 -0.056925714 0.30299905 0.22458838 0.30526957 -0.06468612 -0.28504387 -0.24461131 -0.07246701 -0.28628695 -0.31416792 -0.34203616 -0.8023726 0.07330652 0.13045475 -0.07617504 0.4508371 -0.35015216 0.27047104 -0.008342626 -0.7401954 0.10946992 -0.55403286 0.23310941 -0.16391289 0.36308253 0.12003473 0.3835943 -0.2986867 -0.16091742 -0.0025623052 -0.12055574 0.044405777 -0.6562734 -0.31280094 -0.47019672 -0.17507885 -0.0565936 -0.10462914 0.15825664 0.24058528 0.25715742 0.24643852 0.020370746 0.07330003 -0.33796546 0.33343232 0.16541128 -0.26069516 0.42889664 -0.48788485 0.26176903 -0.37590307 0.014629741 -0.8592613 0.059261795 0.015105991 -0.047931332 0.0762951 0.10187998 -0.06727015 -0.13793066 0.70892125 0.33673778 0.52620643 -0.112097435 0.16906758 -0.1505426 0.24937539 0.23209527 -0.28107715 -0.32374203 0.07877475 0.029713988 -0.5487642 0.38139784 -0.2265548 0.16630274
82920 -0.022334503 -0.0167998 0.5852983 0.19949128 -0.22008705 -0.1647947 0.26567703 0.23227078 0.22095048 -0.04465285 0.21644537 -0.19983271 0.0039818897 -0.027009578 0.80414736 0.13493533 0.25616637 0.036925644 0.080527425 -0.14236878 0.00059645594 0.35784554 -0.23125409 -0.22864304 -0.25617057 0.066813245 0.0033507633 -0.021998925 -0.17414749 0.11669231 -0.18324187 -0.11551335 0.26995388 -0.1529593 -0.33929458 -0.3575819 0.28997445 -0.13942075 0.35769278 -0.22119725 -0.24863674 -0.15595199 0.2505974 0.22084588 0.1452414 0.030308796 -0.45309526 -0.28599334 0.15315859 -0.049781747 0.1945634 0.14459091 -0.24927963 0.11928164 0.005619897 0.05880972 0.07964138 -0.1327304 0.058168117 -0.12889048 -0.20835602 -0.18914892 0.035978016 -0.24847236 -0.25951144 -0.06990373 0.2378039 -0.2200705 0.05567656 0.7964829 -0.36719102 -0.3656881 -0.15524672 0.11334591 0.18124872 -0.11696888 -0.15989701 -0.27359432 0.23805 0.28359756 -0.077906415 -0.18949105 0.12990399 -0.35627413 0.2394808 0.31166467 -0.12059471 0.21502738 -0.028621472 -0.2439841 -0.17064247 -0.3295404 -0.19207515 0.34009802 0.39876166 0.07813024 0.35621908 0.08445955 0.3452306 0.3960189 -0.5685664 0.8788343 -0.1463963 -0.42787042 -0.2779574 0.19687657 -0.123910286 0.065869406 -0.34171766 -0.35232246 0.18737192 -0.18410993 -0.07715286 -0.34341577 0.22231317 0.31997725 0.2729204 -0.44892713 -0.12034563 -0.1339907 -0.12845 0.61208403 -0.17338568 -0.028332362 -0.06662716 -0.18645696 0.39883703 0.29971725
10169 0.18473975 -0.63823664 0.04677762 0.45765474 -0.041573483 0.14988019 -0.13815843 0.13379665 0.031933103 -0.081302635 -0.2185207 0.0015374343 -0.4114102 -0.35980758 0.51499283 0.24971126 -0.037040386 -0.07679187 0.2729872 0.3218858 -0.06382523 0.19288164 0.093257725 0.39177713 0.10949347 -0.38197765 -0.045938004 0.11610089 0.19359186 -0.10411353 0.06712176 -0.052473 0.4287658 -0.26236287 0.036849245 -0.05604187 0.15874131 0.03807623 0.5788467 -0.08953911 0.32193813 -0.098714426 0.271424 0.1865745 -0.06772267 0.38464072 -0.0015231728 0.097980455 0.28347656 0.022115054 -0.123583734 -0.40604246 -0.18251087 -0.010545418 0.11080713 -0.3714668 -0.030911328 -0.21926029 0.44343302 0.026384559 -0.090680666 -0.06970236 -0.4417 0.06797938 -0.28781235 0.09119522 0.007195926 -0.6989241 -0.26382273 -0.15388608 0.022862513 -0.17450091 0.032446176 0.06889826 0.22064948 0.14115496 0.20267887 0.063059725 -0.35920256 0.10494249 -0.15527445 -0.21198685 0.45369172 -0.12678842 0.036440928 0.14708266 0.06314616 0.017400425 0.3294298 0.1250986 0.10775812 0.28542125 0.24043389 0.104536206 -0.18802166 0.14258029 0.03600543 -0.39116076 -0.21293885 -0.4746266 -0.21884337 0.31766585 0.021189995 -0.010427104 -0.18434939 -0.096680745 -0.0061005484 -0.049979944 -0.008324479 0.36899552 0.20751876 0.31711948 -0.12016358 -0.4475921 0.080583975 0.18628566 0.6628425 0.26397812 0.13802424 -0.15063754 0.21695448 -0.13338463 -0.094298065 0.0051872707 0.27029297 0.09890457 -0.23993587 -0.008362644
12350 -0.21637806 0.18556397 0.291629 -0.2734654 -0.23100813 0.015025128 -0.1099339 0.06412851 0.12350436 0.6992601 0.14763413 0.17262544 -0.19446345 -0.28130877 0.2680283 0.02538856 -0.22798257 0.1711018 0.23725075 -0.45858362 0.05453544 0.36754313 0.50058633 0.009823155 -0.16057047 -0.092390075 0.0029219994 0.20758384 -0.5533404 -0.3722417 0.28251514 -0.056676924 0.065586545 -0.013867029 -0.058423407 0.027154472 0.3727693 -0.36337736 0.05725484 0.030748779 -0.32142866 -0.04962519 0.5012509 0.25119427 -0.06110363 -0.06454742 0.31536508 0.033751886 0.040179577 -0.13778725 -0.09008281 0.14777122 0.3288616 0.4138451 -0.34542683 -0.1640643 -0.1393808 -0.2158569 -0.08680643 -0.08771749 -0.3112883 -0.1640208 -0.09276731 0.32349718 -0.3452735 -0.050760977 0.30153683 -0.28207868 0.42524382 0.2198415 -0.19578719 0.04693046 -0.7259125 -0.14826462 0.14126046 0.1479326 0.3790427 -0.2780306 -0.457255 0.01494337 -0.20630082 0.06414016 0.39956433 -0.141513 0.12294109 -0.23714611 -0.019839441 -0.25331724 -0.14649515 -0.29865617 0.038133197 -0.04034595 -0.030654483 0.14844982 -0.110827975 -0.28002304 0.33549082 0.20641276 -0.34440693 -0.23345539 -0.4800759 0.5689076 -0.22829303 -0.45927075 -0.25004056 0.013568857 0.13350014 -0.06102466 0.22340252 0.018768024 0.097819366 -0.026666274 0.22435574 0.0874343 0.18721649 0.43958023 0.5321749 0.44832614 -0.17791557 0.057909664 0.21975797 -0.07866872 0.059396982 0.12578882 -0.09331826 0.078182764 -0.11345712 0.11691581
22563 0.0833409 0.14793299 -0.1797121 0.041470468 -0.3292114 0.3235866 -0.4205127 0.19445796 -0.00805995 0.38849768 -0.18925649 0.1383123 -0.3107874 -0.5327548 0.33021808 -0.061369665 0.20523064 0.040845748 -0.25327912 0.08380381 -0.5553132 -0.37756062 0.11002264 -0.07083792 0.37451637 0.31570202 -0.27849293 0.28664985 -0.29659083 0.093899116 0.4179539 -0.13977106 0.068237446 -0.46643 0.30551267 -0.3611425 -0.045701582 0.37709835 0.043909248 -0.083151214 0.061949372 -0.10032645 0.26400745 0.078464985 0.36378205 0.24887845 -0.2588433 -0.19085047 0.099397115 -0.13906029 -0.07866493 0.3556037 0.4790409 0.36301538 0.21061195 0.18303484 0.2595595 -0.07452824 -0.23413053 0.0015046854 -0.034814 0.24214627 -0.3223542 -0.21283601 -0.049273517 -0.21406202 0.10564356 -0.082923576 0.059231732 0.035218157 -0.053686302 -0.10385762 -0.06611526 0.005979999 0.1275809 -0.3987411 0.020302324 -0.076769546 0.17825162 -0.2581345 0.102315016 -0.07984135 0.3454248 -0.0011651808 -0.17093414 -0.33738333 0.05189987 -0.047875993 -0.028686523 -0.028899945 0.1972963 0.37457195 -0.16066888 0.0919567 0.16649468 -0.0454782 0.29990706 -0.09030447 0.0512358 -0.2517808 -0.32228917 0.5724586 0.038772635 0.03261049 0.2547594 0.092024 -0.4523162 -0.20594122 0.04309769 -0.11934723 -0.0060565425 -0.025442477 -0.4258706 0.34890088 0.2032795 -0.13278882 -0.39151978 -0.18728483 -0.2908521 -0.071085036 0.49287188 -0.11847795 -0.20297576 0.019875119 0.08947351 -0.0136124175 -0.18657023 -0.40017822
12576 -0.16488965 -0.22931643 0.036409177 0.5195375 -0.16518646 0.1747309 0.29031262 -0.039349236 -0.3683911 0.32231313 -0.1937484 -0.488855 -0.5095542 -0.17455883 -0.28908393 -0.32335076 0.37615934 0.19021745 0.5006866 0.3879587 0.3545619 0.38104802 0.07182359 0.030635368 0.05451005 0.21863429 0.009864579 -0.10318777 0.22688036 0.07452206 0.43860996 -0.16217348 0.0056045917 -0.26718476 -0.23185802 -0.57202876 0.01797947 0.046534732 -0.21418135 -0.3760777 -0.19458736 0.1680974 -0.2506033 -0.13917597 -0.0052091274 0.057124235 -0.23433954 0.07077796 -0.034306552 -0.2020043 0.06114892 -0.21751845 0.39819083 -0.0057206205 -0.21199141 -0.28657886 0.54987746 0.16622303 -0.21093567 0.50304675 -0.18074855 -0.21809982 0.16474324 -0.26018998 -0.11917679 0.6300201 -0.14096193 -0.44574094 -0.298166 0.06320794 -0.11513153 -0.17446257 0.40356815 0.054742776 0.19716845 -0.2826837 0.2653798 0.076994374 -0.07692958 0.28687677 -0.21470915 -0.04140151 0.28151703 0.18011181 0.009782095 0.18138811 0.013976525 -0.12121393 0.223702 -0.3401739 -0.40055934 0.3544784 -0.2724817 -0.09503688 0.5584772 0.11461736 0.36529493 -0.053316675 -0.026997924 0.14625134 -0.35497415 0.43214366 0.4634715 0.0696441 -0.30879706 0.06820117 0.123375475 0.057663668 -0.046953022 -0.41282472 0.14381285 -0.31102225 0.1002417 -0.24103154 0.06745309 0.24568832 0.38097963 0.15755057 -0.092566006 0.124600105 -0.45578772 0.20932971 0.3762608 0.22670242 -0.16828428 0.13384062 0.0614267 -0.05164352
31353 -0.299215 -0.100667045 -0.11892469 -0.23654824 0.36372814 0.4404336 -0.48925275 0.5160319 -0.26083934 0.16671379 0.3025598 -0.3553881 0.41439733 -0.40884134 -0.23619944 0.35866985 -0.25009933 -0.13755034 0.29312024 0.17722465 -0.49281624 0.013613621 -0.032257486 0.53997165 0.62755424 -0.048467245 0.56019497 -0.09070084 -0.3245891 0.2318605 -0.2363647 -0.59722185 0.8156253 0.18426836 0.32058528 -0.2092405 -0.5095862 -0.20403525 0.07346968 -0.2260314 0.11370152 -0.27350873 0.08552507 0.39679247 0.34119207 -0.28591815 0.6859315 -0.17876922 0.18813322 -0.5407776 0.14689238 0.002895092 0.3175826 -0.0559105 -0.46507508 -0.22759576 -0.06774145 -0.06892677 0.086327374 -0.11799658 0.19025531 0.82131845 -0.01579285 0.084983036 0.09906192 0.35191295 -0.24876237 0.21169966 -0.20824423 0.6179014 -0.23763995 -0.20969437 -0.30016804 -0.21006873 -0.15737396 0.23913202 0.009338427 -0.024346085 -0.4607159 -0.39379612 -0.14100848 0.49682572 0.26521888 0.20097989 0.06034504 -0.10960892 0.0047842013 -0.31361043 -0.4296982 0.008285893 0.029561492 -0.3902955 0.024209365 0.119689584 -0.1108774 -0.39518145 0.6641413 -0.3059703 0.08496365 -0.3462186 -0.30154368 0.5147208 -0.19292554 0.3158928 -0.83032376 0.15455508 -0.16553567 -0.0074914265 -0.21021795 0.23383085 -0.044719752 -0.24808595 0.18614443 -0.06296632 0.37275714 0.91034335 0.63377416 -0.2397503 0.4828653 -1.0213386 -0.14495395 0.032979358 0.060751006 0.3508432 0.145601 -0.6515734 -0.06312923 -0.076976575
15429 -0.22343975 -0.52452445 0.3427377 0.138641 -0.4023201 -0.40579563 -0.62754816 0.22045437 -0.28052342 0.6793767 -0.32666203 -0.19428083 -0.0913399 -0.60341084 0.3177331 -0.031560354 -0.33946314 0.25721854 0.4339564 0.03787373 -0.06684101 0.15830448 0.58603007 0.10184037 0.5023714 -0.11132567 0.005751303 0.10329717 0.15451962 -0.5120108 0.07658498 0.2108489 0.050342534 -0.35062087 0.2422106 -0.0036863126 0.08457294 -0.2706768 0.28734937 -0.045738734 0.18390162 0.032425217 0.34088492 0.16629928 -0.53903186 0.18199404 0.28325352 -0.37814227 -0.12414071 -0.080930255 0.17403749 -0.110399395 0.07729578 0.06355519 -0.37324068 -0.563288 -0.08212074 0.028951015 0.10720952 -0.010741867 0.19567521 -0.07623286 -0.5264093 0.23383567 -0.6055907 0.15304947 0.09432089 -0.2515021 0.25428444 0.00909877 0.03163557 0.16414978 -0.8106529 -0.02014239 0.25541633 0.12031519 0.57892805 -0.14450647 -0.09191663 0.028609788 -0.4790736 -0.09280781 0.46038476 -0.13199235 -0.3482936 0.0359893 0.084402874 -0.376475 -0.05636344 -0.1565185 0.13856477 0.13059066 -0.015979346 -0.05465147 -0.4117925 0.1268829 0.19880019 0.12613133 -0.13857856 0.12389312 -0.5117883 0.4874527 0.1696133 -0.12650092 0.20721236 0.36301807 0.18445942 -0.30537838 -0.044060778 -0.3914389 0.17879564 0.059631165 -0.061837193 -0.40231314 -0.42818487 0.33400032 0.40915346 -0.021256136 0.3560024 -0.12562463 0.20801838 0.124634705 0.2478459 -0.017099118 0.16313405 0.11221022 -0.34701398 0.038365964
8703 0.4291942 0.176904 0.1010398 0.23708667 -0.61370784 -0.0654965 -0.08693576 -0.07841122 -0.0020408966 0.14143027 0.41600823 0.5889094 -0.100690424 -0.1829004 0.4215751 0.07234957 0.5044422 -0.50553584 -0.06419607 0.51589763 -0.23187914 -0.4680065 0.51379114 0.04203159 0.010041394 0.41835546 -0.112515286 0.2318638 0.037276264 -0.16033752 0.08300726 -0.32913777 0.34196457 -0.073889665 0.3091207 0.04586446 -0.3221083 0.03237471 0.1764177 -0.1384397 -0.90524316 -0.051402584 0.15911765 -0.010967553 -0.47567892 0.18595862 -0.19230509 0.1496128 -0.0043152208 -0.06611023 0.18538493 0.2277849 0.09911203 0.2035443 -0.51377386 -0.1186159 0.02066885 -0.12436687 0.28364086 0.6974817 -0.0673303 -0.12749687 0.0023344392 -0.362912 -0.44813645 -0.10897963 -0.11893987 -0.18023667 0.110647075 0.16411354 -0.44044423 -0.063272275 0.0008019877 -0.052247643 0.06789244 0.05960218 0.24584132 0.07091648 0.11750786 -0.195364 -0.04963772 -0.1668889 -0.012695397 0.079576224 -0.09899001 -0.4723422 0.20827256 0.061640427 0.22717226 0.075889446 -0.17781487 0.16277242 -0.18877566 0.16769134 -0.36983755 -0.49322423 0.15973361 -0.2745226 -0.39115655 -0.42126933 -0.23449759 0.50617003 0.26198712 0.14760238 0.20329894 -0.17477863 -0.21344383 -0.16785572 0.2745269 -0.080687426 -0.19657551 -0.011600424 -0.519055 0.23116794 0.330321 0.06983279 -0.08605869 0.091612585 0.42228892 0.87007207 -0.31831986 0.12052714 0.012443412 0.18655919 0.43482354 -0.18552442 -0.4166516 0.08765624
39890 -0.58499575 0.030714812 0.10056706 0.2350843 -0.6280788 0.050162565 -0.15251623 -0.103533626 -0.26452827 0.99950856 0.17071877 0.049545974 0.22983216 0.3749637 0.38974038 0.16494095 0.19668236 -0.5081861 0.23908357 0.1525756 -0.08694904 0.19612084 -0.027085913 0.5303889 0.04143901 -0.5845964 0.19037625 0.27155092 -0.10107925 -0.022334 0.1618595 -0.015028203 0.31083828 0.3438007 0.6690201 -0.28627613 -0.19257897 0.5108832 -0.124530375 0.30692106 -0.15702997 -0.023841254 -0.30225465 -0.29473305 0.2957691 0.50488174 -0.77305335 -0.14818875 -0.22035359 0.02930561 0.039592586 -0.098171175 0.05991453 0.016298722 0.114853606 -0.46943465 0.12716345 -0.01806664 -0.6825652 -0.16627231 -0.1409669 0.110265285 0.39625978 0.34268332 -0.3673925 0.139335 -0.005317096 0.14754853 0.14189845 0.20167686 0.34860164 -0.024546962 0.20114641 0.28210226 -0.28669348 0.19205731 0.19249962 -0.81590426 -0.2778688 0.080479115 -0.17008944 -0.26327047 -0.05800927 -0.9379526 -0.15369989 0.16000603 -0.2798686 0.0055864262 -0.16796713 -0.015090828 0.25848678 -0.03122949 0.025240509 0.19659023 -0.15960592 0.47066265 -0.11827366 -0.29034117 -0.005813358 -0.25730136 -0.24783242 0.6433298 -0.020760026 0.24589565 0.014680573 0.04294506 -0.2346604 -0.45816773 -0.45120886 0.22402051 0.25548756 -0.21249114 -0.12578222 0.6423132 0.093575284 -0.13495868 0.89229274 -0.3438796 0.25613993 0.102110736 0.3328507 -0.1363608 -0.2099984 0.38393143 0.15493363 0.12274873 -0.11068883 -0.3296894
2653 -0.07024784 -0.23731542 -0.2157745 0.19491617 0.28690645 -0.018668037 -0.4836356 -0.120879434 -0.061518766 0.2906019 0.1274898 -0.046855792 -0.09428262 0.18315566 0.31595618 -0.08487552 0.08785954 0.12572864 0.14460658 -0.052847844 -0.124402866 0.045195747 0.24348058 0.091462344 0.23323113 0.4807115 -0.3135976 0.25678068 -0.0891574 -0.180834 0.042273384 -0.13353035 0.49555257 0.32807392 0.38860586 -0.32799506 -0.20538051 0.19727881 0.37886167 0.27400294 -0.109039105 0.083134815 0.4538918 0.201019 0.29246396 -0.034883067 0.0948311 0.19235502 0.1103237 -0.15841646 0.26350096 -0.18769445 0.43754363 0.54705274 0.42179015 -0.26594234 -0.25206384 -0.34728187 0.08828478 -0.10225726 -0.617903 -0.08782545 -0.70981616 -0.1952971 -0.045872662 -0.12387598 0.3063939 0.06917092 0.17360231 -0.058244795 0.019667763 -0.39209884 -0.79342407 0.61498874 -0.032022037 -0.14161348 0.47682974 0.6472895 -0.08008217 -0.15993188 -0.26771918 0.20593801 0.20822115 -0.68195647 0.13018607 -0.08769025 0.1854 0.08899173 -0.010357452 -0.083361946 0.25452262 0.37560344 0.043729927 -0.14363898 0.016681205 0.11257012 0.4100944 0.12445667 0.09577488 0.3062009 -0.0632235 0.3624235 -0.3254338 -0.008782876 -0.44090718 -0.23367554 -0.11560579 0.12224129 0.17356978 0.09942113 -0.02535578 0.36861828 0.25695574 0.15963843 0.28316593 -0.2824168 0.035753828 0.071406074 -0.07240453 -0.3287208 -0.40457556 -0.049877305 0.11263184 0.2856251 -0.22513568 0.5857427 0.29791996 -0.022051336
643221 -0.11030447 -0.14465831 0.4445116 0.11862903 -0.2840288 0.02808879 -0.41422772 -0.25750726 -0.36874905 0.23606125 0.31506735 0.39304623 0.07377144 -0.45330206 0.028498964 -1.6070794 0.6451926 -0.40410984 -0.25348318 0.41765773 -0.62226456 0.5467114 -0.24634792 0.6645947 -0.48718068 0.090401016 0.24556103 -0.74693245 0.40628937 -0.37945226 0.20908041 -0.64788616 -0.075868085 0.016829329 0.35160288 -0.80332345 -0.22412172 0.1149028 0.38247353 0.0030040853 0.2824961 -0.637139 -0.3284839 0.3954261 0.114888445 0.34221202 -0.60539013 -0.12752573 0.24938817 0.062326632 0.72738206 -0.21352309 0.371033 -0.41176927 -0.8182799 -0.114258714 -0.06985972 -0.42910025 -0.18428852 0.5272351 0.22213677 -0.33165413 -0.7657892 0.18422857 -0.44659874 0.24521309 0.413945 0.12559259 -0.15045123 -0.17127407 0.11043856 0.43859908 -1.0771922 -0.40173957 0.11278347 0.1314225 -0.262735 0.2530631 0.22220331 -0.09945325 0.4226946 0.01855938 0.06830512 -0.041777596 -0.24381556 0.21653466 -0.49723667 0.6280403 -0.63696766 -0.5670011 0.0053258087 -0.026013885 0.4159231 -0.055559054 0.07348009 -0.19065814 -0.116245374 0.14436176 -0.39295354 -0.48608497 -0.7967028 -0.1105346 -0.5170583 -0.106191956 -0.26434752 -1.0863734 0.52758783 -0.8365398 -0.6964043 0.011814901 0.071444236 -0.6877267 -0.15280002 0.5084086 0.2474078 -0.30715922 -0.025937798 0.45137116 0.09595968 -0.15183887 -1.3812045 -0.30174416 -0.26040933 0.43355432 0.096829616 -0.10361203 0.26686022 -0.25896668
3220 -0.064024344 0.029209593 0.11619235 0.042418893 0.0032057585 0.39619988 -0.4430535 0.2548806 0.15347463 0.3630929 -0.2304838 0.060932357 -0.48967484 -0.44596168 -0.3452759 -0.12747414 0.39492354 -0.26935714 -0.3913372 0.25519007 -0.35726643 -0.35298276 0.29102296 -0.091045514 0.30424905 -0.3177155 -0.042491555 0.16986787 0.03223125 0.0035395932 0.012811205 -0.3717092 0.096922174 -0.068488546 0.3117394 -0.6567328 0.59984463 0.3465429 0.41017595 -0.032207895 -0.14283843 -0.37417465 -0.38092434 0.31009486 0.41160867 0.42800498 -0.45018202 -0.37517428 0.26089564 -0.17060235 0.047222853 0.16174722 -0.1436918 0.362303 -0.35404393 -0.1732251 -0.11874996 0.017279059 -0.29728538 -0.043830473 0.040403638 0.9059872 -0.45887858 -0.17819369 -0.19228965 -0.047489658 -0.3018944 -0.18387033 -0.29116356 0.27780166 -0.39003956 -0.0753072 -0.3167727 0.17823526 0.068071395 0.042510882 0.21102656 -0.24652627 -0.24959168 -0.23943287 -0.13022378 0.33954942 0.3366243 -0.24730918 -0.01436108 -0.07399849 0.41203043 -0.13278864 0.30250996 -0.25809282 -0.2658772 0.41966107 0.00690931 -0.10172582 -0.03243583 -0.7736677 0.676164 -0.0727133 0.27534458 -0.21673857 0.022879647 0.19642639 -0.2697336 0.13151097 0.32010016 0.11341406 -0.714359 -0.33278573 0.026227687 0.13143794 -0.02275909 0.26627713 -0.3361421 0.06997476 0.24156569 0.09563589 -0.19851568 0.33520064 0.043926243 -0.20257972 0.19686228 -0.17029372 -0.08899123 -0.21766683 -0.13196288 0.36479732 -0.38513225 -0.032198776
3191 -0.28771317 0.21816587 0.50704813 0.105432235 -0.02025054 0.16527803 -0.38672927 -0.47868475 -0.5440693 0.38606519 -0.0064126374 -0.042538546 -0.2707376 0.47701588 0.24536704 -0.328737 0.2828677 -0.49280426 0.048623756 0.2865375 -0.086028405 0.23938538 -0.2281368 0.1220193 0.10561675 -0.19156164 0.44786364 0.12958421 0.29178894 0.08506979 0.071151696 -0.05976209 0.49838024 0.41130897 0.51374614 0.21481669 -0.19026436 0.15954229 -0.16960295 -0.002618496 0.06507031 -0.30684623 0.09031863 0.21328264 0.59673834 0.10503542 -0.110324405 -0.067735285 -0.29573813 0.4282811 -0.0074824863 0.52837116 0.23921022 -0.06964922 0.17570019 -0.3218979 0.37474993 -0.2697676 -0.40056837 0.022784099 0.22690904 0.33055964 0.2274295 0.073881045 -0.42714003 0.22623992 -0.044242278 -0.2789542 0.0217342 0.112491764 0.61835796 0.6935679 -0.13990779 -0.5242151 -0.62612754 0.4609381 0.37552676 -0.22640614 0.08618714 -0.035991225 -0.5318877 0.23009211 0.28278428 -0.84687257 -0.19548054 0.22171007 -0.22427349 -0.19213738 0.16807944 0.06039761 -0.21875171 0.106655315 -0.16146307 -0.008525938 -0.32328662 0.22575451 0.16500485 -0.08423518 -0.20004784 -0.021552844 -0.23396514 0.110300206 -0.045910817 0.36030212 -0.32082635 0.00024381615 -0.116620995 0.10682358 -0.20551175 0.31676832 0.30550316 0.28827402 -0.2245397 0.38220072 0.13691044 -0.2826706 0.62005484 -0.7043562 0.023826957 0.03556048 0.30312127 0.028329998 -0.4029487 0.25873998 0.20540138 0.16866001 -0.4039651 -0.01850322
1481 -0.016273098 -0.25617933 0.15264949 -0.17999306 -0.29799697 -0.14272574 -0.015575458 -0.11337057 -0.22193749 0.07040432 -0.46128288 -0.0037118853 -0.014523349 0.05491219 -0.039479066 0.27114013 0.7960765 0.14090984 0.36143693 0.18686308 -0.21099216 0.16636692 0.16824217 -0.039686847 0.08132097 -0.34328923 0.103024684 0.4220244 0.1055269 -0.45189148 0.41057265 0.030795697 0.24458455 0.318102 0.044916198 0.2805318 -0.08872623 -0.11236081 0.18076058 0.022760166 0.11075364 0.03544197 0.40590203 0.16094741 -0.21600346 0.43066013 -0.32688138 -0.123205304 -0.11258405 0.5839848 -0.024863506 -0.14256787 0.12553228 0.18004513 0.015646936 0.08802035 0.13512999 -0.38309315 -0.49246415 0.22059931 0.38799274 0.32025504 0.2568986 -0.16134669 -0.054929055 0.5657579 -0.5955981 -0.20111243 -0.24076575 -0.12661242 -0.8899726 -0.22930323 -0.34149018 0.58300614 0.20564875 -0.28058594 -0.02680234 0.06646498 -0.31911275 -0.101898536 0.31096396 -0.37767655 0.34842438 -0.14468363 -0.14436759 -0.32484838 0.0008355365 -0.29953292 0.12247398 -0.76080894 -0.56229895 0.12566176 0.098107494 -0.26915112 -0.25715744 -0.06855701 -0.1301763 0.21137942 0.095929004 -0.10148104 -0.17131492 -0.15224588 0.19672972 0.15584235 -0.4526305 -0.17323403 -0.6133772 -0.120678 -0.49419615 0.15326968 0.5117251 0.1191453 -0.18633138 0.26138824 -0.061312992 -0.22737816 -0.15043922 -0.23268707 0.087369926 0.296552 -0.1983006 -0.10225373 0.16987877 0.10075188 0.1260142 0.17490965 0.53139 -0.33690822
4804 -0.2937284 0.11597429 0.17055948 0.11801308 -0.062170636 0.17226525 -0.5175952 0.06991999 -0.063738115 0.35027882 -0.26329547 -0.39923242 -0.3030735 -0.18995136 0.35736316 -0.15916453 -0.122242115 0.30036494 0.5854539 -0.25136432 -0.06779888 -0.14258549 0.7556764 0.017871361 0.46777558 -0.24071223 -0.13974704 0.11771737 -0.20305856 -0.68600327 0.05751632 -0.30040088 -0.02025762 0.4157156 0.10175672 0.037743773 0.5189938 -0.37669668 0.06415645 -0.031065654 0.11692577 -0.40704215 0.098546036 0.16289395 -0.41338006 0.3116483 0.23471975 0.10870142 -0.22341019 -0.34190673 0.05574967 0.2955956 -0.028476255 0.32447857 -0.2221857 -0.30059507 0.061620254 -0.3098238 0.26270583 -0.21246462 0.15101364 -0.16497904 -0.5759219 0.10449386 -0.041440044 0.39444008 0.5448186 -0.8695578 0.44457635 0.09338982 -0.2666037 0.25565252 -0.5344376 -0.014196352 0.14588518 0.13284633 0.5093116 0.22371326 -0.35167897 -0.21938205 -0.2600693 -0.107563116 0.4160895 -0.22387718 -0.4261685 -0.34342352 -0.09189581 -0.38685423 -0.25043523 -0.08434267 0.19762005 -0.107674904 -0.08405447 0.05868292 -0.21331397 0.039603706 0.038769778 0.4614187 -0.11581159 -0.1312599 -0.56249505 0.5346005 -0.21641685 0.06907866 -0.15064205 -0.037486237 0.23656079 -0.38280773 0.2799048 -0.1697571 -0.01706536 -0.13227078 0.10513382 0.1098382 -0.031453762 0.120358214 0.28144476 -0.26649907 0.105119504 -0.19936432 -0.22489117 0.2329806 -0.24418706 -0.09300739 0.119121775 0.117606774 -0.39435095 0.30857
1688 -0.09355384 0.00069664686 0.38649532 0.38838094 0.014818059 0.17364141 0.37226483 -0.00015948966 -0.035673913 0.5741879 -0.44439548 -0.13861188 0.21174218 0.27273542 0.71003413 -0.34042826 -0.00262364 0.0619821 0.13907218 0.15220416 -0.20930545 0.10327905 -0.1790512 -0.4750253 -0.14443259 0.032098833 -0.11612532 0.20868188 0.24353346 0.14721543 0.032394003 -0.26364267 0.13497354 -0.1814067 0.027792655 -0.5723648 0.09915279 0.028353723 0.0561431 -0.07407193 -0.23897465 -0.27032432 0.8147023 0.46802247 -0.2583802 -0.07953317 -0.27170235 0.23848315 -0.39013165 0.0578669 0.010656516 -0.28035036 -0.08490422 -0.039397497 -0.057076015 -0.06968122 -0.23925728 0.13110279 -0.06583565 0.3345702 -0.17174968 -0.18377249 -0.08390359 0.09809852 -0.16959232 0.014879822 -0.15008348 -0.40459293 -0.20568831 0.75253594 0.022663437 -0.031412978 0.17479487 0.14132154 0.5142553 -0.026710665 -0.24595934 0.020330217 0.40163743 0.24831189 0.07132411 0.23848414 0.1615952 -0.34393898 0.15008289 0.22440323 0.03536552 0.18198657 0.502259 0.06520488 -0.5256002 0.048208266 0.15076052 -0.25433227 0.34808636 -0.030313719 0.016247325 0.20402794 0.06291999 0.36810032 -0.097366914 0.5293841 -0.16850524 -0.16848311 -0.5155817 0.21000305 0.20092171 -0.15380593 0.33980897 0.019353058 0.2948531 -0.079926476 -0.16733107 0.05791993 0.6323727 0.44957474 -0.08004033 -0.42150122 0.3880179 -0.4693915 -0.45204505 0.36827165 -0.43341202 -0.32473198 -0.046467755 0.03994871 0.24769452 0.025292505
2658 0.3107839 0.7812756 0.232965 0.28538874 0.07480731 0.15355365 -0.6613139 0.23929174 -0.5150331 -0.3694236 -0.048880152 0.3576578 0.0059379726 -0.4033036 0.8624747 0.28742132 0.30387828 0.7296352 0.3556303 -0.0729417 0.21970508 0.14663914 0.09703498 0.19516249 0.23861468 0.055032134 0.569709 -0.39216352 0.2083862 0.36451575 -0.1340477 -0.6013887 0.09499725 0.50282776 0.38342327 -0.578776 0.5681116 0.118233256 0.2183837 0.14189708 0.41088468 -0.69330627 0.44316977 0.26376277 0.41585818 -0.1442819 -0.23714404 -1.1077139 -0.21339615 -0.24292855 0.35572848 0.2611313 -0.40174553 -0.5635156 -0.7856764 -0.26528037 -0.24170093 0.2812928 -1.1401585 0.53795666 -0.4461598 -0.13953468 -0.10047006 -0.24838336 0.89928585 -0.12794057 -0.45465264 -0.3378509 0.23034498 0.30656078 0.3406305 -0.059392292 0.023582537 0.17397605 -0.19472513 -0.19796653 0.72588503 -0.038037963 -0.287666 0.24412562 0.22818443 -0.05282941 -0.34172693 0.6353345 1.0449833 -0.217197 -0.28994265 -0.23236711 0.28950298 -0.038427953 0.11981424 0.6201878 0.066838846 -0.23480718 0.29034284 -0.12864316 -0.08617762 0.7620933 -0.24506429 -0.3037536 -0.29345217 0.481021 0.39488026 0.3431561 0.2782226 -0.9010667 -0.019883325 0.1958304 -0.7489529 -0.5938716 0.77595806 -0.3431225 -0.0010340451 -0.007921122 0.61013085 -0.18326797 0.47562122 -0.56755054 0.15408285 0.36793476 -0.6217992 -0.5449578 0.44184163 0.20211037 0.16944155 -0.052900963 -0.5350788 -0.27055135
23738 0.18392456 0.0992903 -0.21201491 -0.16255954 -0.20589668 -0.055024464 -0.34320393 0.21370117 0.32301903 0.42207286 0.18451206 -0.18667477 -0.09881987 -0.08473048 0.61422926 0.25392833 0.2963285 0.24791472 0.029660601 -0.009299484 -0.21837789 0.026159719 -0.117447294 -0.1331503 -0.08872251 0.14809592 0.1409977 0.3061668 -0.07102537 -0.2828784 0.3507643 0.4338984 0.29302824 -0.06671333 0.2967836 -0.35200894 -0.1281298 0.31370777 -0.2239926 -0.20042978 -0.024883201 -0.12034545 0.080485545 -0.031772144 0.24074262 -0.18734345 0.07695029 -0.22247806 0.26590514 -0.09804031 0.0682424 0.30538324 0.2908369 0.44099957 -0.04953024 -0.30518216 -0.13684341 -0.063605756 -0.20852597 -0.23769984 -0.22536682 -0.03228524 -0.21160257 -0.24304464 -0.03186897 -0.01745268 0.26705438 -0.15651727 0.3650135 0.0816456 -0.17649807 0.079320125 0.12723681 0.27766427 -0.30429545 -0.14860821 -0.06406302 0.38342384 -0.19586259 -0.23131923 -0.042538665 0.27434918 0.4592065 -0.13994168 -0.23308803 -0.018727083 -0.16756515 0.47634777 -0.32254526 0.24229571 0.27138108 0.4679285 -0.16801792 -0.18176514 0.16599062 0.022705277 0.26711696 -0.025562935 -0.40854424 -0.0058022155 -0.17307603 0.42021856 0.033020668 0.04080897 -0.4698449 0.015128411 -0.4380377 -0.4632114 0.14936015 0.20456214 0.113579944 0.11252361 -0.7442709 0.5503876 0.5424981 0.018808467 0.32401258 0.18352601 0.12554285 -0.037650708 -0.11442679 -0.34261855 -0.07459385 0.0062620505 -0.23811464 0.41620803 -0.3423303 -0.36632252
4335 -0.043004643 0.20758906 0.105274945 -0.18276922 0.34401312 0.17842951 0.22440742 -0.015874598 0.15915114 0.50525606 0.38970327 -0.3690895 -0.087063886 -0.060413606 0.19897507 -0.23189166 0.07802738 -0.22127986 -0.14697452 -0.53515685 -0.41838935 0.063815586 -0.014714232 0.10109475 0.034267515 0.61939144 -0.01541824 -0.10110967 -0.1444217 -0.30875954 0.20654015 -0.15120652 0.67630845 0.23385881 0.43140912 0.3759147 0.27905393 -0.17512344 -0.18304648 0.18259679 -0.00010441324 0.033637132 0.03802809 0.09681055 0.4603339 -0.03905082 0.21616891 -0.49959764 -0.21530363 -0.096704036 0.20761788 0.5076406 -0.04929506 -0.05307038 0.077936 -0.75350845 0.08843732 -0.84839714 -0.27956855 0.19323853 0.07900875 0.5064431 -0.24966505 0.40108898 -0.017458888 0.26436427 0.35131884 -0.20973837 -0.34694624 0.26032832 -0.0052686734 -0.14863473 -0.609521 -0.117195114 0.026538601 -0.19283073 0.12996861 0.28105202 -0.1255082 -0.4547853 0.21411645 0.33662206 -0.15497392 0.061716042 0.17745695 -0.16777001 -0.43834296 0.2637482 -0.1727623 0.33399996 -0.33387804 0.06508059 -0.11098848 0.30509618 0.12224494 -0.1025733 -0.1910737 -0.69655174 -0.36092073 0.16844651 -0.10097762 -0.18500641 0.4498715 -0.057248563 0.05748588 0.33711493 0.29075038 -0.16832432 -0.23365228 -0.07024231 0.67486393 -0.26649457 -0.3305848 -0.2455791 -0.18260191 0.3704012 0.20924245 -0.37329552 0.52325004 -0.2559531 -0.33394304 -0.20062117 -0.14559734 0.3580664 0.26051858 0.09512503 -0.24048805 -0.2725771
10796 0.48031422 -0.1171357 0.09157993 0.3665188 -0.11906467 -0.18860081 0.3926847 -0.13301903 -0.061078038 0.22246492 -0.33428264 -0.023197016 0.18388526 -0.34408575 0.22445993 0.11134476 0.5141601 -0.0014993874 0.34094176 0.13176322 -0.21988215 -0.28808913 0.49017704 0.04747887 0.30458212 -0.23546629 -0.34691373 0.38794696 -0.17548677 0.027508263 0.3005893 0.23742937 0.41565388 -0.0958139 -0.0345118 -0.14080992 -0.17710657 0.6067659 -0.09957445 -0.34088355 -0.22298168 -0.27531323 -0.0913315 0.09495548 0.20367134 0.26114142 0.07309905 -0.23212574 -0.088183135 0.13532034 0.23807998 -0.12334224 0.07342271 0.15089135 0.08524352 0.01175406 0.3867404 0.44899905 0.22615805 0.21615277 0.09920437 0.058745954 -0.04874594 0.12806375 -0.14370039 0.3140307 0.023923 -0.30206773 0.32698837 0.27313548 -0.29130024 -0.31285217 -0.02318528 0.38381672 -0.5206505 0.041556828 0.48282003 0.16110888 -0.24944513 -0.22345825 0.10383121 -0.29519233 -0.32298872 0.27063775 -0.14495441 -0.23326536 -0.1731907 0.2975647 0.12606326 -0.4849618 0.01997704 0.095970124 -0.16456148 0.16273317 -0.017840376 0.03967085 0.02660831 0.11794489 0.021808945 -0.08064637 0.08965973 -0.026730277 0.17932539 -0.377206 -0.07553938 -0.2860448 0.065781884 -0.07831011 0.19754852 -0.15595642 -0.00044101884 0.20341499 0.018675126 0.4777341 0.3259629 0.009498754 0.063117385 0.28602892 0.264506 -0.059180394 -0.20033684 0.20633766 -0.08497114 -0.09197247 0.26328832 -0.04608806 -0.1467393 -0.10437202
85352 0.40878356 0.16651292 0.6956542 0.3669806 0.18795946 -0.17207456 0.14674401 0.35026795 -0.16348878 0.27554858 0.112031676 -0.60580635 -0.060746495 0.06251926 0.7346688 -0.11430888 -0.16004096 0.024462149 0.017469974 0.017907497 -0.35351938 0.103233285 -0.0104931155 -0.2020918 0.0036758215 0.07131448 -0.16623157 0.2696864 -0.2717607 0.01199344 0.08300769 -0.4580925 0.14100252 0.22541061 0.06521869 -0.2747635 -0.13846034 -0.08277713 0.17617267 -0.16119172 -0.09222724 -0.5058046 0.36120582 -0.12012713 0.05228265 0.13058633 -0.26270622 -0.3540863 0.023940228 0.4130966 -0.04317368 -0.119873956 -0.0998397 0.102123484 0.013108446 0.006882221 -0.23164588 0.031615824 -0.052332167 0.08578969 -0.16173428 -0.05196377 -0.115914404 -0.43931323 -0.13053766 0.2628083 0.12936579 -0.40926763 -0.12755339 0.6502005 -0.5097074 -0.011103084 -0.022588072 -0.09122703 0.33184594 -0.34279206 -0.3065325 -0.19781314 0.2716726 0.31661972 -0.19117096 -0.027851373 0.16646338 -0.16536488 0.32975414 0.25982374 -0.2405471 0.378895 -0.13815534 0.039999448 -0.2882401 -0.350526 -0.29764256 0.1651552 0.43335977 0.08802613 0.12884097 0.019768625 0.595921 0.4853448 -0.22781251 0.64341146 -0.2761918 -0.15480714 -0.119010985 -0.015098839 0.27484846 0.18918654 0.016431602 0.09235648 -0.014092124 -0.13129956 -0.05996294 -0.1560496 -0.08935115 0.20822595 0.48193103 -0.39888677 0.08318054 -0.25753444 -0.18621436 0.55103153 0.17578727 -0.057183553 0.22110775 -0.086860135 0.31988293 0.030499961
2696 0.21873084 0.5064461 -0.008799832 -0.22636403 0.735155 -0.5337885 -0.30595055 -0.07155469 -0.42656732 -0.23473492 -0.7048811 0.65062374 -0.045274116 -0.1726157 0.24530664 0.12940969 0.2113259 -0.13875769 0.23308305 0.4199734 0.22747795 0.034570586 -0.05113322 0.08352501 -0.16032642 -0.50885993 -0.44201055 -0.06542062 -0.30695745 -0.06408087 -0.017322412 -0.57429117 0.5791332 -0.15400237 0.11524334 -0.5103032 -0.4902795 0.26852655 0.48678297 0.579584 0.34801346 -0.4254372 -0.015578546 0.4690012 0.51126516 0.47356933 0.28530067 -0.5654319 -0.05520171 -0.36378047 0.33541584 0.36197144 -0.058869105 -0.27566192 -0.54441977 -0.24492253 -0.5305127 -0.028098045 -0.97239935 0.56419426 -0.23412168 -0.47832447 -0.13640587 -0.14219986 -0.3119293 -0.0954331 0.15227151 -0.51027936 0.4251248 0.27800885 0.11610943 -0.6625455 -0.16929848 -0.25226462 -0.08234259 0.3127708 -0.33092725 0.57657295 0.3003892 -0.5415148 -0.5356749 0.21259016 -0.563087 0.622397 -0.19401544 0.30933273 0.08018544 -0.21113364 0.31166926 -0.27699772 -0.1528405 0.043968443 -0.48786646 -0.30338553 0.8733878 0.12572156 -0.56763977 -0.22268906 0.008240188 -0.2652281 -0.4421426 0.40051937 0.14943576 0.12791058 -0.028389754 0.14700116 -0.2733063 -0.13115427 -0.09373359 -0.21846673 -0.0058779665 -0.55374455 0.13210557 0.51682854 0.06422739 0.30089325 0.33142737 -0.37029937 -0.1369227 0.19419332 0.03646658 0.027453931 0.15692711 0.3606445 0.45978278 -0.28884178 0.026663832 -0.2707721
230879 0.2342464 1.0355675 0.18884616 0.24470171 0.3283943 0.29189724 -0.62689036 0.24805534 -0.52775985 -0.26190114 0.0040075877 0.24663827 -0.0066969055 -0.2712941 0.8898782 0.33402795 0.30978164 0.38716385 0.19581279 0.12827194 0.31071594 0.068316124 0.046933774 0.17186798 0.10194469 0.17089471 0.5998369 -0.08344541 0.15466085 0.30615637 -0.36068955 -0.71180487 0.0732069 0.6237366 0.33513734 -0.5772474 0.5138323 -0.015536784 0.12481669 0.26631764 0.47792503 -0.62219083 0.29699877 0.21628833 0.3062491 -0.0721748 -0.22215304 -1.0396329 0.076245815 -0.13502036 0.100055486 0.33444756 -0.55772996 -0.6130264 -0.70328605 -0.2340216 -0.33260974 0.3682635 -1.2300744 0.85140836 -0.48575303 -0.27162883 0.06689126 -0.36584002 1.0034386 0.1452017 -0.40806365 -0.3855153 0.13719523 0.3223148 0.3538215 -0.1822505 0.0019511874 0.24811184 -0.22469871 -0.24617374 0.87859595 0.006021648 -0.17628299 0.23991139 0.18566115 -0.049512647 -0.19124827 0.45565492 0.76946706 -0.41668427 -0.283572 -0.23736739 0.4796569 -0.32564983 0.3446084 0.63793087 0.10041745 -0.26198128 0.2774012 -0.018505145 -0.22013226 0.6071614 -0.15376945 -0.30919945 -0.3751684 0.33860168 0.3360421 0.18636823 0.5145713 -0.71461326 0.063761085 0.14176576 -0.793071 -0.6235859 0.6324237 -0.29751575 -0.09914368 -0.015108556 0.8223943 -0.08495457 0.43266487 -0.57485 0.21393661 0.19599703 -0.4513854 -0.68977153 0.5162486 0.39986908 0.24198127 -0.08402597 -0.75809926 0.025710199
16819 -0.070367426 -0.026501115 0.39810345 0.49577817 -0.4196444 -0.008847629 -0.5106527 -0.43821558 -0.26623508 0.46834317 0.27939594 -0.11659933 0.024583297 -0.7106722 0.00020497372 -1.246468 1.0779611 -0.080475666 -0.36672622 0.3229699 -0.81750196 0.80147845 -0.4438559 0.7144989 -0.83181155 0.2630135 -0.3566655 -0.493606 0.2824283 -0.3599053 0.3349975 -0.38421544 -0.012220515 0.20572507 0.2068511 -0.97151834 0.08541515 -0.24254633 -0.01185903 -0.12698731 -0.012836649 -0.31892017 -0.24275525 0.35250595 0.16978602 0.4319405 -0.7001155 -0.46870273 -0.15925229 0.0053483467 0.12133537 0.0995025 0.11828744 -0.4000415 -0.720424 -0.33124927 -0.25278747 -0.033939574 0.17488691 0.53071904 0.4059529 -0.34971485 -1.0120327 -0.1565084 -0.097792394 0.30913657 0.19133978 -0.17501634 -0.06683577 -0.35994604 0.5135003 0.12838224 -1.0848149 -0.19443774 0.24680984 0.42055506 -0.30548948 -0.019551424 -0.087225564 0.09076625 0.03027347 0.10016218 0.03776062 0.09859919 -0.30416948 -0.34251654 -0.59133023 0.6525614 -0.33429477 -0.7176498 -0.022250278 -0.31899035 0.66049045 0.30924353 0.030780578 0.15951246 -0.074474484 -0.2078739 -0.48953968 -0.28890142 -0.6477522 1.8667175e-05 -0.6127619 0.18638942 -0.43870783 -0.6383824 0.6746166 -0.68461883 -0.5537738 0.09032424 0.037295893 -0.7755116 0.28954962 0.49515116 0.33700186 -0.40745196 0.13594805 0.14787878 0.100738734 -0.1325451 -0.6523787 -0.5412856 -0.13926701 0.5326029 0.07846025 -0.53703606 0.54902244 -0.22588906
117 -0.3836718 0.29536936 0.4527033 -0.2902663 -0.7327289 -0.20472412 0.0023612904 -0.4045403 -0.05927825 0.053503707 -0.15838335 0.08180431 0.1368223 0.05601605 0.026675876 0.40793252 0.29386866 -0.08180354 0.23110351 0.31236345 0.13172737 0.55936706 -0.035737928 0.35959956 0.44654107 -0.12174416 -0.3412375 0.48559427 -0.3275011 0.08785791 0.31199062 -0.137542 -0.24478725 -0.026958369 0.11902297 -0.21521837 -0.038593166 0.43456817 -0.08160231 0.7048683 -0.07853305 -0.053105824 -0.035833873 -0.3560242 -0.2991065 0.41891685 -0.3175139 -0.3692181 -0.19274186 0.02039625 -0.1488363 0.3463535 0.6820751 -0.3133394 -0.4364015 -0.34213725 -0.28646666 -0.1088707 -0.022161279 0.1791301 -0.255295 0.35403484 -0.061801888 -0.25682753 0.049551215 0.5279838 0.0664929 -0.037115857 -0.094782434 0.018235052 -0.27751514 0.21099284 -0.12139874 -0.07543683 -0.2915885 0.16686785 0.20814773 -0.037321486 0.041840434 -0.22458424 -0.009009952 -0.35646608 -0.17051674 -0.1591683 -0.104222 0.37743303 0.19054152 0.46733218 -0.21708314 -0.019436993 -0.108149566 -0.029424021 0.27660984 -0.13328867 0.12182442 -0.079856955 0.21232384 0.17981285 0.23415367 -0.2660097 0.29828283 0.5501142 0.120107755 -0.12776296 -0.11163866 0.24216464 0.53222823 -0.36769748 0.06926327 -0.0081055295 -0.03434561 -0.057155553 0.18590753 -0.23421171 0.28836578 0.19494312 0.07335303 0.018413238 0.25530055 0.033627875 -0.050657444 -0.13835397 -0.04460889 -0.12436828 0.059402872 -0.12534432 -0.063330404 -0.1088608
35922 -0.1182121 0.38421348 0.34744075 -0.0057116468 0.58437806 0.00081739156 0.21683769 -0.13206904 0.11051104 0.2378334 0.11044243 -0.43651894 -0.31306082 -0.13025944 0.1301053 -0.20154738 -0.14499837 -0.222065 0.1385335 -0.4798427 -0.24226701 0.13064916 0.2501863 0.41623348 -0.04438453 0.16081467 0.49770087 0.34715676 0.14539696 0.23585145 0.0786518 -0.09501149 0.35652938 -0.0060997517 0.615458 0.21741617 -0.02392761 0.100295365 0.10503164 0.41254973 -0.15862165 -0.07215897 0.21681929 0.3329897 0.20537469 -0.016800389 0.094397895 -0.43240386 -0.030542186 0.16534661 0.25613347 0.28303698 0.0018130097 -0.057979386 0.24770144 -0.5760287 0.08339527 -0.44430944 -0.21879758 0.08578418 0.33139387 0.4178192 -0.37614757 -0.13280119 0.26085857 -0.36628115 0.06033793 0.33311528 -0.4461319 0.053296372 0.017900955 -0.13887401 -0.69767255 -0.20544478 -0.32397595 0.11746806 0.060243413 0.25887558 -0.005985129 -0.7128348 0.07149657 -0.0951742 -0.15864345 0.16979636 -0.06929889 0.1273063 -0.2644369 0.03966375 -0.11807989 0.2373775 -0.38231772 -0.060542885 0.19132778 0.18965067 -0.12398106 -0.35285848 0.32384962 -0.2095646 0.07500596 -0.29820237 0.0061340206 0.3042148 0.5114778 0.31981772 -0.43722254 0.4218229 0.018985493 0.021394763 -0.18571453 0.20614403 0.25808913 -0.49787527 -0.15585822 -0.017039878 0.36963192 0.62257946 0.2525675 -0.21047682 0.033702288 -0.42790905 -0.2450584 0.2306394 0.43935612 0.2984388 0.035941526 -0.486523 -0.14282611 -0.21877633
6334 0.16406028 -0.36256337 0.0043515763 0.3168821 -0.22676218 0.20210399 -0.19206208 0.18877713 0.18351892 0.106311284 -0.11507353 -0.008232698 -0.104939476 0.10816114 0.37791064 0.32559195 0.34445104 -0.59161335 0.28638378 0.07820718 -0.29743704 -0.024326438 -0.0012113631 0.2249572 0.16292676 -0.13424866 -0.1508987 0.069322705 0.16846718 -0.4180775 -0.113822795 -0.33902326 0.5464303 -0.47310174 0.083947785 -0.15883404 0.3052139 0.21474554 0.5334021 -0.07427358 0.018147344 0.0121997055 0.102715455 0.41930908 0.04062436 0.19330728 -0.13494937 -0.0016256442 -0.09823554 0.3202892 -0.31301314 -0.1825755 0.15310845 0.25037742 0.5391123 -0.044163212 -0.017778782 -0.6159292 0.110738926 -0.08817945 -0.44180763 -0.3060778 -0.094803296 -0.020214101 -0.070068 0.17944859 -0.120631255 -0.37147582 -0.1768757 -0.2543657 0.39189255 -0.40556115 0.07399448 0.05342641 0.19911127 0.106080756 0.017412784 0.05145001 -0.5045074 0.2444088 -0.61777157 0.11872208 0.73396426 -0.04943535 0.16135578 -0.10578918 0.12949024 -0.03996574 0.17134392 -0.15131162 0.10657077 0.23732503 0.23742948 -0.00725898 0.05103964 -0.1833591 0.4804951 -0.10249522 -0.13291249 -0.10324902 -0.32339597 0.0873507 0.1671434 -0.2686754 0.121702366 0.013637104 -0.23375645 0.08198715 -0.3588104 0.13590083 0.43305987 0.48488116 0.07952175 -0.15201148 -0.0045270575 0.13857739 0.16766371 0.13781913 0.1374887 -0.17471297 0.04494866 -0.29684114 -0.04861376 -0.28919545 0.2568316 0.12091545 0.10653417 0.17658398
39127 0.60843587 0.30980468 0.5560509 0.17321792 -0.4344872 -0.029248701 0.092411205 0.34722832 -0.31058803 -0.31437287 -0.22695716 0.13274822 -0.47148857 0.08371759 0.9236507 0.015222249 -0.07645828 -0.13005431 0.007656134 -0.44766068 0.11616723 0.0968162 0.029178489 0.38060626 0.088584945 -0.26828298 -0.77136374 0.07663998 0.31377715 0.58425504 0.7032838 -0.22373888 0.91512424 -0.3170431 -0.17992885 -0.4264146 -0.091383256 -0.017227765 0.19373417 -0.02793612 -0.42782733 -0.07933351 -0.17792434 0.5622881 0.20819764 0.30618924 -0.45366213 -0.2629909 0.37918907 -0.2645084 0.17724927 -0.7717271 0.3137162 0.32171452 -0.035313644 0.26605722 0.3318128 -0.1325716 -0.22941272 0.20013186 0.38097668 0.33568487 -0.2820968 0.16833268 0.5013627 0.057528276 -0.29346162 -0.8712126 0.18904914 -0.23389578 0.48962787 -0.46686754 -0.3099169 0.019200828 -0.056100745 -0.069653705 0.36108565 0.3612231 -0.51818126 0.14009261 0.10424308 -0.25739506 0.45891657 -0.16497795 -0.3606771 0.39988893 -0.104088575 -0.095014535 0.050812736 0.31716916 -0.07083226 0.05460568 0.51255226 0.173427 -0.20680544 -0.23117481 0.05256635 -0.22198115 0.13182558 -0.5677772 -0.5000691 0.47041792 -0.17039552 -0.3046584 -0.08262902 0.017372562 -0.2347155 0.13790324 0.57410306 0.30014822 0.44634736 0.49887338 -0.53364146 0.25362995 0.0036805114 -0.13219437 0.47460493 -0.13692911 0.10211209 -0.027334278 0.42887634 -0.01709923 0.15904729 0.41825 -0.021384478 0.499917 -0.20763092 0.038283605
210871 -0.1476199 -0.077454194 0.39802077 -0.20727295 -0.117199555 0.004807491 0.26649383 0.16063541 -0.048896294 0.22297059 0.038705695 0.119124465 -0.19719349 -0.049715985 0.15287387 -0.015100432 0.19503386 -0.15453842 -0.2204132 -0.2755475 -0.03483909 0.12253311 -0.08737698 -0.20309085 -0.11719331 0.2607962 0.04368009 0.31696206 0.02427222 -0.06513861 0.21668719 -0.21376544 0.18511768 -0.2300423 -0.061896093 -0.21135212 0.20931602 0.082043126 0.2721987 0.42386067 0.0751674 -0.21711084 0.07976138 0.11875514 -0.053632203 0.046105336 -0.38532734 -0.112203956 0.3452643 -0.13683493 0.08097739 -0.097226776 -0.04965661 0.1944133 0.20738289 -0.007794754 0.21505348 -0.018089158 -0.013215871 0.24956696 -0.11980634 -0.3054859 -0.1812704 -0.44850016 -0.08035709 0.12637891 -0.11808556 -0.6438652 -0.21683277 0.79905665 -0.112647474 -0.023721157 0.15479532 0.10299836 0.023207966 0.21873131 -0.33377987 -0.29423106 -0.19260342 -0.023172855 0.12307606 -0.01930696 -0.0416484 -0.060988024 0.113536015 0.16031505 0.0086227 -0.25432357 -0.0639796 -0.03319343 0.2822372 -0.16081572 -0.2202336 0.31423274 0.29494053 0.25921324 0.21344864 0.038287025 0.015971156 0.4088589 -0.25904578 0.6942935 0.09903623 -0.17246556 -0.21508273 0.17373331 0.02482162 0.47717315 0.19161297 -0.013405633 -0.044286057 -0.05840412 0.033451732 -0.11475468 -0.211668 -0.31127208 -0.017909696 0.15122381 0.047339182 -0.33198032 -0.4114724 0.693111 0.31538257 0.023441756 0.79028374 -0.21007457 -0.15391795 -0.47603798
642894 -0.046934385 0.1129794 0.32228395 0.034273498 -0.5742031 -0.052750897 -0.34168282 -0.038133133 -0.5295574 0.50905776 0.17461674 0.41345516 0.17661254 -0.30043 0.040122677 -1.7545558 0.618986 -0.506234 -0.50642544 0.35899708 -0.9274849 0.5814453 -0.39641315 0.8062808 -0.08962767 0.35272324 0.007010927 -0.59963465 0.4869883 -0.5323186 0.34859076 -0.72647417 -0.0503042 -0.10386929 0.18428276 -0.81062084 0.006534898 0.1960052 0.30547845 -0.06584177 0.32218277 -0.35382998 -0.25572687 0.28708553 0.13001885 0.32480538 -0.6994204 -0.19610423 0.1458367 -0.08972683 0.5346788 -0.31060886 0.32282045 -0.41772887 -0.710974 -0.07618174 -0.31493363 -0.46825445 -0.10488418 0.42911407 0.23278052 -0.2561775 -0.72633165 0.36789584 -0.40292162 0.17491983 0.3719477 -0.06882552 -0.11284335 0.21455926 0.28567284 0.6406747 -1.0930935 -0.6008873 -0.14253461 0.07983261 -0.30890203 -0.012609557 0.3273056 -0.14095606 0.5957186 0.10069685 0.15450826 0.09430294 -0.26314378 0.3131446 -0.50063246 0.61557925 -0.8036043 -0.3734595 0.015458771 0.31014863 0.33505008 -0.0909205 0.0051435004 -0.09862244 0.060692277 0.16298409 -0.7201839 -0.2762196 -0.73703474 -0.039616678 -0.38000274 -0.2609622 -0.12260009 -0.9959489 0.3709984 -0.7221175 -0.71348023 -0.08015282 0.068940446 -0.67897666 -0.2050145 0.54416925 0.2734491 -0.20141636 -0.16675979 0.6820855 0.22938447 -0.40138194 -1.5928538 -0.3674149 0.30117154 0.19078082 0.26458654 -0.068609156 0.48013648 0.18520078
54131 -0.046345476 0.26520982 0.47241762 -0.46681276 0.052639693 -0.082134105 0.30317575 0.23747829 -0.7736699 -0.10821275 0.2252065 -0.2332706 -0.4022277 0.22825912 0.55833864 0.18512708 0.2526166 0.47367278 -0.53845066 0.24955039 -0.12843087 0.08379943 -0.25143915 -0.12888245 -0.5914441 0.23868547 0.0852189 0.29592165 0.04208297 0.14526609 -0.022787718 -0.39428174 -0.02339776 0.23196003 -0.054753087 -0.5642832 0.15550561 -0.034599837 0.070661105 0.271193 -0.07999063 -0.81808585 0.29537302 0.21303762 0.070606016 0.4530323 -0.13108276 -0.0063024038 0.23533465 0.2166727 -0.08919657 0.0506528 0.42778957 0.19505127 0.2791857 0.014089965 0.3761333 0.072542936 0.06364863 0.17845611 -0.20986944 -0.03369886 -0.7801519 0.06746136 -0.21005197 0.31457907 -0.115731806 -0.18940946 -0.20515972 0.20374069 -0.15409534 -0.22923894 0.20396574 0.18303731 0.403593 0.13403824 -0.38290697 -0.46541613 0.09540978 0.061817214 -0.20957595 -0.19659148 -0.1297955 -0.25061166 0.24516213 0.21737106 -0.49465543 -0.13503407 0.23616762 -0.1202846 0.10474316 -0.18324986 -0.17114112 0.12248057 0.17445484 0.029756414 -0.076711126 -0.07741267 -0.15035668 0.15466331 -0.43190166 0.5700889 -0.16631474 -0.2750945 -0.20521322 0.35235372 0.05464723 0.35913652 0.18121429 -0.18724622 0.009691379 0.06508014 0.05132648 -0.18294437 0.073761106 0.2182896 0.3595708 -0.02712731 0.64886206 0.028089937 -0.16960268 0.3664617 0.096557416 -0.30500656 0.6821197 -0.14076933 0.25342402 -0.20303601
3218 -0.0019601772 -0.069513015 0.21489187 0.26899135 -0.44385767 0.087386616 0.083461545 0.28454635 -0.34997198 0.22988145 -0.26473546 -0.1888086 -0.31425783 0.21411622 0.1256237 0.41282758 0.14017756 0.11425879 0.07387324 -0.30279207 0.16476905 -0.07984254 0.37517613 0.09745762 0.30814424 -0.18770863 -0.3844807 0.74625635 0.2925419 0.40131778 0.50921834 -0.011756971 0.26087493 -0.3936155 -0.22847323 0.0035734978 0.074467614 0.33514488 -0.086523786 -0.09032505 0.04276198 -0.04845938 0.037750572 0.37449613 0.044007145 0.2461543 -0.17144191 -0.27052695 0.31420887 -0.08119624 0.33381367 0.15690005 -0.14020494 0.12463225 -0.047932055 0.4711489 -0.02315046 -0.27929717 0.19845173 0.8034221 0.47200122 -0.4146033 -0.18020552 -0.17283298 -0.25016987 -0.103823215 -0.21310526 -0.59286433 -0.31014568 -0.20008904 -0.036651764 -0.30155584 -0.3367222 0.4223 0.059197094 -0.07644668 -0.036424253 -0.044823952 -0.1998773 0.07609928 0.17416458 0.028440708 0.06487356 -0.27095437 0.013178682 0.45435834 0.22938472 0.40700534 -0.13180454 -0.13148578 0.68700856 0.14946236 -0.06692771 -0.1119166 -0.037221715 -0.43205428 0.020478334 0.11988992 -0.16834255 -0.18950197 -0.68688124 0.088373445 -0.038501285 -0.08602398 -0.2839919 -0.18995853 -0.6713435 -0.14796716 0.15830849 0.45928246 0.33878493 0.16705829 -0.45801625 0.14173584 0.40332642 0.039454788 0.3972781 -0.19524811 0.2887085 -0.029121319 0.12791994 -0.62693685 -0.12261541 0.30422872 0.009191341 0.22720481 -0.3285458 -0.3410788
5348 0.37419602 0.5835703 0.1677022 -0.2742025 0.5762958 -0.45011592 -0.2947038 -0.036682066 -0.7705566 -0.35554266 -0.713237 0.66298896 0.18702774 -0.31982017 0.41708094 0.30210507 0.18232429 -0.1560546 0.29702392 0.36912233 0.22799522 0.11632373 0.027544765 0.021256497 -0.27949166 -0.32451195 -0.41563338 -0.10596491 -0.32593808 0.18395384 -0.056660082 -0.5667381 0.6231104 0.0693773 0.014905538 -0.45661023 -0.57811874 0.3052788 0.42211556 0.50639826 0.36940753 -0.24757802 -0.009179751 0.45141244 0.44910985 0.47042203 0.10669373 -0.44513306 -0.054124355 -0.5128345 0.13027151 0.27556565 -0.11145868 -0.16516802 -0.43024978 -0.4272458 -0.55544573 -0.08732638 -1.0001862 0.6738117 -0.19904645 -0.31737545 -0.054025725 -0.06989142 -0.09194199 0.04284224 0.1173579 -0.5472516 0.67908955 0.3845657 0.27676743 -0.5755175 -0.27924088 -0.29634896 0.090043776 0.13816713 -0.104702845 0.43454748 0.2552932 -0.32472384 -0.4824403 0.4712848 -0.50313014 0.5466121 -0.35556757 0.19114296 0.13544142 -0.24583603 0.31291354 -0.37610474 -0.20908275 0.13833106 -0.42377034 -0.29903156 1.1277516 0.22004105 -0.45063606 -0.2668121 0.029514961 -0.24685198 -0.3638676 0.2685048 -0.06263284 0.26669106 0.16339494 -0.0037580275 -0.18963662 -0.10738286 0.021178339 -0.40602955 -0.093758106 -0.36957732 0.08992248 0.48355398 0.27090296 0.3485888 0.29832578 -0.4548608 -0.18904942 -0.023548651 -0.050265595 -0.09412331 0.0205459 0.33275396 0.33568785 -0.31456086 -0.03545308 -0.30140337
35061 -0.104438074 -0.0039767297 0.3299175 -0.0038532123 0.39598447 0.35594267 -0.15319996 0.15793648 -0.2111127 0.35341242 -0.2293423 0.15132058 -0.13363712 0.26996377 0.2540771 -0.16564517 -0.062165458 -0.019269789 0.05209622 0.11646116 0.024211403 0.17776196 0.12931453 -0.10366905 -0.2518028 0.08244756 -0.36867875 0.023307202 -0.05073885 -0.31152466 0.763623 -0.11993332 0.21357143 0.144979 -0.08068808 -0.1678005 -0.09327828 0.14635889 -0.055073 0.3598919 -0.11172542 -0.24751796 -0.0408145 -0.009308794 -0.16538645 -0.34663087 -0.07757437 -0.5357708 0.34680277 0.07179582 -0.18283191 -0.31198674 0.40302452 -0.12131309 0.1854424 0.2581629 0.10074992 -0.0073038614 0.18892957 -0.24149321 0.10723215 -0.1040286 -0.15297556 -0.69498235 -0.23709181 0.06793141 -0.1872987 -0.28146863 -0.052281458 0.3199803 -0.15898496 -0.0854369 0.11335697 0.01275237 0.36008558 -0.30680636 -0.099489294 -0.108281806 0.33156466 0.06864039 0.19402488 -0.14162754 0.31785774 -0.042064764 0.47259828 0.11108097 -0.14646885 -0.22658046 0.1037503 -0.17951037 -0.10325085 -0.059946 -0.031261936 0.05814501 0.40245047 0.058172047 0.39974615 -0.5122779 0.102971196 0.5718305 -0.24286476 0.34612566 -0.06934793 -0.24202532 -0.12318219 0.0047636707 0.1934707 0.32183462 -0.04731618 -0.17569189 -0.026454505 -0.30843994 -0.12460592 -0.18741016 -0.08261686 0.18803748 0.56949824 -0.041453663 -0.26222765 -0.13468455 -0.09107339 0.20253012 -0.13085179 -0.18322332 0.70085526 -0.4558546 -0.17056872 -0.24838758
34257 0.44619423 0.004803971 -0.57709795 0.43390632 0.4331108 0.42253625 0.022611769 0.47155488 -0.18709184 -0.3515335 -0.09550192 0.23638365 -0.7297659 -0.17843373 0.3953257 0.4504366 0.5726981 0.039104715 -0.36752638 -0.5465406 1.0380424 0.4479711 -0.34402406 0.0060602855 -0.11576649 0.18594775 -0.4211635 1.1044098 0.051623795 -0.2960108 -0.36500898 -0.35277894 0.8208138 -0.30047148 0.801277 0.06637658 0.0058201826 0.13839555 0.08453137 -0.20894262 0.20457578 0.8975269 -0.13935436 -0.16071925 -0.70946383 -0.35965902 -0.11533084 -0.8351173 -0.23390093 0.31374586 -0.25254104 -0.13856527 0.24293053 -0.73939884 0.087137155 -0.6249743 0.17765518 0.18646567 -0.7032147 0.4649787 0.17733276 -0.08125944 -0.9569102 -0.099182285 -0.57864416 1.1027124 -0.44807136 -1.082701 -0.43367705 0.11888962 0.27993765 -0.008234032 -0.36188844 -0.28732994 0.19595206 -0.45962745 0.42776752 -0.033207167 -0.058263473 -0.5720707 -0.20188668 -0.21118641 -0.6582908 -0.2659694 -0.40864474 -0.30253884 0.5921311 -0.20004411 0.2656602 -0.26555312 0.31487033 -0.37564608 0.85849786 -0.014783175 -0.41454852 -0.48166412 0.8900597 0.18482168 -1.1385887 0.22937563 -0.7185064 0.006373364 -0.6367446 0.026107779 0.25426435 -1.1209195 0.22107925 0.004710835 -0.061348565 -0.42211607 -0.18582128 -0.1576398 -0.91219264 1.3405226 0.16745432 0.936765 0.40851736 -0.37363958 0.52021265 -0.33881637 0.14788093 -0.11478662 -0.15363283 -0.01598467 -0.30241168 -0.8815025 0.024488008 0.1335454
54129 -0.2863476 -0.48129478 0.47456068 -0.32687727 0.3413168 -0.2064242 0.020272596 0.093331106 -0.36032268 0.14381446 0.14557871 -0.3695568 -0.273483 0.20138627 0.12696292 0.07674608 -0.21316814 -0.08528659 -0.18796319 0.4531557 -0.57870495 0.33063534 -0.14783722 -0.47735184 0.07473016 -0.13954154 -0.2888006 0.6215828 0.14982703 0.08799575 -0.4041506 -0.14391746 0.09988005 -0.019369734 -0.5444973 -0.19966908 -0.22430994 0.16149607 -0.01443267 0.12574065 -0.2595161 -0.052665584 -0.029479366 0.7823557 -0.37169448 0.3310568 -0.6938173 0.07316906 0.70155674 -0.49437883 0.57318366 -0.18492083 0.43727008 -0.012272537 0.026897898 0.04963869 0.64695895 0.10054987 -0.3481201 0.15284137 -0.11898142 -0.093196414 -0.43853295 -0.12656322 0.066585496 0.018243399 -0.32552958 -0.93411493 -0.12339116 0.54211193 -0.12546632 -0.13095476 0.3952143 -0.32810286 0.11538098 0.2648673 -0.19124697 -0.33261135 0.1619782 -0.042442262 -0.5888391 0.19697824 0.25059226 -0.05171395 0.03502369 -0.3249265 -0.18025586 0.20392308 -0.15411969 -0.30272606 0.18190145 0.024197163 -0.08581802 -0.12615235 0.26091662 0.063656636 0.2038065 0.046069164 0.21550359 0.15480988 -0.06076078 0.19224794 -0.3387318 -0.19102256 0.51916593 0.5325306 0.4775491 0.23381126 -0.14718513 -0.16032255 0.32315353 -0.09936525 0.04640253 0.29187018 0.60912895 0.3010698 0.18798353 -0.275537 0.14941628 0.23519264 -0.44508293 0.26406914 -0.109215535 -0.49427602 0.38636237 0.048250947 0.010926511 -0.20762847
10177 -0.23288944 -0.12497272 0.21867529 0.09608658 -0.0391355 -0.015105638 -0.5426425 -0.27464482 -0.030425187 0.5029246 -0.26888263 -0.19750415 -0.38039708 -0.39467254 0.44712847 -0.12465913 -0.14242263 0.19508551 0.42579174 -0.17249373 0.12808335 0.1580844 0.6082889 -0.0211286 0.28476492 -0.27420223 -0.08181096 -0.06457251 -0.25432462 -0.36868608 0.19006544 -0.457395 0.012535858 0.29330465 0.110670395 0.021750018 0.2895334 -0.30206248 0.3315391 -0.1636236 0.31006238 -0.26737732 0.15924731 0.22452599 -0.46721828 0.42553517 0.3833014 2.9598763e-05 0.20268063 -0.30344224 -0.027591644 0.054689616 -0.01075746 0.3194795 -0.41514722 -0.35543594 0.03658859 -0.18659656 0.472471 -0.001115037 -0.119095385 -0.25602153 -0.47833127 0.14869563 -0.30208507 0.003387987 0.15983926 -0.7151334 0.33191702 0.021686967 -0.18513611 0.004588677 -0.7538297 -0.042237293 0.23934752 0.08517351 0.49460262 -0.3375806 -0.61073613 0.18324625 -0.4615049 0.02062296 0.5940829 -0.2738797 -0.33125007 -0.28081775 -0.1357402 -0.47015318 -0.28188565 -0.0020935128 0.19538777 0.047949508 0.018157387 -0.11223459 -0.28124738 0.32495287 0.14357632 0.13688971 -0.08984737 -0.15572225 -0.25804323 0.46714354 -0.110182256 -0.25436682 -0.19899458 0.05713043 0.18068881 -0.3159805 0.1099612 -0.075332806 0.077695675 -0.061715163 -0.20436293 -0.09926608 -0.078434065 0.5173225 0.5124514 0.011204669 0.16016857 -0.4335052 0.18378744 0.015919557 0.26477855 0.028942576 0.2304783 0.081404045 -0.58638024 0.13106142
35797 -0.16068426 0.22097711 0.20379066 -0.30788842 0.186778 0.30143878 -0.021750502 -0.06318754 -0.2231764 0.23996755 -0.10104223 -0.23431489 -0.13598119 -0.30403405 0.20446266 0.040653754 -0.17473342 0.026502615 0.11750129 0.36484495 -0.3144215 0.14657041 -0.4467181 0.045821004 -0.4555684 0.55747455 -0.018996656 0.5418453 -0.43680963 -0.34905654 0.16878039 0.12776166 0.29105458 0.057144865 0.3005717 -0.06183771 -0.10870971 -0.37615788 0.14026336 0.041024305 0.33879897 -0.01216142 -0.5045456 0.36844853 0.38526255 0.43199968 -0.39856318 -0.15556385 -0.18137178 0.18284625 0.2366416 0.07145137 -0.064425714 -0.50372833 0.53399986 -0.36691883 0.043151677 0.412318 -0.16131128 0.48527333 -0.15550779 -0.00868521 -0.08320823 -0.34233475 -0.1560235 -0.38726214 -0.07600649 -0.066541806 -0.18436724 0.22892077 -0.019166775 -0.21145299 -0.4538844 -0.10585848 0.37816614 -0.41086742 0.359611 0.37809613 0.11767326 0.2664424 0.21172115 0.7145165 0.01822935 0.10119792 -0.45078608 -0.15210967 0.0016691833 -0.036997322 0.2735909 -0.048204258 0.24811706 0.15892549 -0.3902364 -0.17603038 0.70417935 0.02318875 0.24648462 -0.024174288 -0.23459126 -0.48758253 -0.14716981 0.14727722 -0.21495835 0.0067619574 -0.09492671 -0.40271938 -0.041858733 -0.08211405 -0.01052377 0.43011844 0.051788162 0.08686868 -0.3101561 -0.047610957 0.11994607 0.19996846 0.19593927 -0.3714084 0.10093258 -0.23303607 0.31433055 -0.007383077 -0.3390593 -0.4936671 0.3478701 0.40239975 -0.34648067 0.35191646
18777 0.26024845 -0.17761703 0.15942875 -0.25125784 -0.06740875 -0.5850828 -0.024997668 -0.13202477 0.035736203 0.19430876 0.1365699 -0.08526667 0.13211766 -0.32342127 0.32391268 0.2784839 0.35664648 0.062328663 0.00010467068 -0.0848521 0.07223747 -0.15505236 0.21287398 0.28849337 -0.2143514 0.38669688 0.28938872 0.33157122 0.029034484 -0.1139291 0.70270336 -0.08307586 0.34120625 0.45419115 0.041157153 0.102310434 -0.21274759 0.21671662 -0.25092492 0.06456227 -0.24301854 0.18126538 -0.027028065 0.03596031 -0.34890625 0.5051247 -0.20570725 -0.034103107 0.22926062 -0.16213648 0.49047893 0.5754732 0.2614268 0.3392176 0.10027119 -0.8299001 -0.2785669 -0.5244833 -0.31413043 0.14536272 0.10054976 0.057814036 0.17171827 0.46724606 0.10074651 0.25345308 0.34669787 -0.3315573 -0.2051354 0.40823656 0.13795877 0.27168977 -0.07900594 -0.3637871 -0.3820631 0.15779413 -0.29230383 0.49638247 -0.57662696 -0.8928493 0.4497211 -0.2903969 -0.31602946 -0.2359475 0.13767707 0.22512206 0.1595827 0.31132552 -0.16749015 0.32683653 0.2859497 0.3259048 0.0042149457 -0.0665295 0.06386442 -0.11814214 0.66577923 -0.38749143 -0.05766499 0.12600519 -0.1403902 0.23529932 -0.25169617 -0.20996416 0.017102964 0.46361923 0.34863064 -0.6757713 -0.39291245 0.07330014 0.17970225 -0.47176903 0.24737193 -0.027477996 -0.14308995 -0.07361907 0.42908585 -0.20706546 -0.099374436 0.05143175 -0.28157175 -0.5636575 -0.40320975 -0.13244545 0.08832494 -0.008440897 -0.3706684 -0.05510881
38205 -0.004873377 -0.12181726 0.21324307 -0.15270562 -0.23693521 0.027779542 0.0023645423 -0.19994293 0.06589561 0.5134354 0.011726217 0.3094916 -0.16423045 -0.0026035572 0.13616684 0.16134743 0.28508642 -0.473094 -0.12254276 0.24588498 0.070477895 -0.15896574 -0.09904866 0.03762272 0.0912168 0.18702824 -0.067351304 0.40567988 0.011822877 0.13662338 0.37287965 0.12872411 -0.08678558 -0.075131685 -0.58138627 -0.45065263 0.024138698 0.2086248 0.04016957 0.32358727 -0.038936853 0.31304717 0.27305272 0.2114488 0.0138262 -0.17311262 -0.68339276 0.06299199 0.37528506 -0.35063285 0.16647863 -0.1486335 0.24827665 -0.19972928 -0.102065966 -0.09768077 0.37116206 -0.06409014 -0.056218594 0.34304324 0.13571948 -0.14405559 -0.48333338 -0.23407313 0.027113613 0.43776375 0.04713467 -0.8348749 -0.021414265 0.70969737 -0.52189636 -0.13411851 0.19561735 -0.19428505 0.06319644 0.095849656 -0.0975533 -0.13853507 -0.04206435 0.07861461 -0.23580252 -0.051317047 0.14798595 -0.03694948 0.44569865 0.11950051 -0.348052 -0.084009536 0.17567468 -0.2905862 0.56763 -0.34735388 -0.261901 -0.03839871 0.060819507 -0.28698617 0.07104297 0.12418269 0.17254943 0.2729442 -0.13239151 0.34910747 0.050578173 0.022479277 0.004480259 0.34093463 0.2157768 0.4044084 -0.11461315 -0.028488968 0.15626466 -0.092383996 0.16770436 -0.0065624537 -0.1058327 0.1526027 -0.07818755 0.0044878614 -0.2502849 -0.54235727 -0.3954939 0.5062458 0.08757162 -0.2578733 0.57159597 -0.05804155 0.07096704 -0.5232814
89547 -0.07810687 -0.4415454 0.38093066 0.027964264 -0.23840168 -0.14289749 -0.5720017 0.3626161 -0.13305035 0.15840568 -0.26910004 0.061352104 -0.44915774 -0.27635863 0.31031224 -0.41890568 0.0740992 0.3779607 0.46363738 0.17349568 0.09323178 -0.36641544 0.027700625 -0.17446202 0.41451687 0.04432391 -0.200907 0.32298195 -0.53832227 -0.7591501 0.18214916 0.14238258 0.08372968 -0.059838735 -0.12985425 -0.3038097 0.124514714 -0.15781827 0.097882695 0.2079408 0.12825531 0.18801945 0.6498374 -0.03660922 -0.4546986 -0.0702438 0.2024554 -0.63468325 0.12711982 -0.1216189 -0.11851685 0.055892337 0.4585925 -0.13506506 0.16628665 -0.73999065 0.42013377 -0.02362736 -0.014272176 -0.14570679 0.2723811 -0.049291488 -0.15574996 0.40730008 0.17373693 0.20342694 0.11693729 -0.04129163 0.11041704 -0.12614611 0.0001940087 -0.05959252 -0.19314632 0.009975635 0.052208573 0.34241185 0.47128958 0.036667526 0.11569869 -0.21111655 -0.1964198 -0.26249903 0.037055127 -0.5861055 -0.59760493 0.10071055 0.46054667 0.19372948 0.20681144 -0.31144965 0.10892251 0.008058206 0.042487107 0.1500063 0.29012343 -0.17962135 -0.21965283 0.07753371 0.22631271 -0.27224812 -0.24320593 0.4822188 0.22484079 0.3240231 0.19476444 -0.13838395 -0.10067703 -0.5043732 0.27034166 -0.41525272 -0.30160126 0.6504358 0.23885946 -0.3112054 -0.06798565 -0.020879846 -0.08921898 -0.30408633 -0.27296436 -0.31496537 -0.4990415 0.22591086 -0.58563554 0.27059218 0.39407748 0.07840377 -0.25550935 0.044641156
28350 -0.67891467 0.21535401 0.46800718 0.02087203 -0.64587784 0.13184844 -0.28745267 -0.08879922 -0.5690155 -0.061295517 -0.25334114 0.02717366 -0.1442601 -0.2795359 0.071075894 -0.24222915 0.21214613 0.10884115 0.022433966 0.115451045 0.058020122 -0.0010481075 0.08987238 0.29643816 0.28635368 0.009097705 -0.336628 0.25019243 -0.16448252 0.019124307 0.2251505 -0.32280686 -0.057670776 0.06171828 -0.009646754 -0.02980457 0.17820248 0.0018036098 -0.031263724 0.43272573 0.0743597 0.16261762 -0.0872119 -0.06836833 -0.050302528 0.28154576 -0.32047585 -0.6846747 0.1811582 -0.11610121 0.04503526 0.164065 0.4067062 0.0675505 -0.39722848 -0.17228004 0.21082656 -0.27748308 0.28302875 0.63083553 -0.37390977 0.3588312 0.3480166 -0.60055745 -0.17207257 0.21201609 0.18766367 0.087945364 0.23760992 0.1271421 -0.6426945 -0.031277075 0.53703296 0.22690652 -0.06436948 0.3534377 0.048071414 0.40987328 -0.0030784977 -0.089745335 -0.1214264 -0.56727344 -0.2308264 -0.0025739796 -0.13611855 0.44797245 -0.03579838 0.096429735 0.0036240239 -0.19982052 -0.2749007 0.06326344 0.52557707 -0.0666625 -0.19308946 -0.1379001 -0.0970573 -0.054777667 -0.1233407 -0.14232728 0.24401101 0.29474717 0.04297329 -0.19073245 0.32549694 -0.1867521 0.014261564 -0.24358442 -0.48712495 -0.59150726 0.030000845 -0.03203457 0.34241992 0.19257164 -0.06786392 0.34196383 -0.18797614 -0.15940808 -0.040245797 -0.2219821 -0.5662172 0.15256381 0.22886127 -0.18962483 -0.1233799 0.08129519 -0.029401591 -0.010862855
2654 0.14401777 0.24861625 -0.05433654 -0.04242528 -0.049301952 0.12485942 -0.6797029 0.054743875 -0.08826141 0.020018894 0.08099494 -0.010473548 -0.28405073 0.016884932 0.43592113 -0.27484715 0.4201782 -0.24397275 0.08148116 -0.5527586 -0.061698306 0.03580081 0.067661405 0.055753544 0.265132 0.41214743 -0.09159359 0.4626009 -0.048397638 -0.21902646 0.38218832 0.35338503 0.7170546 0.37054303 0.596995 -0.5566742 -0.095115155 0.17016605 0.2398174 0.27972043 0.15134433 -0.5856987 0.2282567 -0.15737715 0.11191936 -0.24793217 0.10298675 0.10501252 0.15817893 0.010265644 0.10955328 0.20143753 0.5130706 0.12763235 0.51761574 -0.41669834 0.27478668 -0.24488255 0.26341516 -0.18742491 -0.13314489 0.15348396 -0.29483998 -0.15464155 -0.32495674 0.05562921 0.30709618 0.17782527 0.3729281 -0.028955707 0.20220588 -0.057822518 -0.15173957 0.23047848 0.17950597 -0.3583598 0.285257 0.9518385 0.044662014 0.2839144 -0.474524 0.09434632 0.54998195 -0.307923 0.13878192 -0.45988527 0.29917553 -0.21357854 -0.074432135 -0.08476385 0.05230652 0.51743424 -0.13662584 -0.13544865 -0.106593184 0.0077753984 0.2508092 -0.014418298 -0.034508273 -0.15745035 -0.12717848 0.37261578 -0.6434235 -0.27329627 0.1324138 0.07533406 -0.41159567 0.29845417 0.10653011 0.6831351 -0.138384 -0.2226358 -0.19463336 0.06252812 0.49436012 -0.27440244 0.013632945 -0.33720532 0.08302474 -0.22553237 -0.33905235 -0.077180386 -0.18379614 0.3545571 -0.24928826 0.80833787 0.47815776 -0.19959673
153063 -0.078344084 0.60808575 0.024282197 0.28868923 0.4390825 0.4604674 -1.0701464 -0.9169181 -0.2072593 0.7538069 -0.10759367 -0.1421495 -0.49154133 -1.0566695 -0.35297102 0.09508059 1.2128956 -0.2231277 -0.03700839 0.062831484 -0.34520036 0.82154304 0.18482071 0.098552875 -0.70450413 0.31222153 -0.32684895 -0.8637157 1.1790395 -0.07189729 0.63605106 0.18539855 0.6049463 0.12941946 0.08594695 -0.4033782 0.08206576 0.08551727 0.20140755 -0.022255316 -0.73819166 -1.3028742 -0.069113016 0.4467714 0.49112722 0.046118774 -0.0770945 0.34339303 0.0031041016 0.31651074 -0.28729415 0.65898615 0.09841948 -0.21503629 0.12405967 -0.24887317 -0.09400528 -0.54223174 -0.31638473 -0.07516326 0.21172993 0.35117573 -0.21244745 -0.3014074 -0.30738747 0.79559857 -0.013628441 -0.579179 -0.46294314 -0.12851468 0.63352484 0.49736968 -0.31232288 -0.22669901 -0.71760833 0.7067493 0.7995705 -0.005259611 0.57021296 1.4444247 0.024013745 -0.15175214 -0.4734144 -0.08246725 -0.18359567 0.12534592 0.02680909 0.6273624 -0.41534215 -0.15606205 0.97000605 -0.0450687 0.70790434 -0.3557055 0.2982863 0.2169727 0.26470903 0.34681132 -0.16602996 -0.8436385 -1.0201131 0.48133108 -1.0861917 -0.31912652 -0.2501223 0.37536705 0.59070086 -0.20022917 -0.614291 0.3165911 0.38246092 0.017865613 0.6671118 0.35879356 0.049879197 -0.16090581 0.06306408 0.013386244 -0.057442736 -0.4852562 -0.5056348 0.057822917 -0.08577596 0.9336091 0.3177666 -0.9416585 0.028630905 -0.65425
65074 -0.7725054 0.11946579 0.4647831 -0.30521083 -0.4726986 0.29582277 -1.0203629 -0.6923595 0.30507594 0.76031196 0.1267955 0.57905686 0.8022635 0.30891964 0.15256181 -0.37546825 0.33507356 0.6510385 -0.074638106 0.5487676 -0.45346048 -0.16233552 -0.405627 0.4431856 -0.033884946 -0.1505712 0.34328344 -0.32843712 0.017956141 -0.42905325 0.177889 -0.07232246 0.49986774 0.04889541 1.0842766 -0.46782538 1.0517678 0.22147463 0.63791686 0.13468002 -0.15309122 0.25881892 0.26013768 -0.61632013 -0.15646204 0.349745 0.32346937 0.45427263 1.1049254 -0.26123926 0.2753884 -0.39060158 0.14410968 -0.7350248 0.45307449 -0.22169505 0.5088256 -0.2709897 -0.79200554 0.5619868 0.3334987 -0.11402981 -0.6182218 0.32357192 -0.39795336 0.031206733 -0.009516774 -0.49313146 -0.537846 -0.24506581 -0.44643906 0.640471 -0.3787437 0.12815996 -0.73227924 1.2251287 1.005314 -0.6153922 -0.37455174 0.6899411 0.84005815 -0.2802744 0.095314406 0.07027482 0.10381102 -0.591502 0.07186285 0.28441715 0.63052213 -0.17474915 0.032428026 0.11626292 0.50589114 0.03243491 0.72201604 0.5671787 0.6876571 -0.55751866 0.3286893 -0.48935556 0.20968448 0.547424 0.06218769 0.55904955 0.5775498 0.02532206 -0.1910195 0.1715033 -0.7790739 0.12230171 0.45167744 -0.52870965 -0.3115063 1.2452244 0.27404058 -0.04395694 1.5007697 -0.49602872 0.3295831 0.08909324 -0.18564217 0.86630374 0.12920454 0.7174619 -0.005333029 -0.12036905 0.3344967 0.7738179
1956 -0.04100178 -0.0708988 -0.16402264 0.0580164 -0.10135961 -0.09445689 0.0992508 0.1376677 -0.20405203 0.21434781 0.57109725 0.27940995 -0.09117685 0.0051456145 -0.03524149 0.14151399 0.27673402 -0.05736795 -0.18081115 0.26308602 0.09471602 0.11760302 -0.07508028 -0.6561553 0.024165643 0.026095502 0.18670069 0.098204345 0.6442412 -0.26685917 0.29332995 0.08376704 0.22955 0.15117642 0.061990608 -0.47095683 0.74255776 -0.30748335 0.17967378 0.43709615 -0.10539414 -0.14533068 0.38321927 0.1205255 -0.20081747 0.37107524 0.10745322 -0.42003962 0.25872642 0.3374761 0.50459737 -0.36140907 0.037212137 0.053166788 -0.10024895 -0.12632641 0.09465109 -0.38759646 0.3396646 0.2373171 0.2203194 0.02036739 0.05919189 -0.38783172 -0.1368926 -0.101720355 0.13038065 -0.38134792 0.1473986 -0.059480663 -0.044408772 -0.083220445 -0.11264881 -0.010107997 -0.21122381 -0.60167706 -0.23516616 0.23187754 0.13845041 0.27735338 0.27283275 0.39016005 0.08218247 0.4717539 0.49396464 -0.4278286 0.06741024 0.2042582 0.29734123 -0.36452708 -0.16355567 -0.03127605 -0.09184088 -0.27310377 -0.2674388 -0.21555018 0.44417506 -0.28413984 0.18503983 0.5399609 -0.4112002 0.5335804 -0.18729137 0.27310005 -0.000990563 -0.08462498 0.13451208 0.045150694 0.1749883 0.10077711 0.27142444 0.6603771 0.33836251 0.60845697 0.384824 -0.0796653 -0.05562337 -0.53120023 -0.09260484 0.19534925 -0.16315132 0.33209863 0.017642071 0.06644436 0.21766536 -0.026666487 0.009185626 0.2959028
6910 -0.30852762 -0.16697513 0.67524153 0.20545883 0.049462546 0.91678107 -0.51532036 -0.45832905 0.66415733 0.48105943 -0.25242764 0.6583077 -0.29384968 0.1553334 0.99464566 -0.76082075 0.09662116 0.19379267 -0.10368764 0.83301735 -0.23701693 1.2504531 0.12281973 0.4945782 -0.0421657 0.8354238 0.27524272 0.61205655 -0.55666846 -0.509893 0.3644679 -0.19969037 0.66791624 0.15680182 -0.03487048 -0.27323118 0.5270342 0.15174226 -0.008623618 -0.19965477 -0.48999193 -0.495094 -0.032115243 -0.16040687 0.09908896 0.4378647 -0.22688548 -0.66508836 0.26111743 -0.34558678 0.06520093 0.11147439 -0.45732605 0.025568966 -0.060028404 -0.76475996 0.8289061 0.28824535 0.047110334 -0.36701912 -0.13176931 -0.23177652 -0.93860906 -0.2620854 -0.013195135 0.01395764 -0.7320001 0.2887094 0.47403517 0.2376278 0.83212626 -0.1703723 -0.65595186 0.1425122 -0.6110939 -0.07600463 -0.12437615 0.025688933 -0.35091937 -0.3699954 0.5573267 -0.0872914 -0.63624656 0.120785765 0.86549526 0.38579363 0.2626957 -0.36204514 -0.31895074 -0.2590585 -0.20573941 0.047559157 0.017068572 -0.1273482 -0.529335 0.39340323 -0.0966602 0.37584886 0.14932305 -0.38868654 -0.5091801 -0.30685675 -0.3812045 -0.31754893 -0.15742542 0.42935067 -0.08226952 0.30322835 -0.37883967 0.5514975 -0.32051912 -0.071233965 0.07080235 0.34525657 0.10479444 0.0888742 -0.3958032 -0.5113378 0.22314222 -0.19523776 -0.077667676 -0.28234836 0.7895852 -0.52806103 0.027991217 0.046187874 -0.332966 -0.3339403
6913 -0.173047 0.15062788 0.31813052 -0.38497445 -0.36223224 0.26894385 -0.016121758 0.010992347 -0.17792356 0.5514246 -0.13397796 0.4179398 0.06849901 -0.23881447 0.5065512 -0.76170033 0.37253332 0.022341046 -0.061235823 -0.22285345 -0.096191786 0.8068035 -0.26805973 0.4856725 0.28622633 0.40527764 -0.058524203 -0.25520882 -0.41290277 -0.33290815 0.20071678 -0.0990168 0.41335946 0.30933762 0.20691401 -0.7767653 0.32520723 -0.27220085 -0.030756773 -0.52154344 0.1067378 -0.08741019 0.64577436 0.20480272 0.16523764 -0.10344193 -0.5763872 -0.51239896 0.29174408 0.055513013 0.7505239 -0.057076935 -0.45355782 -0.059195675 0.0999786 0.030633682 0.024568865 -0.19960587 -0.35237253 0.0068965387 0.13674094 0.083695725 -0.59741074 0.09391652 -0.22660953 0.19646181 0.5033747 0.3320469 -0.35404006 -0.20549421 0.33656147 -0.12631883 -0.46812427 -0.24007343 -0.5795962 0.03410953 -0.29199162 0.37354976 -0.18822521 -0.22824469 0.14865045 0.24938412 -0.7165743 0.052235104 0.2104386 -0.20890185 -0.10830866 0.1862797 -0.083166085 -0.68268317 -0.39803365 0.3903477 0.09213372 -0.26048428 -0.13270953 0.21517485 -0.3756074 -0.19352923 -0.40125233 -0.13016246 -0.44906312 -0.4837361 0.28895658 -0.06876482 -0.1633112 -0.06015508 0.03578916 -0.2190612 -0.3307106 0.5541841 -0.15988158 0.09531423 0.17503327 -0.01617437 -0.0080909105 0.72909784 -0.15141517 -0.33680695 0.2860797 -0.4356348 -0.10808122 0.17761163 -0.30595323 -0.0820905 -0.04838726 0.06865566 -0.7037408 0.122857355
