2708 128
35 0.16501057 -0.091917455 -0.15446939 -0.19058724 0.23027234 -0.012265677 -0.18542527 -0.29528794 -0.28883913 -0.2278431 -0.05820408 0.04271554 0.047352627 -0.07178549 0.031907797 0.0010707855 -0.21746963 0.089661 -0.21472329 -0.069994144 0.12779231 0.18021208 0.006012757 -0.25874597 -0.18080685 0.21099547 0.05949305 -0.22774878 -0.09203902 0.08714188 -0.032476056 -0.18039434 -0.007148786 -0.006296622 0.036317576 0.19962536 -0.1423413 0.051473584 -0.17270243 -0.20466013 -0.1367766 0.07626391 0.04691944 0.079577774 0.12856084 0.14615163 -0.067659184 0.036342952 0.12549555 -0.25897282 0.2848053 -0.16748624 0.015694 0.14903326 0.16408601 -0.069208644 0.20298085 -0.0027972364 -0.13300866 0.27328938 0.026386244 0.107178085 -0.021560023 0.023421027 -0.03493127 -0.0737451 -0.08389549 0.20830403 0.17079051 0.0620524 0.24511328 -0.23425218 -0.10018518 0.047676213 -0.042430412 0.28152856 -0.4517185 -0.03844912 -0.24025698 -0.1415444 -0.1074696 0.26076397 -0.06823901 -0.044473033 0.26629725 0.10191025 0.21120583 -0.06532904 -0.23271845 -0.062533915 0.20124665 0.023808302 0.2344431 -0.06744584 -0.322155 -0.038953446 0.23930377 -0.03129213 0.013176791 -0.008829613 -0.17806879 -0.05031855 0.10175572 0.31285584 -0.075242385 0.086824305 -0.024091972 -0.046822824 -0.2765337 -0.13428414 0.37197143 0.14924157 0.067864574 0.035102505 0.21133366 0.37364063 0.053394403 0.20894349 0.31015804 -0.40246186 -0.08204014 0.11328791 -0.21523003 -0.08917543 -0.12694769 -0.19808741 -0.060636424 -0.035394724
1365 -0.23469704 -0.23356102 0.07260045 -0.41103578 0.39226237 -0.008011676 0.19870088 -0.0377378 -0.1122682 0.32584265 0.07445557 -0.1337604 -0.36103186 -0.35996938 -0.2101042 0.30637327 0.13563006 -0.14223564 -0.29279172 0.0062207337 -0.09533502 0.25874937 0.048061676 -0.22918175 -0.0037802225 -0.19259147 0.39877424 -0.11901875 -0.01602684 0.2807023 0.2537626 0.033150535 -0.22022493 0.2081122 -0.13430825 -0.10499563 0.022585038 -0.17310356 -0.24982028 -0.06508978 -0.06402775 -0.1721044 -0.3020448 0.08545216 0.5100874 0.14870988 -0.05721229 -0.02516034 -0.07739747 -0.38365617 -0.32442248 -0.110581174 -0.092702016 -0.022155507 -0.019756174 0.25438696 -0.07794037 0.2451993 -0.18141292 0.122263186 -0.11251075 0.07655983 -0.2576044 -0.19076382 -0.10846275 0.14799319 -0.2369244 -0.007384467 -0.38010737 0.24964182 0.09127982 -0.27065018 -0.31854895 0.27634817 0.09901109 0.09356627 -0.12701495 0.23500481 -0.004780426 0.176887 -0.08556648 0.28265312 -0.0041595194 0.09222605 0.26266423 -0.018326407 -0.022643909 -0.0506906 0.19389403 0.021843899 0.15092874 -0.2742532 0.07404633 -0.026151579 0.3212619 0.13398257 -0.086145535 0.030593501 0.10810745 0.08323986 -0.07658299 -0.17148837 -0.19342823 0.0125379525 0.39660573 0.18582949 0.14660648 0.014144466 -0.07774726 -0.10163295 -0.0457909 0.07114378 -0.05600855 -0.101766154 0.43376607 0.17889662 0.048392847 -0.15532894 0.058680918 0.31843087 0.19220227 -0.18068157 0.3895477 0.22827488 -0.21567622 -0.29845914 -0.0716248 -0.025022134
6213 0.01761636 -0.048319407 0.14535667 -0.12608199 -0.09607576 0.226859 0.080316976 -0.035880465 -0.044668287 0.085949145 0.13439807 -0.22164926 -0.28405073 -0.27661118 0.033686545 -0.21328166 0.0066617276 -0.17636898 -0.024851128 0.15485987 -0.090129 0.12251078 -0.12120703 -0.11812156 -0.03310376 0.0038808116 0.07186469 -0.2134043 -0.2718144 0.33432636 0.3895958 -0.050063085 -0.16367774 0.12281877 0.013408344 0.10683811 0.06409008 0.04960087 -0.055224888 0.22466783 0.30168188 -0.09137459 -0.13492851 -0.055886433 -0.12549302 0.014028075 -0.27927837 0.105404556 -0.027587822 -0.05954454 0.26950046 0.10256235 0.2055691 -0.09950375 -0.034848265 0.18273675 0.14817184 0.12619413 0.1381011 0.051276367 0.07480145 -0.28075847 -0.52524245 -0.29621992 -0.009101109 0.047220547 0.21593723 0.29452938 -0.17295475 0.09833181 0.09720618 -0.28162903 -0.09488622 0.3649296 0.15755144 0.24128288 0.15402316 0.24529597 0.013306471 0.3363598 0.10668204 -0.11306824 -0.12902988 0.1311839 0.37676173 -0.24512255 -0.18678813 0.076836765 -0.18734437 -0.039250948 0.3396947 0.27150518 0.12106973 0.057254773 0.14548789 0.08231262 0.13352813 0.12230081 -0.09253169 -0.21433334 0.047377974 0.36409566 0.1635639 0.063619226 -0.24160343 0.6686073 -0.16907685 0.036598317 -0.13066983 -0.16129069 0.14109972 0.22449347 -0.0012164405 -0.07797879 0.2311557 -0.055163708 -0.28405795 0.14952452 0.20155445 -0.08919796 -0.18448475 -0.072912306 -0.20589183 -0.21478261 0.19364908 -0.2833597 -0.31371987 -0.3103407
3229 -0.2768171 -0.26583043 -0.31352553 -0.100497775 -0.010940156 -0.18948153 -0.3957936 -0.074660026 -0.29652503 0.0014213214 0.29044563 -0.09414596 -0.41143474 -0.2904823 0.036307015 0.21420059 -0.09127475 -0.32082513 0.1588865 -0.036135025 -0.05883623 0.13786732 -0.25413802 -0.10955318 0.16731755 0.120736726 0.032777615 -0.2728019 -0.18258992 -0.1991539 -0.051204935 0.15437266 -0.04461062 -0.19283955 -0.21706796 0.031875066 -0.16973136 -0.10979447 -0.2023704 -0.25721836 -0.12718938 0.21954672 -0.35863453 0.22573943 0.0009882296 0.14856812 -0.011556882 0.31356168 0.2528693 -0.48324418 0.025675116 -0.008614208 0.30989227 0.20262107 0.020896489 -0.030435292 0.039750874 0.18294388 -0.1615925 0.15775003 -0.06665177 -0.2543532 0.022017254 0.24501851 -0.050480947 0.15895851 -0.12965384 0.19524367 -0.353115 0.23752804 0.06001469 0.009869449 -0.050557986 -0.07176518 0.2954384 0.1407936 -0.16701242 0.1213171 0.18459517 0.14651513 0.16716546 -0.13015193 -0.041323796 0.050919697 0.1685845 0.253852 -0.004129912 0.1699757 0.28024322 -0.08191378 -0.20361468 -0.20004834 0.15631054 -0.0011567642 0.2635302 0.2107749 0.22343977 0.091593005 -0.1044429 -0.0066782665 -0.056519777 -0.0748768 -0.23586479 0.13055597 0.013414679 -0.057232846 0.16884698 0.08015406 -0.17873794 -0.115857616 -0.16268732 0.024364458 0.030681115 -0.13302454 0.31463012 -0.14776687 0.23490927 -0.12184518 0.06311324 0.22137244 0.23324278 -0.017567417 0.4709126 0.07570539 0.15677543 -0.14930381 -0.11697521 -0.19904308
910 -0.14585975 -0.014523458 -0.28524366 -0.036442857 0.3428362 -0.08216773 -0.17511202 -0.07586866 -0.3250441 0.0709948 0.17044784 0.10926008 -0.13669002 -0.23714547 -0.49284312 -0.045688365 -0.17884855 0.027941281 -0.20585366 0.4433496 -0.27289525 0.051846907 -0.20088834 0.048989434 -0.05266121 0.07967118 0.41203025 -0.16452657 0.07384607 0.24258605 0.11286321 0.2927498 0.16659865 -0.34571406 -0.22474465 0.087112695 0.052963123 0.10873461 -0.09797011 0.15652213 0.37369457 -0.3297168 0.12623815 0.036960173 0.34390116 -0.037682988 -0.07987586 0.19805574 -0.24008442 -0.47537747 -0.072573744 -0.09732008 0.5034566 0.1116942 -0.16235398 0.09868117 -0.12955537 -0.11803829 0.22443822 0.67271996 0.47119495 -0.21723713 0.16708423 0.051165976 0.2462831 0.27862844 0.10357378 -0.19517685 0.06241716 0.26246116 -0.037709523 -0.22446811 0.1403701 -0.0887753 -0.12194787 0.06550124 0.036049135 0.3244906 -0.50392675 0.0012693638 0.0962296 -0.087073304 0.25602823 0.32832968 0.29924902 -0.011593201 -0.11043671 -0.2396202 0.014999865 -0.3209091 0.25691405 -0.36245206 -0.073819704 0.08164541 0.26434842 0.008153848 -0.0648604 0.030418867 0.106164955 0.20597965 0.12677608 -0.16130881 -0.15876736 0.14740163 0.3019849 0.057725582 0.12021249 0.2375013 -0.029970525 0.21539798 -0.082047336 0.09808236 -0.28766686 -0.14609924 0.11533067 0.34865227 -0.37668273 0.05718349 0.05458954 0.40659633 -0.04795307 -0.35731632 -0.004607725 0.15781257 0.1628234 0.07727472 -0.20281999 -0.08517695
4330 -0.56321514 -0.22097182 -0.16222933 -0.043867778 0.15644354 0.24231961 0.08681463 0.08855869 0.022848077 -0.3212659 0.79396296 -0.09586656 0.057939254 0.08260424 -0.28634724 0.052168492 -0.069163285 -0.019728491 -0.16922048 -0.15093958 -0.0112529835 -0.16602279 0.08963883 -0.25081807 -0.18972857 -0.10381708 -0.20960812 0.08004918 0.26511192 0.41773486 0.10495108 -0.2003151 0.14868708 -0.5423231 0.09257212 -0.18925494 0.23072757 0.19529305 -0.009765423 0.17097427 0.058619197 0.0022054662 0.22955975 -0.16497055 0.3340987 0.14294185 0.24870737 -0.016294762 0.054098256 -0.21661878 0.1405272 -0.1353705 0.16654949 -0.04921338 0.1297193 0.22600281 0.2350534 0.21838196 0.09487745 -0.16025409 0.25351644 -0.13413937 0.21539146 0.20825376 -0.12302524 0.2746373 -0.051947884 0.16767019 -0.14566827 -0.090289555 -0.32834303 -0.2067828 -0.2393564 -0.10995054 0.06212284 0.16648634 -0.102797896 0.1769941 -0.08552454 0.11062166 -0.32073307 -0.29897657 0.31941023 0.04486613 0.6100109 -0.10318078 0.29769784 -0.14626834 0.05021259 -0.1746115 -0.017093148 0.0466793 -0.009734138 -0.080337785 0.4412408 0.11134815 0.0949963 -0.18226744 0.13553852 -0.092648685 0.32501563 0.09821025 -0.030571084 0.18233989 0.09672699 0.11189144 -0.08705571 0.3692363 -0.12834598 -0.35784563 -0.024333777 -0.20180596 -0.32712036 -0.3467061 0.381735 0.34625214 0.0014104552 -0.37416738 0.07049013 0.28090134 0.10183155 -0.11028317 0.0012002583 -0.004225127 0.09564442 -0.05454357 0.055337388 -0.1614786
114 -0.11801411 -0.33565158 0.13791393 -0.072684504 0.258015 0.2729458 -0.02909311 0.1647905 -0.031184737 0.060392506 0.019399406 -0.38378632 -0.14823757 -0.06028887 0.014271381 -0.13246727 0.17859735 0.1196274 -0.231016 0.50819725 0.009445028 0.18643674 -0.3402016 -0.21702263 -0.11973503 -0.10300678 -0.20856427 -0.29043114 -0.0365283 0.07493105 0.2768392 -0.14316194 -0.093202725 0.31779823 -0.1427492 0.17984289 0.12415319 -0.02071433 0.321329 -0.31855363 0.13363059 -0.06651361 -0.21945798 -0.12931493 -0.27717832 -0.0847789 0.14428821 0.07397059 -0.1382674 -0.28181854 0.24834596 0.2949846 0.21664594 -0.3176079 -0.15334998 -0.16500868 -0.013003025 0.22961782 0.27496365 0.11244552 -0.008148864 -0.25614715 -0.6308817 -0.058864783 0.09180293 -0.120285094 0.3319056 0.26243988 -0.19728258 -0.033104695 0.23531675 -0.43489695 -0.18778917 0.39960036 0.14077404 0.08098362 0.36410394 0.1468646 0.14748417 0.24867067 0.080215245 -0.43792665 -0.103407174 0.23906803 0.30071244 -0.08042032 -0.51400757 0.32601577 -0.25779617 -0.16361284 0.6305707 -0.07757478 0.037576273 0.25200167 0.14186627 0.06771845 0.3306249 -0.0465875 -0.338711 -0.21204071 0.20529725 0.14157249 -0.014366009 -0.0029353702 0.14916274 0.6886956 -0.06595827 0.103375375 -0.31406814 -0.30304477 0.41451612 0.13368832 0.034492474 -0.03633728 0.2096486 0.061005555 -0.33478853 0.16812989 -0.00675181 -0.21024558 0.017136825 0.0013328377 -0.1131429 -0.2013702 0.067035034 -0.17765369 -0.19913208 -0.49746695
3231 -0.29101047 -0.10735245 -0.3528644 0.04198414 -0.39346248 -0.08067221 -0.16099904 0.3068379 -0.36446258 -0.40349966 0.3257516 -0.042138435 -0.36668 0.012704623 0.21455607 -0.030900355 -0.1326269 0.20403248 -0.071967535 0.054078706 0.04392103 -0.080049396 0.18960981 -0.42700794 -0.114119284 0.21460824 -0.08218856 -0.059129655 0.2672952 -0.013583222 0.44491982 -0.34193954 0.04099839 -0.014401493 -0.30037287 -0.14808041 -0.20066592 -0.11343799 -0.16199413 0.37821102 0.02256835 -0.021618154 0.044838622 -0.17582881 -0.111567765 0.21802135 0.008037618 -0.12453703 0.2620481 0.08012701 0.09728043 -0.17200091 -0.37012452 0.35465991 -0.27436203 -0.1795712 -0.035529375 0.42179462 0.11700281 0.11582781 -0.17807823 0.17899467 0.43839955 0.09446457 -0.023349946 0.23503174 0.2969633 0.012601848 -0.1290242 0.303093 0.19896019 -0.12163247 -0.21395256 0.08930095 0.09289608 0.17299026 0.2403289 0.31725708 -0.50010055 -0.4751791 0.03591688 0.26140192 0.29894096 0.17931594 0.15335916 0.31848535 -0.0021176483 0.34086463 -0.23354541 0.37349206 0.062193885 0.23833594 0.2529628 0.14596629 -0.016304515 -0.15533616 0.035965774 -0.1217832 0.121153004 -0.5146791 0.19125952 -0.24006152 -0.20106408 -0.05063491 -0.09272709 -0.24369971 -0.024638863 -0.084999025 0.014573783 0.15469508 0.090308085 0.1378822 0.37617886 -0.31086785 0.078313075 0.27436307 -0.24679507 -0.15588987 0.47370794 -0.4135097 0.022379024 0.1412859 0.2328834 0.2210103 0.1060005 -0.03047113 -0.107941896 -0.12365122
19621 -0.4029383 -0.17109297 -0.10017621 -0.6503071 0.50990903 -0.19712844 0.10778299 -0.09767901 -0.39910826 0.112271145 0.3326865 -0.36395267 -0.4216589 -0.43512273 -0.18241139 -0.124884725 -0.0492185 -0.30323848 -0.50295997 0.0660451 0.28666514 0.15722372 -0.03136974 -0.3320723 0.36064017 -0.053822834 -0.09116933 -0.067028664 -0.06920374 -0.23577859 0.2366375 -0.0029695428 -0.08455712 0.21264479 0.054253787 -0.23436536 -0.063231006 0.018315943 -0.052583918 0.14760827 0.22447309 0.036548473 -0.08828227 0.15603518 0.22662851 0.1943222 -0.01753468 -0.0015315948 0.27281383 -0.26626474 -0.11442394 0.05477868 0.39686587 -0.06967825 -0.29087952 -0.003397685 -0.39345494 0.029475125 0.037486993 0.5313227 0.13264467 -0.012768026 -0.40306866 0.16976094 0.4196303 0.42009473 -0.38144165 -0.008905061 0.19403784 -0.08498303 -0.011359641 -0.07933694 -0.5319917 0.23364554 0.059228845 0.021234324 -0.15016627 0.23548052 0.03412118 0.1672481 0.14709291 0.22150645 0.16908674 0.23199499 0.22199216 0.10090828 -0.14786172 -0.2922291 0.05609182 0.18766432 -0.28025764 -0.5990229 0.35596192 -0.14913931 -0.05197058 0.28758317 -0.049502283 -0.16945654 0.24779712 -0.028579723 -0.44414446 -0.2541849 -0.08229983 0.08780916 0.3428907 0.30445254 0.1397966 -0.3183994 0.18210946 -0.007768625 -0.24285327 0.09292223 -0.38087445 -0.10853187 0.12169993 0.23500445 0.23796654 -0.3894541 0.13329974 0.25578606 -0.07916956 -0.21426122 0.20681009 0.3413059 0.27442473 -0.22838767 -0.23772551 0.027812297
1272 0.104968436 -0.14573376 -0.50602263 0.08160226 0.10288309 -0.020797838 0.0036604954 -0.3490441 0.09948599 -0.31898966 0.18979469 -0.06843488 -0.15990184 -0.37932178 0.095366254 0.24813585 0.16682966 0.065212056 -0.22278707 -0.034803405 -0.1010839 0.016052263 -0.26817623 -0.12490755 -0.08055316 -0.08384751 -0.030542588 0.28279397 -0.016745076 0.17047267 0.39047387 0.26665995 0.09789177 -0.18167704 -0.07854007 -0.16047557 -0.44731513 -0.29423144 -0.037601788 -0.007638564 0.033955578 0.3656657 -0.003300805 0.18345407 -0.060392033 -0.021396602 -0.07362948 -0.118079424 -0.02190234 0.115860626 0.14182298 -0.06884261 -0.037651528 0.14479582 -0.077996835 0.11412641 0.11933532 -0.29133955 -0.12957676 0.016203763 -0.13918105 0.47128707 -0.3064209 0.03484458 -0.2614087 0.105980694 -0.13294473 0.27811897 -0.02841066 0.37093362 -0.018932229 -0.15423456 0.21680048 -0.023663146 0.04656023 0.04770419 0.122196734 0.24350649 -0.15881832 -0.17220083 0.08302141 0.35335368 0.11460677 0.13694824 0.08862778 0.16939491 -0.27462533 0.21411255 -0.30704668 -0.021579048 0.022965275 0.055618245 -0.09343706 -0.07490959 -0.117054984 0.10146563 -0.19759057 -0.2546362 -0.15912244 -0.18990545 0.44272766 -0.13169649 0.0459115 -0.12501991 -0.08886025 0.50114536 -0.0065627377 0.06054272 0.26740372 -0.40558335 -0.31579214 -0.4197072 0.27557352 -0.022984222 -0.025041083 0.291381 -0.24243987 -0.23736201 0.5097454 -0.1457149 0.18021746 0.3024887 -0.09148049 0.11627496 0.06060459 -0.13632295 0.046973664 -0.040359925
2440 0.25999847 -0.04735632 -0.23589142 0.25665727 -0.12733309 -0.32679924 0.20329283 -0.13242829 -0.32701364 0.24424171 0.64943904 -0.20524919 0.02063506 -0.3109257 0.2995687 0.3706506 -0.23406728 0.15987523 -0.33490828 0.3091311 -0.14806953 -0.10514123 -0.26083475 -0.4371108 -0.30163354 0.45530796 -0.32027057 0.31401318 0.004940477 0.19764292 0.16142581 0.12239916 0.20019193 0.3681157 -0.3310186 -0.4837902 -0.071170285 0.15039547 0.43341413 0.32872885 -0.1403197 0.2872558 -0.2980271 -0.08962228 -0.23693073 0.19535057 0.39213383 -0.3787594 -0.44091058 -0.3517616 0.08449251 -0.578881 0.054529544 -0.43204054 -0.03150031 0.110821664 0.26191816 -0.3839757 -0.58713275 0.27059802 0.012209641 0.29853618 0.023507917 -0.024296958 0.21884915 0.10627722 0.08519494 0.1379529 -0.5190414 -0.115059316 0.35754135 -0.1338926 0.33355743 -0.06146653 0.3339977 0.13937242 0.074708536 0.44246277 -0.29850906 0.26218814 0.10966531 0.16304675 0.090999894 -0.0679422 -0.058474924 -0.09485449 0.07282993 0.16596346 0.046137523 0.17939632 -0.093041286 0.39163813 -0.15292077 0.26976597 -0.18556003 -0.10615866 0.30379635 -0.3106427 -0.46060476 0.029138068 -0.023134379 -0.3974802 0.15200655 -0.34873068 -0.16019264 0.19995427 -0.16707428 -0.08672923 -0.20395526 -0.428639 -0.31464037 -0.19156581 0.2918382 -0.2842302 -0.14824562 0.42527446 -0.036203954 0.0195321 0.2193979 0.0033326517 -0.16722935 0.16018291 -0.0503392 0.22905509 0.010446023 -0.091678575 0.09274639 -0.028360708
4584 -0.092602886 -0.057802543 0.09913575 -0.24963082 -0.10957332 0.24441947 -0.0735603 0.043954737 -0.22118478 0.08461539 -0.08733119 -0.14075749 -0.4282477 -0.38961682 0.051052243 -0.016855245 -0.0052457135 0.08751196 -0.12548281 0.14283758 0.16834985 0.046851166 -0.14893635 -0.06617227 -0.07678221 -0.010782594 0.13486394 -0.59504056 -0.33851102 0.4074739 0.37818438 -0.0014430281 -0.10065438 0.20973822 -0.12832424 -0.016889282 0.06353994 -0.19443433 -0.20619553 -0.12738226 0.027931497 0.02723908 -0.13697602 -0.012894813 -0.20666158 -0.15334176 -0.15811273 -0.14711894 0.05123624 -0.21614164 0.05157042 -0.057544712 0.17506067 -0.26071942 -0.018860443 0.3461311 -0.06487563 -0.15083654 0.172061 0.13648015 0.1427946 0.089115776 -0.41745728 -0.134893 -0.01072483 -0.2778252 0.06857033 0.2800352 0.032115504 0.13850726 -0.10692207 -0.33247808 -0.06932366 0.16445334 0.09354605 -0.06974604 0.18983947 0.25069156 -0.09201965 -0.009490788 -0.08596413 0.21809475 0.16323237 0.13510679 0.33949745 -0.07914691 -0.21927524 0.17744304 -0.2902338 -0.11259602 0.472135 -0.1630118 0.08963308 -0.10216473 0.038510066 0.3583035 0.14770187 0.09096038 -0.05745596 0.09592904 0.08326289 0.20224278 0.060819585 -0.1089305 -0.09170617 0.414474 0.01897723 0.18053015 -0.22974138 -0.52349657 0.2679091 0.025590427 0.0070653986 0.059769392 0.42934272 0.28884488 -0.334865 0.12178467 -0.055261802 0.3745052 -0.060548592 0.0050966525 0.12499971 0.16610648 0.10680282 -0.28517497 -0.07069603 0.01792195
24966 -0.05693279 -0.05265767 -0.40276033 0.52739775 0.3479808 -0.025991505 -0.095967844 0.17917758 -0.0036877077 -0.22947057 0.56188554 0.3179854 -0.51007736 -0.11502228 -0.011532071 0.49299294 -0.37622216 0.038236156 0.20968166 -0.03391892 -0.21679713 0.46764702 -0.35420206 -0.28859624 0.12847504 0.010076928 0.16053306 -0.3725791 -0.06928764 0.018296206 -0.37421814 -0.2576611 -0.27359307 -0.692083 -0.42783925 -0.15919964 0.23880222 0.05005816 -0.081506796 0.25998846 -0.11250865 -0.31286404 -0.09619173 0.20548141 0.070469595 0.16106413 0.051567145 -0.1855542 0.1567018 -0.5365046 0.3210416 -0.051338736 0.18395814 -0.015125482 -0.34255075 -0.054970592 -0.30247402 0.09400773 0.52298796 -0.110538796 -0.1382388 -0.5664748 -0.31410325 0.08858229 0.084472485 0.03700601 -0.20968227 -0.18625626 -0.1988151 -0.14003971 -0.002415926 0.22287081 -0.12613589 0.1151347 0.27181923 0.36494905 0.083109826 0.020989763 -0.46196154 0.123358846 0.2234519 0.1395923 0.14222789 0.09247445 -0.08334897 -0.17924066 0.13552898 -0.2563122 0.29268315 -0.26376706 0.30600408 -0.28448313 0.1287616 -0.12682107 -0.07018623 -0.3483372 -0.14779729 0.1923347 -0.24335496 -0.264269 0.1911582 -0.23252548 0.1663286 -0.11928898 0.18247233 -0.23847136 0.010227729 0.5106627 0.38241386 0.08634093 -0.25826788 -0.19417399 -0.05929942 -0.1287835 0.59919685 0.4071788 0.015760705 -0.31224233 -0.035977826 -0.09614333 0.22304665 -0.2962396 -0.1040595 0.31031132 0.24613923 -0.14274816 -0.2110304 -0.049448993
6214 -0.021265948 -0.13412495 0.21770379 -0.1964107 0.0812401 -0.023372745 -0.009407482 -0.14916396 0.120523 0.08955212 0.023412075 -0.03400144 -0.08409651 -0.3653705 0.22134408 -0.09565805 -0.14300406 0.21203797 -0.011815224 0.118907064 0.24877971 0.2242098 -0.057408854 0.034257397 0.040811334 0.025667677 0.15387358 -0.12561432 -0.090598874 0.27730617 0.10476651 -0.08703129 -0.16587095 0.11313506 0.0758298 0.106710576 0.06362035 -0.05562547 0.13849232 0.06715894 -0.19856372 -0.20919922 -0.21805668 0.24467413 -0.30383655 -0.21837488 0.10756669 -0.08948652 0.077664606 -0.20568536 0.20336372 -0.21214543 0.3251859 -0.18148667 -0.14662355 0.008902738 -0.076404825 -0.5172587 0.25229877 0.018475056 -0.15745157 0.088121615 -0.41405287 -0.21429528 0.00762385 0.01983501 0.18613574 0.5158605 -0.08891341 0.15164846 -0.23055616 -0.39843407 -0.07541459 0.5983356 -0.049710725 0.25790164 0.011785021 0.18968065 -0.051982746 0.26723677 0.059705973 -0.09427395 0.15032417 -0.083773 0.4199379 0.083923414 -0.33364975 0.2556948 -0.4122398 0.17427501 0.48583883 0.0077991895 0.1071303 -0.2584016 0.09030008 0.3570497 0.06778266 0.1793516 0.016260097 -0.26957062 0.09163008 0.10149495 0.00838445 0.15866521 0.16392462 0.37041977 -0.21201149 -0.00097254117 -0.26492694 -0.1812668 0.29184866 0.15791366 -0.21060246 -0.06681013 0.32188192 -0.07852837 -0.2179004 -0.047296483 0.13462318 0.058069225 -0.011871638 0.2207167 0.061903726 -0.049904488 0.06817205 -0.031937018 -0.06469222 0.1599386
887 0.111499876 0.008736882 0.021026472 -0.0715967 0.0020079515 0.16950373 -0.13927384 0.15091707 -0.01269227 -0.0881571 0.23736045 0.363003 0.036696997 -0.5361496 0.17919715 0.0050624018 -0.035321105 0.044798773 0.28279802 0.067035064 -0.16269454 0.0415624 -0.23076507 -0.22267824 -0.079079114 0.283717 0.16808477 -0.0054532164 -0.43283615 0.05240401 0.34583542 -0.16520497 -0.07706071 0.0814827 0.31951684 -0.034733612 0.057812016 0.15933168 -0.00032854942 0.18926755 0.1576153 -0.4496987 0.0336791 0.06024101 -0.15885329 -0.006905283 -0.6301086 0.21849933 -0.12727398 -0.53145033 -0.056344006 0.05595317 -0.07179062 0.072254576 0.3275852 0.33039913 0.2418172 -0.04478263 -0.13213846 -0.096714705 0.053678535 0.06138694 -0.18441829 0.049423344 -0.25979552 -0.10222175 -0.08335281 0.008862386 0.023836289 0.05580705 -0.15829292 -0.40772682 -0.3104529 0.14719248 0.047709927 0.5293874 6.1135506e-06 0.08854386 0.072202094 0.2144969 0.18432046 0.13600893 -0.10470307 0.11971203 0.3527229 -0.16625263 -0.13443968 -0.0627085 -0.11882376 -0.05416413 -0.07153809 0.12764111 0.45130298 0.17048816 -0.1900021 -0.08467398 0.47507852 -0.025116762 -0.27241972 -0.18205231 -0.036496237 0.12339271 0.12705554 0.100733906 -0.0913052 0.24671169 -0.24910314 -0.27072075 -0.06132396 -0.35511628 0.23830268 0.27013686 -0.100685365 -0.028876698 0.08141698 -0.1899499 -0.15190028 -0.16845645 0.1515971 -0.033628523 -0.027919617 0.11656051 -0.27697322 0.079999566 -0.25524792 0.23103929 -0.29100442 -0.19116735
2665 -0.8729681 -0.31393075 -0.20514515 -0.40739855 0.16943659 -0.62444913 -0.070559695 -0.34042817 -0.20784283 0.26175997 -0.28911734 0.051417585 -0.42984346 0.28770787 0.34324935 -0.00586968 0.1507481 0.15942566 -0.005880236 0.084356256 -0.119712785 0.1547578 -0.38918868 -0.10483774 -0.38658446 -0.22380611 -0.18504591 0.23933554 0.16752511 0.16174757 -0.18196638 0.40872532 -0.2737727 0.28680167 0.07137072 -0.046524808 0.5082887 0.9501911 -0.516343 -0.1402834 0.4181136 -0.20551813 -0.45099872 -0.09730098 -0.08919391 0.5419239 -0.11552038 0.07532786 -0.2844382 -0.39048222 0.010729006 -0.27499238 0.36710244 0.2398327 -0.1251715 0.14829716 0.3285029 0.12972155 0.04826245 -0.38798445 0.13599485 -0.16237815 0.024712661 0.40285078 -0.06898582 0.07932313 0.09591039 -0.10568291 -0.650041 0.43223217 -0.055953924 0.0926029 -0.3207736 0.48469746 0.40525743 0.10500282 -0.20732817 0.017062876 -0.22764584 -0.187366 0.3971931 -0.04338315 0.26981932 0.5254079 0.47365803 -0.50546104 -0.11910673 0.0061516366 -0.0011289802 0.5310564 0.3372958 -0.67109555 0.45782557 -0.10954315 -0.1282436 0.03857119 -0.0846498 0.05447048 0.16206764 0.6769311 -0.7446824 -0.5609052 0.20848686 0.04567905 0.3012093 0.39165872 -0.0800228 -0.3556437 0.5435284 -0.123039454 -0.24250214 -0.06219105 -0.10920947 0.04553914 0.61546695 0.21314299 -0.3439797 -0.38033423 0.5067678 0.1987316 0.7136823 0.16480158 0.024092054 -0.13726307 0.071030125 -0.5873806 -0.3367046 0.0885514
20193 0.0737597 -0.16859086 0.29277936 0.029913904 0.23985837 -0.46620345 0.49427843 -0.5886401 -0.07566188 -0.13473031 -0.35952756 -0.25876108 -0.4973438 -0.58962107 0.6849909 0.39568165 -0.44304127 0.43124586 -0.3580018 -0.5568903 0.07723783 -0.23415262 -0.11099299 -0.73053586 -0.7270992 0.546425 -0.58001465 -0.46268022 0.14481434 -0.20533489 0.19134218 -0.033122007 -0.22324184 -0.18961757 0.1525766 -0.23667398 0.38554394 0.23875989 0.123134226 0.5537536 0.15983498 0.1762548 0.015279091 -0.6151172 -0.3020728 -0.07898356 -0.20351657 -0.040615436 -0.24818753 -0.09305372 0.30789635 0.29239148 0.2023393 0.28374618 0.21754587 -0.041923627 -0.4207124 0.091713905 -0.17427933 0.9427861 0.22988252 -0.12405975 0.19313507 -0.059596635 -0.025935078 -0.14964832 0.12519896 0.19793864 0.029546011 0.1291931 0.28793928 0.023727529 -0.18662621 -0.17590484 0.4606945 0.14740716 0.43871337 0.1914132 -0.22600043 0.46372744 -0.02741764 0.192946 -0.0982714 1.0035548 0.40462762 -0.5592669 0.15639801 0.25105584 0.54991156 0.37775764 0.47317407 -0.13416822 -0.28837037 0.24913482 -0.40416938 0.59064317 0.15878168 0.4205886 -0.28257596 -0.30137053 0.4501849 -0.30154395 0.25694686 0.72889537 -0.08424003 -0.045301784 0.09544803 0.8401321 0.058142267 -0.4096901 -0.3527205 0.098329596 0.12109752 0.042710196 -0.1394023 -0.10677483 0.098956116 -0.22387607 0.14383765 -0.03190007 -0.3958324 0.4864182 0.018430883 -0.0047458317 -0.72347385 0.36922345 -0.23344447 -0.06688058
8224 -0.07043957 -0.04064155 -0.17958385 0.38401362 0.381156 -0.27157387 0.38808173 -0.1022863 0.07342712 -0.072693095 0.39815587 -0.72472364 -0.3284072 0.030184826 0.5142485 -0.0038946592 -0.21736957 0.3907919 0.030331306 -0.23234953 -0.36712763 -0.27505234 -0.33847472 -0.049505383 -0.5043977 0.24396561 -0.085063934 0.23641911 0.06875549 -0.0127969235 0.21353178 -0.15928905 0.18339211 0.13898022 -0.18264782 0.17919855 -0.8322454 -0.22410879 -0.04963428 0.2382685 -0.038010806 -0.25572962 -0.24319324 0.017916698 -0.3728259 0.41476995 -0.009580303 -0.2940544 -0.17108247 -0.31644797 0.073630795 -0.009314541 0.047790777 0.1320095 0.0029971357 -0.09245907 0.08870628 -0.036661807 -0.1294645 -0.038439363 0.16240332 0.3134171 -0.18078475 0.26494858 0.03639517 0.34236127 0.32437712 -0.26808876 -0.21151145 -0.07033148 0.023477033 -0.30404863 -0.122518644 -0.047104917 -0.18204093 0.26003602 -0.08251855 0.28025812 -0.23856685 0.31524372 -0.07662248 0.44459906 0.41620216 -0.18808317 0.20352554 0.27010068 0.13775535 0.13257696 -0.046403095 0.35003468 0.19354923 -0.13286395 -0.063652635 -0.035511635 -0.11279772 -0.07767055 -0.3310989 0.16090423 -0.006163495 0.18218586 0.46623963 0.2219012 0.035028372 -0.16304666 -0.14344409 0.013345054 -0.13373971 0.037678864 -0.1665791 -0.29472253 -0.35581484 -0.027417136 0.080855235 -0.2223748 -0.13171849 0.36846825 0.06464348 -0.29642585 0.27555683 -0.1679212 -0.26000613 0.0016209902 -0.20828688 0.046842836 -0.077858776 -0.17819713 0.20112397 -0.18809345
12182 0.0035585691 0.0047766482 -0.23379526 0.023580195 0.05881146 0.11890601 0.40590432 0.09258846 -0.17008974 0.04173654 0.3436371 -0.324207 -0.60000294 -0.071490936 -0.009296094 0.078569025 0.15398519 0.5594574 0.060079448 0.3122795 -0.32327783 0.047679093 -0.05097643 0.4625955 0.34360448 0.26974803 -0.3459804 0.64906937 0.5651999 -0.31572813 -0.32117632 -0.0728437 0.6685197 -0.20364715 -0.11144189 -0.29803127 0.23802464 0.02225082 -0.28446904 0.15367408 0.23448396 0.22619171 -0.3302903 -0.00841726 -0.19286315 -0.025290426 0.066898 -0.027576191 -0.052595746 -0.27742258 0.1141703 0.05357506 -0.13909553 0.37998354 0.24675812 -0.7758327 -0.39792666 -0.5081809 0.36951962 -0.016161304 0.36737412 -0.16386604 -0.020222468 -0.09393074 -0.3470989 0.38314912 -0.32298487 -0.4267474 -0.33817196 0.13489018 0.145099 -0.2731419 -0.11106192 0.18741429 -0.12660185 0.676889 -0.3587471 0.45051 0.046593957 0.48967177 -0.68865615 -0.23694043 -0.1528121 0.15419713 -0.10841422 -0.38891035 0.629669 0.19569358 -0.23838925 -0.7228306 0.50216764 -0.19156101 0.1667717 -0.2206073 -0.30990967 0.36343637 -0.10578035 -0.03304095 -0.33263174 -0.28193402 0.31438124 0.08716025 0.042135544 -0.25862217 0.007506232 0.20817848 -0.04834793 -0.43025514 0.12515248 -0.19348258 -0.27924177 -0.06106428 0.57727593 -0.3009027 0.2029882 0.11871208 -0.0409456 0.26628152 0.46233743 -0.37390077 0.1894473 0.18851964 0.0863777 -0.20503652 0.17012404 0.034604196 -0.15729582 0.4305481
82920 0.0811471 -0.030027796 -0.48031303 0.03872627 0.25760838 -0.0492352 -0.17206664 0.005945195 -0.37811223 -0.031820845 -0.24252541 0.00788326 0.17321014 0.07022027 -0.07563124 0.03571857 -0.38983098 0.39045736 -0.16845486 -0.22000654 -0.0384658 0.20565772 -0.081781134 -0.38141778 -0.29724693 0.32437277 0.11796334 0.21993695 0.060507484 0.51503086 0.15731503 0.021944033 0.31059813 0.08142536 -0.08129016 0.22367124 -0.53735554 0.4879449 -0.18843584 0.09278271 -0.06823443 0.2975753 -0.38377237 0.15213759 0.37663832 -0.14385699 0.13545156 0.10467168 0.39660066 -0.40989992 0.4922234 -0.12326978 -0.17830898 0.18297093 0.5738492 -0.20986661 -0.014199035 0.22223394 -0.13729984 0.028340582 -0.0063791107 0.2379776 -0.06760194 0.24703611 0.0895283 -0.05692572 -0.14787479 0.46985465 0.061493136 -0.031342916 0.29081845 -0.16581178 -0.22383791 0.005078624 0.3720849 0.45031157 -0.6198474 -0.28246367 -0.09472059 -0.07391827 0.055475537 0.6413819 0.18724063 0.06811622 0.3598818 -0.016501306 0.1801332 -0.56582385 -0.2704651 -0.029467715 0.20271464 -0.25154588 0.18939081 -0.27363402 -0.52409834 0.015587054 0.4753818 -0.049116705 -0.15175606 -0.0512259 0.13169204 -0.1265282 -0.05137718 0.19826595 -0.025749471 0.25706062 0.011760408 -0.03687425 -0.11188763 -0.18334791 0.5319063 0.4367521 -0.11650362 0.32097498 0.08329293 0.33579883 -0.116430044 0.38488707 -0.17240447 -0.4349387 -0.08779928 0.29034954 -0.3736609 -0.15425505 0.09362784 0.31032118 -0.12538536 -0.4294597
10169 -0.056268614 -0.1932127 -0.60003865 -0.258027 -0.23968919 -0.3301189 0.02756684 0.14216281 -0.37132016 -0.46533298 -0.109950334 -0.29283544 -0.0810777 -0.14978182 0.25209045 0.21195294 0.08265222 -0.08766481 0.115214385 0.07918604 -0.0144816 -0.23537643 -0.19125558 -0.18305928 -0.16384625 0.104763694 -0.11776975 -0.10148527 -0.004511624 0.2810195 0.21277629 -0.14876798 0.3756024 -0.10037301 -0.1374322 -0.118541345 -0.4148973 -0.29234686 -0.028733129 0.3014267 0.1625343 0.24803144 0.1330801 0.059433844 -0.15519588 0.2941813 -0.14433068 0.14660986 0.050230347 0.048812654 -0.03364716 0.03533188 -0.7359988 0.37356183 -0.40406424 -0.1482533 0.01768506 -0.017567964 0.061528493 0.20336802 -0.31155938 0.08595282 0.26189297 0.13260752 -0.015765894 0.081370614 0.14089118 0.074905664 -0.21715595 0.19088833 0.13988283 -0.29645017 -0.20414865 0.013827296 -0.008496952 0.1514067 0.59624094 0.119901 -0.5560577 -0.614503 -0.12705302 -0.12125015 0.20191416 0.15686354 0.31334755 0.28447533 0.4510469 0.13281521 -0.32023826 0.1517843 0.22409785 0.43348727 0.1346966 -0.11444685 0.027528653 -0.010709326 -0.04597921 -0.062353346 0.15279445 -0.36334118 0.29284835 -0.34048742 0.010823142 0.0070818076 0.12721285 -0.13914144 -0.26710346 -0.16162926 0.041442797 -0.27212542 -0.2560271 0.11376481 0.34387922 -0.1723482 0.33036515 0.38951367 -0.029516034 -0.21354964 0.2618419 -0.34411848 0.011397321 0.16242844 0.09703579 0.32347336 0.15857282 0.2605815 -0.29824674 -0.13787287
12350 0.09357462 0.29115707 0.022299305 -0.14378127 0.2570419 -0.0027257663 0.20409036 -0.17750981 -0.38931137 -0.22351107 0.34944743 -0.40005207 -0.22745746 -0.110476084 -0.2899227 -0.043074515 0.013243208 0.26670468 0.023789989 0.348001 0.02100781 -0.10138606 -0.08723745 0.40024352 -0.09834237 0.03405332 -0.058894236 0.35530064 0.09175604 0.28975037 -0.44721943 -0.12941124 0.12796858 -0.1040937 -0.36575255 -0.32091844 -0.27981845 0.15689047 0.20808406 0.06896684 -0.08933798 0.48773634 0.22586319 0.11554556 0.3545896 -0.47764108 -0.04561968 -0.30178517 0.043879338 -0.19224963 0.10433686 -0.37497294 -0.19372287 0.475025 0.06295361 -0.6285823 -0.38603792 -0.13407382 0.2153529 -0.13939275 -0.19784102 0.034777083 -0.1235559 -0.010485589 -0.018306984 -0.1251127 0.085083134 -0.29729202 -0.09407351 -0.052197076 -0.17228389 -0.27948937 -0.35630482 -0.033866487 0.45748684 0.55402005 0.008617096 0.09198115 -0.2909001 0.099677004 -0.02877344 -0.12914507 -0.11164156 0.13865155 -0.05996249 -0.46630654 0.06883814 -0.17015348 -0.08025416 -0.082977064 0.39061493 0.093675196 0.10474258 -0.36075574 -0.26334378 0.47835416 0.35306737 -0.099663615 -0.1631431 0.16383235 0.34437287 0.05233455 0.3239295 -0.06591446 0.33138323 -0.03337541 -0.30107373 0.07269219 -0.16841601 -0.25879484 -0.33306438 0.41088188 0.15474297 -0.06279671 -0.33397308 0.021688567 -0.33491683 0.0398707 0.7187387 -0.11416478 0.041594803 0.57833 0.23575357 -0.18448947 -0.121849015 -0.018382596 -0.109462775 -0.45001155
22563 -0.042632066 -0.09545023 -0.2673849 0.310964 0.47877458 0.08417355 0.1348401 -0.05846389 0.0013525389 -0.38511872 0.16023548 -0.0684762 -0.13194093 0.31754863 0.2846491 -0.17990933 -0.19634853 0.11012307 -0.2456338 0.1800895 0.079880565 -0.055354297 -0.33544305 0.22082803 -0.66697055 0.4452456 0.51297176 0.1804675 0.17672221 -0.125236 0.04587671 0.2989599 0.16988371 0.04357964 -0.2431702 -0.1641155 -0.16251187 -0.18010801 -0.08626925 0.21625376 0.25456855 -0.05037847 0.07250819 -0.25862184 -0.2572957 -0.06537059 -0.037674557 0.111756936 -0.19122927 0.14079154 -0.07344571 -0.12948571 0.33033994 0.012360766 0.15718013 0.036780067 0.36384538 0.08473464 0.10868819 0.37919417 0.005823505 0.0532924 -0.3867587 0.28964797 0.022153396 0.0353606 -0.07688062 -0.10853796 -0.15988532 -0.21155854 0.43901512 -0.2698377 0.09536131 0.124581054 0.53282315 0.34274057 0.22485517 0.07678252 -0.23705858 -0.008381212 -0.15621336 0.34331888 0.22861826 0.19588578 0.35459277 0.103279784 0.27875412 -0.007235026 0.27968138 0.15492244 0.33407384 -0.39409593 0.39461055 -0.023710461 0.06127689 0.26397896 -0.022971828 -0.16315308 0.21645378 -0.1691477 0.13097487 0.65641 0.08978215 -0.23815419 -0.11699444 0.34348315 -0.19351879 0.10680887 -0.2371068 0.16222975 -0.14413838 -0.39597306 -0.16878267 0.029007139 -0.25208214 -0.06401963 0.13630837 -0.5453476 0.3855698 -0.3015609 -0.16919212 0.16031647 0.20917676 -0.08704927 -0.040200956 -0.21998061 0.08211039 0.218123
12576 -0.08051543 -0.11059986 0.48054782 -0.17197658 -0.23053716 -0.32499075 -0.14647625 -0.37974045 0.17914031 0.019970506 -0.2901054 0.11909812 0.20637135 -0.0058040754 0.1542693 -0.1749547 -0.36722758 -0.27907333 0.11401754 0.034670997 0.40440863 -0.06026578 -0.32112944 -0.4756745 -0.21699902 0.3609038 -0.16731378 -0.3064102 -0.27927485 0.44792917 0.108231805 -0.3196055 0.08559298 -0.106052764 -0.14239746 0.35781237 0.24957347 -0.18672119 -0.15529 0.14659965 -0.0053796945 -0.05728111 -0.11362669 0.40230876 -0.2322618 0.08691063 -0.2387863 0.2377045 -0.24921817 0.32086107 0.14564858 0.12495561 0.11322409 0.21828799 0.16226444 0.22846825 0.10736147 0.17212656 -0.23433405 0.21058515 0.24215403 0.10421462 -0.1563469 0.22474906 -0.029207336 0.09862289 -0.12897247 0.0118447365 -0.04720587 0.23200798 0.24624495 -0.74689513 -0.53784776 0.10160439 0.2257588 0.15098605 -0.3870854 0.012024563 -0.32268965 0.07553135 0.05109444 -0.026504617 -0.16743928 0.29763603 0.07531509 -0.073086925 0.17813697 -0.3879357 -0.28602093 -0.7419073 -0.023933358 0.56274736 0.24962991 0.18845263 -0.52999943 -0.1348945 0.31951302 0.10007434 -0.5081881 -0.21347499 0.013832539 -0.10344685 0.4043576 0.009822457 -0.12188806 0.39480546 -0.1891376 -0.532295 0.080346495 -0.15813 0.17480063 0.17014621 -0.15244147 -0.091643214 0.3617029 0.30988124 -0.27060214 -0.07585198 0.45359674 -0.34024462 -0.549382 0.062234435 0.10689995 -0.2141852 -0.1786195 -0.25502324 -0.18135394 -0.20224044
31353 -0.56638676 0.3726819 -0.1408574 0.018925926 0.419824 -0.20445158 -0.09462685 0.66298115 -0.43925655 -0.17332006 -0.2967964 -0.08651667 -0.6540918 0.42280295 -0.0635939 -0.15882714 0.13520835 0.1402681 -0.21363746 0.42375273 -0.1268192 0.1363413 -0.4560567 -0.28956667 -0.24845032 0.1150714 0.0737767 0.2032716 -0.06275203 0.16353454 0.2532179 0.18561189 -0.1827071 -0.36933675 -0.41610205 -0.26236588 0.03442362 -0.04099067 0.64733624 0.14409664 -0.19808757 0.31144077 0.2977265 0.48638162 0.36188745 -0.3342845 -0.06862997 0.10694688 0.248196 -0.96917397 0.82814276 0.16543272 0.5158404 0.34576067 -0.05156699 0.5921485 0.05878368 -0.038411565 0.31090456 0.19199078 0.01162907 -0.26096934 -0.5042384 0.13171835 0.034544535 -0.13083988 0.61093116 -0.34895444 -0.29669237 0.16525048 0.3104452 0.1632457 -0.34541014 -0.5333324 0.010305109 0.028499283 0.09920477 0.4512996 -0.25710496 0.18699528 -0.6196663 -0.04189763 0.33347684 0.18115069 -0.55796844 0.047275245 0.17725936 0.70096046 0.40927935 -0.241277 -0.13892448 0.11544111 0.563249 -0.8090495 -0.12634042 0.05622887 -0.045577977 0.2615407 -0.49604812 0.03766094 0.4147789 -0.32525036 -0.38541844 -0.109090835 0.16679743 -0.53792167 -0.41817576 -0.5105036 0.33665553 -0.75446886 -0.09388822 0.5182764 -0.38918054 -0.08293265 0.29042736 0.31472713 0.068848014 -0.31003234 -0.033092324 -0.19649997 0.4162369 0.19836341 -0.074901834 -0.34642985 0.19625112 -0.01760041 -0.14869158 0.18803652
15429 -0.07981424 0.06756955 -0.070286304 0.20829497 0.21245424 -0.22604527 -0.0014827118 -0.5014158 -0.62379456 -0.19461387 -0.052967824 -0.41294977 -0.09314992 -0.014968172 -0.21087487 0.6172561 0.02335916 0.1786802 0.34691352 0.08648456 -0.16911177 0.16035058 -0.38837996 0.12174853 -0.26763383 -0.04234516 -0.61823666 0.16392219 0.13279608 0.38276926 -0.12144005 -0.3415516 0.4381496 0.08980699 -0.8383629 -0.44892934 0.010308778 -0.28924245 0.25526512 0.045174763 0.39338535 0.22517864 0.2858656 0.08333058 -0.107871495 -0.14527506 -0.24914949 0.46245915 -0.22114126 0.052216828 0.5464112 -0.5298037 -0.34528047 0.5325899 -0.34962618 -0.42712286 -0.24850494 -0.22392721 0.46785074 0.36909202 -0.7275258 -0.14240913 0.18934524 -0.36199284 -0.058039468 0.06577196 -0.07904319 -0.3402612 -0.11016454 0.107845195 0.13403116 -0.20849715 -0.4871888 0.426713 0.011117739 0.33849582 0.19159295 0.12023877 -0.06525133 -0.20584413 -0.3554729 -0.0023561073 0.17250393 0.0692401 -0.14270146 -0.040980536 0.10791457 -0.34875572 0.23721623 -0.21669996 0.114827015 0.14262506 0.13376024 0.01686414 0.17347269 0.25148436 0.2696708 0.011430912 -0.15947495 0.022435853 0.5729423 0.2936508 0.43199095 0.018182332 0.20296745 0.13604337 -0.44561663 -0.084216885 0.19448565 -0.06628665 -0.12683596 0.13581875 -0.08182908 0.011112328 0.2767705 0.18292946 0.11556758 -0.08443065 0.2422895 -0.16832681 -0.15238047 0.43191636 0.12654722 -0.06727038 0.43558982 0.120206796 -0.46739197 -0.43465316
8703 -0.315655 -0.039489634 0.060121488 0.20864503 0.26647887 -0.32777572 -0.2153332 -0.3943449 0.17114033 0.30778658 0.29428935 -0.18755962 -0.19308913 -0.31194198 0.013399821 -0.2452535 0.50301665 0.2928499 0.22256805 0.21872275 0.12884368 -0.0019592347 -0.43654877 0.06001849 0.052633163 -0.2404981 0.20307374 -0.1616377 -0.021935878 0.10311759 0.39317045 0.16207843 0.15941451 -0.07186455 -0.068553895 -0.4629554 -0.0818895 -0.5328167 -0.36952165 0.28551835 0.26001376 -0.18674289 -0.038077116 -0.6275681 -0.5405171 0.00022565553 0.2249914 0.10412105 -0.3014874 -0.24051943 -0.11690506 0.05079624 0.07556399 -0.072014466 -0.004343634 -0.19252259 0.12139485 0.41263506 0.011983861 0.7113613 -0.023914596 0.15285408 -0.32926157 0.22062658 0.35156748 -0.22499321 -0.09404239 0.09683889 -0.2638408 0.15004893 0.17348343 0.07258282 0.15680452 0.07780279 0.24659076 0.4462266 -0.18681273 0.4498347 -0.49288353 0.2568508 0.13544653 0.5185133 0.13584921 -0.2626493 -0.028413108 -0.27418774 -0.036519572 -0.22233908 0.119515695 0.25771722 0.886942 0.3635828 -0.2828416 -0.17937844 0.11640523 -0.20178583 -0.11583064 -0.1512643 0.084725164 -0.3679898 -0.064712465 -0.08341988 0.23682553 0.5078809 -0.3887099 -0.106939696 -0.90681326 0.18148673 -0.00031231865 -0.3430788 -0.019262645 0.023909051 -0.062257312 0.10654209 -0.4121244 -0.19215874 -0.51970893 -0.03815822 0.6009321 -0.3544106 -0.027380962 0.4552184 0.02289117 0.011015172 0.08943506 -0.084372 0.10446891 -0.15585665
39890 -0.30710894 0.066724464 -0.1276203 -0.3247937 0.12581217 -0.2680769 0.14189696 -0.05431689 -0.41337618 -0.11777315 0.0773851 -0.12425739 -0.35490236 0.86958027 0.040581733 0.25744385 0.12608713 0.010649811 0.21635224 -0.20584038 0.14674817 0.6048022 -0.5023438 -0.2686689 -0.13349532 0.3368441 0.0905759 0.3315481 -0.09862833 0.30704865 -0.16807084 0.16478884 0.5549259 0.46450454 -0.36364034 0.39272106 -0.11305621 0.083237596 -0.22852017 0.59590036 0.16912149 0.6469577 -0.3796896 -0.62339634 -0.5183845 -0.17920972 0.36327225 -0.2013499 -0.15617627 -0.032882918 0.37051782 -0.38270447 0.22836892 0.09711026 0.48821345 0.5201181 -0.26862842 -0.20858085 0.13657822 0.37196225 -0.5872054 -0.20884214 -0.3713443 -0.09496791 -0.2509674 0.066058405 0.15421528 0.3015041 -0.03575504 -0.51614666 -0.15968142 -0.44479778 0.0073526213 -0.07257531 0.18232836 0.41771653 -0.16308112 0.36006516 -0.4689202 -0.03874059 0.23013675 -0.12703401 -0.30478832 -0.40683284 0.12558272 -0.23213737 -0.5653392 0.3084804 -0.65256906 -0.42829093 0.41391015 -0.028657187 0.101129614 0.24672858 0.4268162 -0.12813824 -0.14942798 0.37816814 -0.096449666 -0.1891932 -0.14945146 0.12279377 0.073420346 0.06619001 0.378895 0.14094436 0.3006136 0.3955692 0.07938486 -0.48404422 -0.24296615 0.35974225 -0.028929768 -0.40214154 0.10707058 0.1821657 0.27190283 -0.4434391 0.17766467 -0.21395805 0.3549551 -0.23334707 0.31153378 0.22034644 -0.64519686 0.5600867 -0.19241859 0.21375765
2653 -0.060497906 -0.05749697 -0.39355615 -0.44206083 0.23200409 0.5669728 0.0110604 -0.024279092 -0.023169369 -0.23336288 0.25187185 0.19980016 -0.46510956 0.11494456 0.1709902 0.40099064 0.0801161 0.44999248 0.0048384727 0.26746812 0.30098432 -0.11479798 -0.27999535 0.2637421 -0.09718395 0.23794079 -0.031177549 0.49796385 0.23428406 -0.14090456 0.39685866 0.102336876 0.33938688 0.024176171 -0.59499764 -0.15799837 -0.06258917 0.19374138 -0.14001581 -0.16598381 -0.00025447825 -0.018776644 0.029615823 -0.3534303 -0.26246357 0.5383593 0.106365845 0.17770083 0.16311252 -0.10237692 -0.2680819 -0.18791604 0.09196729 0.44349498 -0.10510366 -0.24754852 -0.46417615 -0.23657122 0.090841845 -0.036792025 0.15627705 -0.051236324 0.3792074 0.6425833 -0.19504626 0.47209993 -0.10392947 -0.4586939 -0.2968969 -0.23946433 -0.0019314592 -0.21505599 0.17783168 0.16776156 -0.2379359 0.29566708 -0.15312774 0.14474796 -0.30900216 0.18160915 -0.51280195 -0.20514677 -0.3480505 0.022293717 0.02746348 0.04885314 0.8124663 0.10680695 -0.30174604 -0.12607794 0.3802603 -0.08022211 0.06734627 -0.19621582 -0.076348774 0.579538 0.38724163 -0.08811917 -0.5305444 -0.30018327 0.26334697 -0.041558977 -0.4532285 -0.5954009 -0.0008952918 0.3057545 0.035177153 -0.029299486 0.33534655 -0.33589855 -0.012547044 -0.08194055 0.17886469 -0.08657263 -0.021377308 0.14442797 0.22202739 0.39414018 0.51418 -0.05139035 -0.010491583 0.30476913 -0.30523863 -0.12440478 0.070141256 -0.21150722 0.24297614 0.010650585
643221 -0.07099099 -0.15454738 -0.43639037 -0.312609 0.36257604 -0.74761224 -0.4527175 0.5880121 0.31360784 -0.28310758 0.30525613 -0.24621817 -0.11935666 0.25262916 -0.31468374 -0.6188946 -0.51343846 1.0787742 0.43369004 0.32344982 0.3223631 0.20563154 0.14066076 -0.9368715 -0.05145323 -0.27722606 -0.5580209 -0.3036838 -0.023389533 -0.036767606 -0.35414493 0.28956082 0.14793958 -0.118204474 -0.68305904 -0.07688432 0.545644 0.079835914 0.26517242 -0.4246337 1.116644 0.04579239 -0.11141527 -0.7537033 -0.31556165 -0.22454825 0.034332924 -0.1842906 0.37747958 -0.86208844 -0.17995173 0.28465706 0.23652543 -0.029371569 -0.1293617 0.041394122 -0.10908906 0.26877362 0.15265746 0.19169949 0.03685708 -0.9267345 -0.080065876 -0.09700376 -0.83909404 -0.06766286 -0.40809107 -0.16790763 0.34280244 0.6506363 -0.32033476 -0.5100294 0.12985598 -0.23649864 -0.19231819 0.32492396 -0.6871867 -0.13500574 -0.6007097 0.80531394 -0.43649054 -0.20320642 -0.68780804 0.5709825 0.4718441 0.0023186563 -0.02327645 -0.71576643 0.31165197 0.301551 0.3802735 0.32984826 -0.70144624 -0.39152342 0.93928707 -0.055953275 -0.06994743 -0.46627748 0.26612136 -0.42110696 -0.2542872 0.41022974 -0.12050765 -0.114795364 0.12770976 0.73435307 0.08517198 -0.60714924 0.050321948 -0.71074843 -0.39934665 0.14867789 -0.2825725 -0.47664744 0.6699249 0.5327967 -0.40264422 -0.2554845 -0.53008384 -0.63193905 -0.13263632 0.8378514 0.24329072 0.264305 -0.7304778 -0.57243437 -0.3326338 0.23480733
3220 -0.21039356 -0.09446835 -0.022449391 0.31907824 0.07958951 -0.4145422 -0.089422844 0.59962827 0.2963604 -0.3135346 0.04703263 0.123236984 0.23194712 0.19573945 0.05982688 -0.24076647 -0.34041378 0.31264186 -0.3815007 -0.088350095 0.15521924 -0.23124991 -0.45789328 -0.29343927 -0.562064 0.23725213 -0.17003997 0.42616665 0.06097527 -0.2097496 0.14744063 0.22609383 0.3158197 -0.33863476 -0.44893685 -0.2086832 -0.29413524 -0.49772882 0.053975273 0.7199406 0.043957964 0.11942137 -0.036224272 -0.43192157 -0.23240463 0.2021463 -0.26276195 0.3475584 0.07781433 -0.42943722 0.15824685 -0.056185577 0.32389838 0.14813197 -0.24116363 0.27031845 0.18911421 0.13698743 0.23138355 0.41515335 0.0630354 0.28812727 0.17380564 -0.15085964 0.20423649 -0.2511632 -0.004895566 -0.004862761 -0.1441803 -0.20065051 0.042822007 0.08813391 -0.15387984 0.0038617356 0.3347801 0.6920703 0.34050435 0.204996 -0.11260279 -0.06785157 -0.22743994 0.28025532 -0.00986089 0.24430978 0.09600971 0.3460081 0.13304998 0.091308385 -0.10621276 0.33163595 0.122722305 0.06704798 0.77532035 -0.13624996 0.22002602 0.37845147 -0.2817421 0.1543056 -0.454104 -0.1399186 -0.019116 0.44261733 -0.38676435 -0.44898722 0.010780453 0.015860789 -0.5137338 0.417365 -0.30135244 0.46915793 -0.26717442 -0.011856998 0.3206068 -0.38398612 -0.039068293 0.09961895 -0.3174309 0.046352427 0.5558777 -0.3414513 0.44664603 0.30658096 0.59474164 -0.124735296 -0.038109623 -0.72445256 -0.06936664 0.07357363
3191 0.0336705 -0.541541 -0.14884384 -0.17149502 -0.13311984 -0.033414014 0.0674703 0.021840291 -0.4284865 0.023954788 0.84301394 0.39659733 -0.4347663 0.69984746 -0.3806799 0.4966082 -0.08143314 0.17596635 0.26222262 -0.1331294 0.119913734 0.02275741 -0.42483622 -0.3570026 -0.14968325 0.041219164 -0.29752302 -0.061306678 0.29519734 0.35897717 -0.046675853 -0.045354158 0.24891897 0.2693765 -0.004317326 0.15817413 -0.20804273 -0.35569528 -0.38999304 0.30668223 -0.47982156 0.39414456 0.026104296 -0.48779973 -0.10268723 -0.2837723 0.40962765 -0.22463802 0.0049901865 -0.15829654 0.57762307 -0.26736447 0.23073839 0.22148483 0.0102834515 0.47183257 -0.081127875 0.16505916 0.3988181 -0.051728312 -0.23591128 -0.7682437 0.32265854 0.09501948 -0.14551057 0.07828258 -0.17247266 0.111771986 -0.1782403 -0.38614103 -0.013648702 -0.4788234 0.1535095 0.03202568 0.026253078 0.3322455 -0.029595112 0.35246304 -0.4440359 0.17950466 0.3315302 0.04647209 0.03550514 0.078150265 0.12131885 0.102824494 -0.47058368 0.2299063 -0.17767395 -0.37939382 0.3403148 0.12164266 0.3937309 -0.031352863 0.13113858 -0.009692466 -0.27658984 -0.54047364 -0.35014603 0.31256068 -0.2773233 0.016323835 -0.0012833807 0.46156272 -0.14483002 -0.28289616 0.18130764 0.2117071 0.507568 -0.28013518 -0.5954549 0.27731726 -0.28707305 -0.055600706 -0.02612185 0.2464447 0.7014809 -0.54077244 0.06871777 0.061421115 0.39110532 -0.110613726 0.08856064 0.15685402 -0.31790918 -0.19326515 -0.18781823 0.2555678
1481 -0.009599133 -0.07316393 -0.092964515 -0.027996585 -0.19093001 -0.057168007 0.18503799 -0.50031024 0.2738313 0.05509675 0.14230964 -0.44476062 0.0661353 -0.5191139 0.11725188 0.042739727 -0.7513909 0.10114407 0.064459965 0.16233523 0.12880194 0.26905644 -0.56839854 0.25888342 -0.31108427 0.08402747 -0.058451638 -0.13723712 0.40639725 0.0054079657 0.113733776 -0.0014806264 0.38301328 0.339574 0.34035975 -0.22706999 0.23598467 -0.008517628 -0.013844751 0.24792182 -0.3474346 -0.102832526 -0.3985279 -0.23324125 -0.38961786 -0.28135946 0.0062524313 0.86905223 -0.01658061 -0.16080037 0.26647273 -0.027070962 0.17967978 0.03355852 -0.0051630945 0.63349724 -0.45165053 0.20525223 0.36925212 0.23572312 0.49106854 -0.09820948 0.06131747 0.09987626 -0.33953235 0.54520416 0.3858435 0.4018229 0.13062717 0.11320169 0.36432523 -0.13193612 -0.04278762 0.2974731 0.3130234 -0.04231508 0.12222923 0.0038496286 -0.47947556 0.2301344 -0.32632056 0.1909794 -0.3496843 0.014088401 -0.104999185 -0.22157754 -0.10749914 0.24423952 -0.14203116 0.43483552 0.12524478 0.8802667 0.082068406 0.06766339 0.04629426 -0.089927495 -0.1573041 0.07384988 -0.15261756 -0.17716251 -0.31446692 -0.020972226 0.4649928 -0.29037294 0.42917666 0.1955711 0.12597175 0.53842854 -0.48773697 -0.061191395 -0.060779 -0.08234299 -0.05872953 -0.124107465 0.24977338 0.4204927 0.15265675 0.20336454 0.09075364 0.2269023 0.43405706 0.3957542 0.09995028 0.36544093 0.053099636 -0.026244907 -0.23989214 -0.3243769
4804 0.07061345 0.1189224 -0.46214184 -0.14029409 0.33304736 -0.07824031 0.3015161 -0.28430626 -0.47836646 0.17471246 0.45729303 -0.2919341 0.024384892 0.06416548 -0.19914648 -0.057080194 0.42949352 0.48583025 0.22637224 -0.16984849 -0.13384102 -0.25924563 -0.05692478 0.22440197 -0.35298178 0.09817562 -0.4558099 0.30625927 0.31681988 0.2081569 -0.5741548 -0.17886655 0.4711282 -0.22443525 -0.6322525 -0.57819086 -0.2500902 -0.27504963 0.08997058 -0.13013388 0.2587785 0.28344968 -0.03454648 0.03830808 0.118034825 0.09746674 -0.1796634 0.072708376 -0.2266424 -0.16246036 0.18618883 0.0061228066 -0.19611062 0.08136201 -0.14823192 -0.0023088197 -0.20357953 -0.056886416 0.6940323 0.17078763 -0.50017524 -0.19428949 0.15075171 -0.09524981 -0.46158782 0.2510029 0.32355648 -0.02869353 0.12109863 0.36772597 0.05572952 -0.22121316 -0.15918662 0.26210567 0.028389696 0.62318677 0.14822155 0.4412965 0.14615709 0.027550211 -0.20358449 0.010566248 -0.34635422 0.32424533 -0.34444517 -0.1373429 0.064629644 0.1802012 0.122516066 -0.38973758 0.26455227 0.108329944 0.30905876 -0.33035058 -0.6514516 0.6381806 0.3592922 -0.09720237 -0.00013494739 0.23937786 0.39840898 0.14286175 0.48580256 0.18956967 0.24079062 0.36797723 -0.3624586 -0.22950628 -0.15102704 -0.26664218 -0.3366717 0.017486503 0.10766516 -0.0073989574 0.20601365 0.25106397 0.079028286 0.23321234 0.45298237 0.0633257 -0.18557765 0.42005518 0.3108967 -0.18892331 0.48773232 0.11649732 -0.32716164 -0.06566794
1688 -0.1120328 -0.5234226 -0.3470509 -0.3948403 0.42554617 -0.0011218211 -0.14701499 -0.22308332 -0.27665228 -0.1449715 0.13456775 -0.08375071 0.1295251 0.0076480084 -0.3031616 -0.26611775 -0.6209329 -0.0063345996 -0.062754005 0.05310705 0.041766454 0.24202491 -0.13839304 -0.6267155 -0.04249056 0.44604203 -0.12664284 0.030712992 -0.3026308 -0.5339961 0.26963803 -0.42252272 -0.015422167 -0.023602577 -0.07308567 0.41957965 -0.26452336 -0.11831191 -0.34158075 -0.35588905 -0.09226053 0.21268076 -0.4071055 0.13748801 0.3525847 0.10841018 0.35972106 0.3417907 0.23798074 -0.34795126 0.2043917 -0.49789158 -0.24617925 0.03797028 -0.04702861 -0.025985496 0.19543616 0.100445956 -0.047933694 0.38844913 0.0957691 0.14585423 -0.075028956 -0.21242449 -0.23744158 -0.24757993 0.10436456 0.026537992 -0.27500182 0.05127169 0.30585256 0.03580627 -0.035808593 0.22007787 -0.05126278 0.53346807 -0.5633176 -0.21878764 -0.50470936 -0.071228385 -0.36844838 0.527625 -0.18329355 -0.08045727 0.24445999 0.35206485 0.16231613 -0.11285262 -0.22009706 -0.26113257 0.31719363 -0.01660048 0.032004833 -0.13043846 -0.60379505 0.025904682 0.58334124 -0.04649754 0.22618395 0.3970375 -0.06301131 -0.09520564 0.37845358 0.191543 -0.4035068 -0.35952827 0.0655306 0.014333978 0.006840734 -0.1156449 0.2929111 -0.005063264 0.13871986 -0.06437795 0.33061105 0.507084 -0.20777135 0.26466432 0.48289242 -0.34211826 -0.05495806 0.037896506 -0.5895275 -0.1798472 -0.1971836 0.107980795 -0.07478586 -0.058598198
2658 -0.8719072 -0.34519348 -0.23003633 -0.45889497 0.21073602 -1.0203234 -0.19246203 -0.30567676 -0.17250732 0.48251697 -0.2903579 -0.16008434 -0.23828208 0.30040935 0.82321626 -0.46961588 0.29848695 0.2892276 0.13303159 -0.13645285 -0.128663 0.031795748 -0.8303678 -0.21339156 -0.68964213 0.03169154 -0.47925425 0.1891669 0.09260681 0.14322202 -0.53297824 0.3881593 -0.061853603 0.21866931 -0.12673192 -0.38534018 0.7697693 0.9701085 -0.7289383 -0.11270314 0.29862747 -0.25494245 -0.68640256 -0.028469248 -0.031666644 0.43540064 -0.030421088 -0.045887884 -0.08634968 0.002405909 0.25286496 -0.3628944 0.51025844 0.02934477 -0.111721024 0.24430862 0.3183914 0.16996767 0.030015908 -0.46357134 0.24468225 -0.28587922 0.22908449 0.3700395 -0.050590478 0.058463454 0.15152842 -0.32842612 -0.8191465 0.58049923 -0.15465021 0.022321304 -0.32844412 0.52686816 0.6817881 0.029661719 -0.2735615 -0.13795234 -0.17612757 -0.13848315 0.5009226 -0.017719561 0.51589584 0.4316614 0.700923 -0.7130898 -0.30760393 0.086454205 -0.16244462 0.48018304 0.30466405 -0.9441599 0.29762554 -0.37640655 -0.065434456 0.09537737 -0.17879444 0.1436913 -0.0077853794 0.73702365 -0.93707585 -0.84550107 0.07972379 -0.21236692 0.079323746 0.64484745 -0.18255986 -0.43798256 0.7331453 0.010930253 -0.2951305 -0.1188872 -0.09693753 0.37602797 1.1545749 0.29372162 -0.59557736 -0.19900635 0.45697877 0.06289205 0.8341189 0.41311145 -0.0023309572 -0.2248487 0.036521528 -0.61154455 -0.6431761 -0.23444164
23738 0.013770763 -0.07629105 -0.06262848 -0.091835395 0.08820504 0.37213498 0.07086641 -0.29378933 -0.039696038 -0.06256175 0.35278305 -0.07405329 -0.39155534 0.13077429 0.49854574 -0.14231753 0.05183869 0.5272079 -0.1843724 -0.024509506 0.052272405 0.21106939 -0.103757985 -0.11788017 -0.4449906 0.48806867 0.38929072 0.39896563 0.3044915 0.14175871 -0.25502735 0.006708293 0.46310714 0.06498246 -0.09864445 0.045198124 -0.6499875 0.0050887065 -0.3313028 0.3422479 0.16310501 -0.016038062 -0.21935368 0.08040325 -0.3645852 -0.097048245 0.345964 0.038306434 -0.60418415 -0.2846286 0.10994081 -0.29319087 0.039510593 -0.034785274 0.15275699 -0.03973914 -0.11811807 0.10305785 -0.12570368 -0.10020508 0.2333704 -0.41319036 -0.23379952 0.5621472 -0.07415919 0.08396497 0.09867139 -0.36106503 -0.5075838 -0.25336695 -0.101839595 -0.14954321 -0.036049057 -0.0088303145 -0.22641447 0.11019225 0.064819336 0.4275805 -0.061634332 0.26370478 -0.39532617 0.021371052 -0.16596049 -0.2553657 0.34970903 0.011260916 0.23762357 0.051056754 -0.031081988 -0.07501738 0.29271978 -0.21672346 0.013719719 -0.45934746 0.21554089 0.08659026 -0.03737775 -0.1214526 -0.09154674 -0.08773185 0.29580152 0.16218828 0.014904131 -0.5019882 0.15243688 -0.27007732 -0.37375838 -0.26131257 -0.18872075 0.1926459 -0.53771746 -0.38922688 0.21400462 0.10668336 -0.21015532 0.21858484 -0.05594914 -0.29629 0.4761003 -0.486677 -0.2544176 0.033085953 0.009809998 -0.2289069 -0.26694143 -0.08471101 -0.1434156 -0.16325264
4335 -0.38990766 0.39226437 -0.1488222 0.33561394 0.49717635 -0.1379361 -0.3295741 -0.10569748 -0.28240773 -0.46368766 0.26021025 0.020832174 0.09980037 -0.09953917 -0.29051828 -0.5098309 0.46037647 0.20710218 0.00060316233 0.12975545 -0.18563622 -0.0793597 0.31656286 -0.5286935 -0.08137638 -0.13363814 -0.17264481 -0.20176326 0.6974585 0.1380017 0.23505308 -0.1629193 -0.084608786 -0.6363748 0.23323578 -0.16677566 0.10259483 0.36012363 0.16610768 0.20833482 0.16509704 0.27549195 0.39478254 0.12305761 0.007083683 0.11701068 0.5087899 0.25291938 -0.077100575 -0.41768166 -0.020106615 -0.38893092 0.29998428 0.07565999 -0.014265598 0.07650958 -0.22096224 0.0026493366 0.17881905 -0.38291904 0.19202645 -0.58776456 -0.02303608 0.3187441 -0.39544195 0.21863236 -0.146271 -0.14265503 -0.15095408 -0.42983535 -0.17221898 -0.07566032 -0.0048299017 0.104466215 0.41124696 0.65555435 -0.4697023 0.2902494 -0.0009285174 0.4236569 -0.070092686 0.07277666 0.32471555 0.22265978 -0.002510081 0.2669846 -0.4568043 0.24327663 -0.07959543 -0.117864676 0.40938053 0.021536885 0.34550092 -0.44087565 0.33733517 -0.005793788 -0.05659925 -0.16110615 -0.16305089 -0.16785775 0.32191014 -0.27175653 0.009531365 -0.38807696 0.15661797 -0.3431706 -0.13884939 0.3519231 0.33751398 -0.37206733 -0.06772555 -0.2203209 -0.387284 0.1223216 0.7634297 0.2214339 0.50120467 -0.25098586 0.30188206 0.3924515 -0.5286345 -0.3889447 0.23125769 0.036145836 0.04602748 -0.019187033 -0.3550438 -0.29725307
10796 -0.13036887 -0.1372968 0.11652779 0.10738836 0.14181481 -0.21107875 0.0607172 -0.24663754 0.28339264 -0.05590661 0.75230896 0.05628962 -0.25410548 -0.29151326 0.5400909 -0.046499915 -0.034828752 0.019326717 0.01968152 -0.16016887 -0.24395768 0.080711864 -0.13713564 0.28225967 -0.06719954 0.20210226 0.1984274 -0.13451989 -0.2961206 0.22981654 0.08568616 -0.12799631 -0.06868163 0.37812492 0.34139597 -0.26114106 -0.47123936 0.021704178 -0.13885544 0.5420767 0.46869692 -0.3349608 -0.3726513 -0.035166558 -0.12715983 0.26462913 0.06347502 0.19307466 -0.07061876 -0.02165502 0.09889815 -0.1039497 -0.073433846 0.090175636 0.03394269 0.16170643 -0.15393198 0.1123029 0.3657651 0.20398551 0.06542648 0.50658923 -0.12049503 0.20361213 -0.07917989 0.23806609 0.27867454 -0.12940478 -0.41257238 0.68154746 0.06638431 -0.11407597 0.19231835 -0.06573897 -0.20530614 0.54344904 -0.10604957 0.3208958 -0.36134833 0.050395824 0.18200548 0.06872726 -0.11669123 -0.038238652 -0.28792337 -0.073092766 -0.3522862 -0.054406658 0.069996126 0.02776793 -0.1441147 0.3377098 0.0035255484 0.32189265 0.21675509 0.31238928 0.18779053 0.3027034 0.07595289 -0.34420675 0.28178895 0.21955542 0.21461083 -0.08132793 -0.004237586 0.19618215 -0.03965098 0.026971905 -0.08307674 -0.29789662 0.40920097 -0.02206635 0.06528495 0.02444474 0.07712664 0.2832073 -0.048178267 -0.25451565 0.30991757 -0.25220487 0.017456926 0.033211738 0.0061191362 -0.31583574 -0.1122729 -0.27221513 -0.11659807 0.12647256
85352 0.21853812 -0.31212854 -0.303595 -0.21297576 0.68068755 0.00097055867 -0.049767815 -0.17047936 -0.6816867 -0.1416764 -0.22235009 0.1966195 -0.01161937 -0.065863736 -0.12771219 -0.041539386 0.09969496 0.13742414 -0.23142381 0.046836644 -0.0022242249 -0.083441205 0.32354274 -0.41378275 -0.20231126 0.19738911 -0.36489633 -0.05125792 -0.008721906 0.4632724 -0.12363494 -0.2857233 -0.092393294 0.00015329137 -0.20159009 0.10663672 -0.38557753 0.36093098 -0.12860164 -0.24575591 -0.1724667 -0.07095075 -0.39543235 0.0871734 0.18425348 0.16001815 -0.096027024 0.24921963 0.047092173 -0.52201515 0.66054785 -0.18100049 0.1261276 0.3138391 0.34413457 0.007982867 0.056265164 0.034768824 0.41786677 0.035075784 0.28000182 0.4273828 -0.052176677 0.21829371 -0.04629304 -0.2873739 0.060475312 0.40927857 0.24601153 -0.007117125 0.4902239 -0.21036348 0.15334651 -0.20376249 -0.022627251 0.5044256 -0.7096513 -0.11234279 -0.52810776 -0.26170522 0.0733084 0.74165237 0.16991952 -0.2713187 0.5393167 0.04317586 0.30271482 0.12985784 -0.17678481 -0.03273654 0.22486164 -0.08947116 0.19533217 -0.3195243 -0.2622687 -0.03131951 0.24541056 0.20463054 -0.119693905 0.00423259 -0.12020175 0.13463917 0.09743365 0.19909817 -0.045196794 0.03404403 0.3610134 -0.221683 -0.26491857 -0.063939616 0.37549147 0.13147794 -0.05912747 0.2880913 0.22962196 0.46788785 -0.00457515 0.33912563 0.10986443 -0.23953336 -0.34386176 0.14379083 -0.22706924 -0.16208671 0.1208584 0.10658508 -0.020250225 -0.13953637
2696 -0.6896457 -0.6125432 -0.12544258 0.24411215 -0.37971073 -0.8440546 0.17943913 -0.35399655 -0.6427008 0.116773196 0.32246447 0.8103583 -0.17114018 -0.13057424 -0.37058538 -0.009447815 -0.09862173 0.39818352 0.12148818 0.4899543 -0.002179334 0.32579735 -0.13993739 -0.08092303 0.17894769 -0.003266719 0.18144223 -0.17846702 0.3006218 0.2641308 0.4202195 0.50579584 0.07875971 -0.09628987 -0.34749675 0.4530729 -0.14415528 0.92690384 0.038512558 -0.06762807 0.80864954 -0.23081233 -0.44688433 0.46847242 0.57201284 0.3953126 -0.7926672 -0.20951328 -0.7323441 -0.7539999 0.04478689 0.11525372 0.40243784 -0.025933241 -0.08892425 0.25441587 0.25464836 -0.08886694 0.3974684 0.71795136 -0.061922725 -0.16940047 -0.35368434 0.44085756 0.2670605 0.3364423 -0.107475676 -0.11480445 -0.5394706 0.1100836 -0.08406161 -0.3864045 -0.1178012 -0.118549176 0.11213744 -0.030800667 0.22312278 -0.29356015 -0.4751693 0.5123424 -0.03845307 0.40001562 0.352848 0.4430772 0.13415284 -0.2619926 0.061457112 -0.116684385 -0.08583563 -0.22246273 0.85763454 -0.35523286 -0.07725661 0.30395916 0.08054255 -0.008737448 -0.0470707 0.38729048 0.72937274 0.2742572 -0.044387538 -0.35031512 -0.12604593 0.085680984 0.2945737 0.27862498 0.229112 0.0084297005 -0.05802871 0.14924763 -0.2821233 -0.11754853 -0.43664685 0.017774813 0.38752532 0.19504905 -0.43208143 0.054312818 0.42030817 0.20005317 0.5762903 -0.009704161 -0.2955771 -0.123098955 -0.11749635 -0.40199387 -0.54125 0.32867193
230879 -0.933117 -0.2746704 -0.01921505 -0.423728 0.21982002 -0.97857267 -0.15818784 -0.25410596 -0.35065034 0.44942003 -0.16531785 -0.06767358 -0.057541166 0.18600589 0.73437655 -0.57454383 0.59883183 0.33381686 -0.062704735 -0.1774374 -0.07736842 0.0620212 -1.122548 -0.37099808 -0.69086677 -0.10176351 -0.30512452 0.1460609 0.24525096 0.058114283 -0.62668884 0.1170482 -0.1671385 0.06948597 -0.24472037 -0.44244292 0.65077734 1.0096378 -0.6392761 -0.19741097 0.23783806 -0.1554756 -0.5010253 -0.09019604 -0.1311202 0.41960034 -0.16703804 0.04499154 -0.1286759 0.03837181 0.4084064 -0.20737144 0.57428795 -0.09359605 -0.12050759 0.28709948 0.38584188 0.26271164 0.054413702 -0.40712652 0.2519001 -0.19791102 0.119607404 0.4664842 -0.19706564 0.28732115 0.20172986 -0.05530462 -0.8541382 0.6641363 -0.3132021 -0.20273669 -0.075377285 0.43622875 0.7169906 0.113924496 -0.24152844 -0.17837925 -0.166782 -0.24016866 0.4609759 0.0488749 0.46332815 0.14477526 0.7909502 -0.92112464 -0.10713937 -0.01342774 -0.23354918 0.42883843 0.15713803 -0.8295413 0.2992186 -0.26214138 0.039868005 0.3462725 -0.23313294 0.21351679 0.123774774 0.98379326 -0.89369655 -0.9869138 -0.049528793 -0.24067134 -0.20263942 0.5896917 -0.26842216 -0.18553624 0.73760265 0.06506306 -0.30576244 -0.11816973 -0.12342274 0.35665235 1.1193438 0.21196178 -0.63784325 -0.09676265 0.44822347 0.1330752 0.77695924 0.24135606 0.082635395 -0.019858552 -0.3425744 -0.5904384 -0.48341012 -0.084214546
16819 0.07001218 -0.08178195 -0.39043993 -0.42196134 0.055531103 -0.61025244 -0.34071302 0.30676648 0.21855482 -0.32925808 0.40443528 -0.3527374 0.11476414 0.043502606 -0.59267527 -0.45553052 -0.3873779 0.9419489 0.33697355 0.17656943 0.21076764 0.20064941 -0.10268566 -0.71192557 0.11446924 0.15865023 -0.52753985 -0.11500853 0.17216928 0.12530555 -0.38345954 0.07620781 0.24045283 -0.3191577 -0.068023495 -0.30348372 0.08126287 0.06738413 0.52223843 -0.41377667 1.0784723 0.2111852 -0.2152546 -1.107882 -0.04230384 -0.38870966 -0.016125333 -0.09284611 0.072704054 -0.42922142 -0.19667187 0.19519253 0.059625518 0.1493761 -0.16524082 -0.013291279 -0.099983834 0.05700463 0.069222465 0.034152817 0.03516282 -0.8278756 -0.42549866 -0.32796338 -0.54276884 -0.19734399 0.24251854 -0.030199213 0.15587398 1.0825564 -0.34539753 -0.61591065 0.06997396 -0.5121179 0.112417266 -0.023590365 -1.0503908 -0.4841967 -0.8408264 0.95207936 -0.020985128 -0.035990678 -0.22403304 0.5630126 0.715206 -0.15566416 0.2908331 -0.62517273 0.22962321 -0.1529135 0.45611194 -0.054763816 -0.40905815 -0.6068847 0.8242238 -0.18631527 -0.41920897 0.18267062 -0.016327411 -0.29909077 -0.043138377 0.3151631 0.06793974 -0.34960422 -0.14998887 0.800037 0.25673565 -0.5804282 0.37013128 -0.55613047 -0.18914604 0.22664617 -0.24217136 -0.99434745 0.6099073 0.36531937 0.2961224 -0.31939057 -0.19050144 -0.43686938 -0.50080895 0.85087776 0.32783982 0.5522861 -0.47328216 -0.5648236 -0.42058128 0.36963123
117 -0.14819641 -0.06929425 0.2567325 -0.14794363 0.09166401 0.28559372 0.20821762 0.18105665 0.17798884 -0.11377609 0.046688564 -0.11541196 -0.14069872 0.10841061 -0.24484976 0.04676069 -0.060090646 0.29130062 0.29034024 -0.08626435 0.004556991 0.24835937 0.19792758 -0.3119843 0.170754 -0.0956742 -0.17090867 0.20400749 -0.44119552 0.36691126 -0.15823855 -0.10266821 -0.09949496 0.1459171 -0.37801635 0.23354061 0.22954725 0.010132225 0.38986474 0.13031346 0.18945865 -0.16850649 -0.4295807 -0.045213986 -0.44444346 -0.2702078 -0.11025596 0.3021008 0.075776294 -0.43357837 0.21551582 -0.1236802 -0.12945965 -0.12993285 -0.24022233 0.08394439 -0.19064796 0.023346473 0.6039038 0.2613808 -0.14575212 0.08706222 -0.6208405 -0.26978296 0.16081716 0.19385831 0.084327735 0.34287134 -0.557383 0.16161317 -0.006290266 -0.40452027 0.10597491 0.38387835 0.12302479 -0.21385548 0.157646 0.41247377 0.047197208 0.33964732 0.4086279 -0.223735 0.19765316 -0.22069332 0.4755833 0.091256864 -0.30946642 0.386781 -0.4169939 -0.094384946 0.71104527 -0.046229865 0.21794789 -0.29501507 -0.1005401 -0.35944015 0.339051 0.11915849 -0.21658517 0.33859587 0.10396778 0.060091857 0.18759058 0.29626736 0.5214202 0.7071754 -0.22152606 0.3276896 -0.16796426 -0.16432545 0.4717819 -0.17240895 -0.08946673 -0.443238 0.16965416 -0.1934887 -0.04974252 -0.13963105 0.21493624 -0.24835838 -0.040312935 0.040929828 -0.029096812 -0.20594552 -0.13674618 -0.1314549 0.16053534 -0.21531643
35922 -0.53408396 -0.22643706 0.030177554 -0.32497197 -0.24794897 -0.23749307 -0.3031204 0.015037516 -0.30716816 -0.71660423 -0.0009728028 0.05614472 -0.30082035 -0.118308604 -0.18503843 -0.19680852 -0.023694864 0.12005545 0.034424685 0.3634689 -0.35517824 -0.36959186 0.1498212 0.12917557 0.07725645 -0.047747243 0.039915364 0.1042163 0.06208876 -0.0018005426 -0.021745246 0.18923344 -0.117581874 -0.78674144 -0.16927227 0.0006079951 0.16366482 -0.018594926 0.24246725 0.15620118 -0.20787144 0.3014983 0.05884383 -0.060543433 -0.2596774 -0.19941959 0.041663937 0.56193453 0.07717991 -1.0649096 0.031491663 -0.46248916 0.23259737 0.13056944 0.1825507 -0.033667147 -0.10714531 0.18779296 -0.04712248 0.1366127 0.15332888 -0.31723037 -0.38244992 0.19500798 0.3008024 0.5285275 0.111659855 -0.15301074 -0.20995246 -0.0725263 0.10856103 -0.06732141 -0.07717795 -0.05947427 0.09730793 0.47718436 -0.4988848 0.20070457 0.3978729 0.30675396 0.08739602 0.022178857 0.45151192 0.305165 -0.19129698 0.38079464 -0.37900296 0.27374747 0.13475825 -0.17558405 0.1603455 -0.002152372 0.30494836 -0.5169619 0.07387359 0.07946403 -0.010873929 -0.17689295 -0.25134182 0.14959271 -0.1550455 -0.182278 -0.5075255 -0.19777806 0.41314936 -0.3675881 0.017685726 0.106674425 0.23132019 -0.59532124 0.07611048 -0.22054173 -0.3803726 0.33908477 0.50672203 0.07113984 0.5143447 -0.43401393 0.12643847 -0.07163151 -0.006881569 -0.12095533 0.1393594 0.07415854 0.14896254 -0.22817054 -0.25266522 -0.077116914
6334 -0.3716932 0.33662462 -0.6058077 -0.1355161 -0.44324672 0.083803326 0.079971455 0.089519866 -0.34308705 -0.37297478 0.23483 -0.22684933 -0.33464524 -0.02664124 0.10349036 0.2144018 -0.39546385 0.3289549 0.013565031 0.31154233 0.003696723 0.05332894 -0.41209325 -0.28128448 -0.31624436 0.48127037 0.038722485 -0.43805036 0.21457583 0.35984182 0.5407404 -0.35678324 -0.080018125 0.09997425 -0.31539017 0.14374135 -0.24202576 -0.076736726 -0.2643566 0.36808252 -0.13109829 0.303795 0.07514117 -0.33093464 -0.26923874 0.23329264 -0.038122047 -0.24809487 -0.0038625277 0.3790515 -0.04479383 -0.105768174 -0.32616192 0.21911496 -0.1315459 -0.1191351 0.33486462 -0.04643508 0.18698004 0.039943438 -0.13459054 0.22377001 0.38056305 0.15578717 -0.14087087 0.36585206 0.07754149 -0.20013852 0.27706873 0.20051885 0.09991716 0.111330815 -0.071936905 0.23837276 0.47475722 -0.040847212 0.18652976 -0.030128755 -0.45272434 -0.38805556 0.017608235 0.04519232 -0.2674696 -0.0056591434 0.15267764 0.48987323 0.41358232 -0.0153363105 -0.13522097 0.38553816 0.24882856 0.21648878 0.38818532 -0.1777591 -0.13743784 0.07832645 -0.029276479 -0.24054395 -0.09283917 -0.09789064 0.27856484 -0.3736648 -0.348013 -0.15387508 0.034259275 -0.0010506496 -0.016211513 0.0830596 -0.084955946 -0.19240078 0.17124832 0.021184795 0.45839402 -0.28758502 0.01217335 0.17964034 -0.1934448 0.051882394 0.44809088 -0.34470835 0.028323244 0.03456958 0.28007787 0.30412188 0.23210189 0.26252705 -0.2877207 -0.14585899
39127 -0.01536338 -1.0006611 -0.4955838 0.117154345 -0.3047338 -0.31130096 -0.13596532 0.109461755 -0.13515177 -0.44850877 0.07171046 -0.2659892 -0.005024895 0.06964434 0.7362549 0.302693 -0.5250541 0.72737527 0.06827006 0.12398686 -0.3833755 0.31451535 0.1917884 -0.36012068 -0.15333317 0.015066487 0.39766607 0.21883029 0.04405614 0.19961558 0.21243547 0.09706006 0.44408587 0.030457497 -0.112625085 -0.5651521 -0.1653425 -0.04908259 0.14888921 0.7642735 0.11766706 0.34088236 -0.019507982 -0.15458664 -0.31043082 0.21393852 -0.23274583 -0.15616949 -0.0057183905 0.10984908 -0.03159637 -0.2462565 0.12086139 0.39270717 -1.1789271 0.014689423 -0.30886233 0.066204175 -0.2196563 -0.29669175 -0.38266292 0.41531378 0.076051794 0.17557013 -0.02203944 0.4445039 0.46581686 -0.21224117 -0.10873544 0.2727492 0.29166576 -0.31915617 0.30241463 -0.39960304 0.45330366 0.4373007 0.14834645 0.6193821 -0.6778661 -0.2500291 -0.041542422 0.35560924 0.3657885 0.2527414 0.16371426 -0.41314137 0.20902047 0.065729976 -0.7017872 -0.18421146 0.493583 -0.06804974 0.44921923 0.19608006 -0.37487522 0.12697934 0.3284155 -0.2516974 0.27478245 -0.4606379 -0.17425784 -0.064293414 0.06919492 0.11482691 -0.31883383 -0.41755015 0.6664427 -0.23721075 -0.27751377 -0.3624531 -0.353804 -0.11963041 -0.20615844 0.34380248 -0.020699231 0.01553146 -0.057232797 -0.18197854 0.39841875 -0.6457496 0.09515437 -0.3092829 0.32234254 0.40744683 0.03784102 -0.3376016 0.11245661 -0.608224
210871 0.26630577 0.09445467 -0.2143023 -0.13505505 0.35868573 0.07100903 -0.395606 -0.075184286 -0.50778043 -0.18997368 -0.0747258 0.04546114 0.28162223 -0.25294724 0.26598808 0.0901894 -0.100689575 0.29189447 -0.017679783 -0.1286691 -0.10881613 -0.24293333 -0.015810404 -0.4701682 -0.12503976 0.057215832 0.18642138 -0.26931515 -0.3433088 0.13204831 -0.14995977 -0.29549843 -0.2218829 -0.03753602 0.5757924 -0.20603034 5.7511803e-05 0.4033808 -0.49874347 0.24542446 -0.011527948 0.3987335 0.17041576 -0.18945341 0.044603374 0.34155637 -0.535859 -0.07615643 -0.11140294 -0.5076942 0.1304214 -0.043258317 -0.12893157 0.0026937465 0.31473386 0.19725096 0.18435703 -0.009677479 -0.07618331 0.22672187 -0.05175056 -0.2564751 -0.22713296 0.14784695 0.17217885 -0.041755382 -0.1519144 0.033931434 0.12740204 0.023284178 0.42563668 -0.6568813 -0.37225434 0.063484035 -0.012498206 0.3789488 -0.067766875 -0.12814192 -0.2283636 -0.11921133 0.029307624 0.5729615 0.089400314 -0.14473481 0.009721913 0.25618935 0.15756115 0.11145604 -0.13368581 -0.10958773 0.19387162 -0.30790067 0.1564768 0.25398853 -0.30373675 -0.33023736 0.6267645 -0.17087796 -0.16399214 -0.18847387 -0.072833665 0.08139959 0.10004049 -0.20049426 0.15173501 0.2496264 -0.20801716 -0.0167971 -0.11185235 -0.3177618 0.24139321 0.13853158 -0.25277632 0.10711603 -0.17109822 0.21524715 0.039445117 0.46635792 0.17047578 -0.1367677 0.22129491 0.3286011 -0.13391662 -0.18316932 -0.16983502 0.0063829254 -0.10558493 -0.0895026
642894 -0.30474144 0.004901389 -0.4816702 -0.20962718 0.6417735 -0.65616935 -0.45485377 0.75405496 0.28837085 -0.3700385 0.5781349 -0.43251812 -0.08239117 0.038140718 -0.35725224 -0.6084059 -0.43189296 1.1397228 0.56135994 0.09237005 0.039316833 -0.0017128981 0.30003953 -1.2014991 -0.19150667 -0.21280517 -0.64473784 -0.54260904 -0.2768917 0.10462518 -0.23606029 0.022084858 -0.12228171 -0.12104441 -0.99123985 0.043945294 0.67295504 0.04949876 0.49913034 -0.15602572 1.0057982 0.22170845 -0.33798578 -0.7882095 -0.058297016 -0.31333193 0.042502005 -0.2297052 0.32124263 -0.80003387 -0.28933245 0.075895615 0.33883634 -0.03470468 -0.0595186 0.24733205 -0.25419238 0.19259676 0.10078821 0.022686172 0.063248955 -0.9315837 -0.0012676272 -0.11129683 -0.93200094 0.010809715 -0.46052742 -0.27424198 0.23640016 0.712025 -0.35833025 -0.5101215 -0.14060397 0.06073265 -0.12784909 0.19443391 -0.9087508 -0.22229144 -0.7613561 0.7219597 -0.5872751 -0.08544265 -0.6980375 0.47204742 0.5095819 0.20025629 0.036255028 -0.6645016 0.46678442 0.32595485 0.4831763 -0.044233803 -0.5559264 -0.17911279 1.1589068 -0.22820747 -0.009475168 -0.7170415 0.21727839 -0.493443 -0.20204009 0.6442099 0.2962646 -0.4491812 0.007984016 0.602835 0.10891487 -0.69079155 0.15864873 -0.6279705 -0.3071386 0.05660161 -0.09332635 -0.2778135 0.44921443 0.096667595 -0.5556379 -0.1517383 -0.3608451 -0.65688676 -0.24083574 0.7042738 0.21350418 0.08396706 -0.64114887 -0.4625024 -0.23920403 0.07339199
54131 -0.34513456 -0.319089 -0.04063221 0.0059196325 0.24635807 -0.0938533 -0.54619265 -0.59224963 -0.59108245 -0.020009292 -0.22674559 0.2785952 0.14796835 -0.03014991 0.038749494 -0.16779026 0.39240137 0.32205513 -0.2686277 -0.12048311 -0.2875692 0.16478507 0.1686289 -0.08834562 0.076539926 0.33818805 0.08848743 -0.099213205 -0.24085747 0.16584891 -0.4274624 -0.19030364 -0.008436504 0.10583187 0.57416546 -0.025632884 -0.3314811 0.5120753 0.138725 -0.26149324 0.026442217 0.108257644 0.2197183 -0.11736096 0.10199395 -0.10462636 -0.16349229 0.11730799 0.38099393 -0.3446568 -0.105781496 0.052999254 0.10673473 0.17824863 0.1400615 0.30822262 0.28604865 -0.16138214 0.16685697 0.17390794 0.052608423 -0.26131594 0.04832291 -0.07514929 0.19775456 -0.1527455 -0.019071981 0.52838814 -0.015076076 0.21105383 0.18714087 -0.90387493 0.019391604 0.23569171 0.51364857 0.07085019 -0.26341996 0.27027464 -0.77484107 0.08300887 -0.087959826 0.664742 -0.2478266 -0.10140443 0.40407562 0.46547893 0.6672092 0.102963634 -0.36994693 -0.010316136 -0.0370091 -0.425588 0.08263569 0.031361606 -0.35877863 -0.31426734 0.68259925 -0.102817744 -0.3292124 -0.20888785 0.006598259 0.26507545 -0.09444926 0.3881321 -0.10263143 -0.06268153 -0.0596048 0.30195546 -0.053258125 -0.014398435 0.037188172 0.5911109 0.20724021 0.10325238 0.22397994 0.811255 -0.09524358 0.0755162 0.08473372 -0.28437135 0.27314138 0.126725 -0.27842033 0.17908373 0.15917632 -0.104982466 -0.043870736 -0.06251096
3218 -0.25168607 -0.49005124 -0.07531135 -0.04942578 0.09850033 -0.47249606 0.31188595 0.10308495 -0.10753971 -0.1652935 0.30674544 -0.35503605 0.34431186 -0.2886195 0.6707668 0.16345254 -0.7325375 0.6796188 -0.01467199 0.525456 -0.10540495 -0.0150053445 -0.1534358 -0.275602 -0.10189428 0.070633195 0.32856077 0.18806921 -0.24265052 0.07419108 -0.023653487 0.05393708 0.5994714 0.3054643 0.16623394 -0.39967355 -0.27338484 0.08789674 -0.35433313 -0.08208314 0.021614695 0.42565197 -0.24215308 0.110527426 -0.55105203 0.4837414 0.048547197 -0.25677004 -0.19319731 -0.061946828 0.063385084 0.3922861 0.1637676 0.37568793 -0.12497268 -0.12245544 0.07075321 -0.49166876 -0.004833289 0.11796646 0.1206317 -0.10958018 -0.28658104 -0.27956647 -0.28727528 0.5757135 0.11720368 -0.23242648 -0.3708851 -0.13249382 -0.07296081 -0.09785574 0.20595714 -0.02549219 0.17188855 0.42514473 0.4847415 0.44668162 -0.26887482 -0.120057695 -0.26122853 0.43387493 0.13614537 -0.04510809 0.35518825 0.16383131 0.14952874 -0.10798277 -0.31589234 -0.048261974 0.050339844 0.2538797 0.15630291 0.24136719 0.29018766 0.10179718 -0.1303096 0.1336211 -0.34250045 0.24604534 0.10210677 -0.3947179 0.36814046 -0.0030153277 0.040951706 -0.055389773 -0.22142468 0.17147261 -0.4499425 -0.25900987 -0.07152455 -0.18667516 0.13429546 0.5181592 -0.042036302 0.17695501 0.13853708 -0.44419774 0.20472232 -0.67849904 -0.11691288 0.27647784 -0.015754195 0.41736186 0.03978826 -0.022731509 0.24887243 -0.3646699
5348 -0.69478613 -0.80995536 -0.221087 0.17381908 -0.03452539 -0.75874394 0.27550608 -0.36164778 -0.51987463 -0.054229233 0.2510264 0.5994083 -0.20111853 -0.096509114 -0.37041712 -0.1432787 0.069597855 0.32817143 0.032656614 0.35280725 0.16310668 0.40217564 -0.17569059 -0.18616146 -0.025296703 -0.07767192 0.1295806 -0.061080977 0.4542462 0.35332882 0.4299425 0.40026322 -0.06560163 0.053407058 -0.3557499 0.4722608 -0.28424034 0.8553401 0.03502394 -0.22647917 0.84317446 -0.15294926 -0.43640667 0.64232975 0.6655024 0.5352544 -0.8685906 -0.06913356 -0.6993641 -0.6358154 0.047062986 0.15576184 0.525958 -0.086592026 -0.3490063 0.37550798 0.3192486 0.055185627 0.35695732 0.4039876 -0.2077304 -0.0062540188 -0.33523887 0.42635372 0.098053604 0.3321909 -0.25881597 -0.08601026 -0.71335864 0.1292164 -0.06707309 -0.2928281 -0.15478028 -0.15575778 0.33546543 -0.04401871 0.09695098 -0.24903582 -0.5500907 0.6860214 0.107543185 0.49019226 0.50292724 0.32058528 0.0016417828 -0.5123505 0.14961642 -0.15793158 -0.035586208 -0.071897745 0.8014357 -0.34181145 -0.06379523 0.46954048 0.005239086 0.1813809 -0.04544037 0.32403183 0.56979996 0.36306944 -0.059691004 -0.49513143 -0.167005 0.048282906 0.110373296 0.18273705 0.23263693 -0.12221085 -0.022730265 0.0723073 -0.18603636 0.04121607 -0.4491278 -0.11087677 0.36689803 -0.02015592 -0.33301494 0.0382762 0.43855697 0.19726896 0.6856158 0.034483194 -0.10425521 -0.16779831 -0.2085993 -0.47661722 -0.43229258 0.4313181
35061 0.22977184 0.091851465 0.18238308 0.2077601 -0.038015906 -0.20444725 -0.15097314 -0.24422598 -0.77185047 -0.35290766 -0.38218775 -0.04604252 0.094803505 -0.021165174 0.14812583 0.060667377 0.06673709 -0.14291418 -0.5721588 0.22810806 -0.041209724 0.26474488 0.07896538 -0.3630829 -0.23283474 0.054244008 0.18426493 -0.116059296 -0.27430305 0.090230376 0.11951208 -0.42188272 -0.078370266 0.07107058 0.049619615 0.27635014 -0.100490585 0.27485517 -0.46696803 0.16585396 -0.46820137 0.00512177 0.12344312 0.19732437 -0.09659439 0.052360583 -0.24237956 -0.21250373 -0.019674802 -0.2828057 -0.082630426 0.015925853 -0.23226969 0.46821782 0.070039846 0.15403709 -0.0835196 -0.057678394 0.28722402 0.16767213 0.25644144 0.11884499 -0.22529566 -0.10715157 0.10703373 -0.12149006 -0.17675586 0.03812657 -0.090410754 0.03556849 0.43470713 -0.49268383 -0.29043943 -0.40491903 -0.1311444 0.3594995 -0.7040106 -0.16987933 -0.2635171 -0.038939063 -0.02857863 0.49413693 -0.01831995 -0.08303707 0.50945914 -0.021575246 0.23688674 0.27807957 0.1784534 0.013412043 0.08396655 -0.033053495 0.27159384 -0.07039909 0.07543108 0.18200292 0.63488513 -0.45523432 0.10950424 -0.22398254 -0.10718846 -0.10732697 0.34191042 0.22472551 0.18585895 0.61117214 -0.09443637 -0.16540897 -0.033684704 -0.13106371 -0.17601945 0.003934516 -0.3083628 -0.19689716 0.06984788 0.060136337 0.12365482 0.26039344 0.050324697 -0.14968178 -0.035888307 0.19082947 -0.15617093 0.22287443 0.42697164 -0.27668518 -0.0007466774 0.20668526
34257 0.42791045 0.218781 -0.2846998 -0.4052681 -0.50766563 0.25063854 0.54117686 -0.24572904 -0.016504353 -0.06954083 0.23135895 -0.44856134 0.91364014 -0.30055302 0.14210215 0.7697389 0.82392037 0.580807 -0.6133832 0.40083712 0.28366572 0.48737463 -0.43469054 -0.9632645 0.8893725 0.1728074 0.16124225 -0.5590785 0.2012465 -0.10743799 -0.22701448 -0.19017266 0.060247704 0.53507674 -0.45654565 0.4622554 -0.46294013 -0.016108831 0.41389135 0.1999624 -0.59963053 0.055727735 -0.13841948 -0.5428597 0.07102672 0.73415244 -0.37277052 0.71549284 0.467894 -0.58527476 0.05850784 -0.5790421 0.2974885 -0.58321047 -0.07042826 0.2345141 0.7326906 -0.30710447 0.18930726 -0.011638395 -0.06432137 0.14865905 -0.42747214 0.15125924 -0.82988673 0.97901386 0.23954639 -0.5549163 -1.1597229 0.92573833 0.29199812 -0.5538476 -0.056240167 0.29918295 0.7273502 0.15944277 -0.04327312 0.158765 0.566561 -0.14135753 -0.57607985 0.82036984 0.6645731 0.7447508 0.34872738 -0.8586836 -0.07182011 0.0012483445 0.17701523 0.03576752 -0.21024184 -0.022550087 -0.121032335 0.02869372 0.669704 0.34377337 -0.2002544 0.14538945 -0.09995624 -0.20712197 0.030677468 -0.37200147 0.32599056 0.5614583 -0.071367815 -0.661146 -0.28969425 0.31324065 1.2149788 -0.8673358 -0.6293672 -0.03896736 -0.28159854 -0.27668086 -0.40489563 0.7700679 -0.67719537 -0.16917235 0.5308097 -0.5190597 -0.5351159 0.39261135 1.0929486 0.40242574 0.25906768 -0.39430404 -0.4146663 0.13367712
54129 0.54901415 0.10959002 -0.35961547 0.13213839 0.090960994 -0.16131896 0.027884508 -0.1854599 -0.30510506 -0.26433453 -0.07482835 0.04534801 0.22064315 0.18549944 0.35090947 0.3167677 -0.101844415 0.34070793 -0.16564122 -0.5961478 -0.15710321 0.35570705 -0.54400665 -0.3322336 -0.091894664 0.115737885 -0.51700646 -0.10205126 -0.06384297 -0.1572549 0.07845511 -0.5911595 -0.60741854 -0.3725408 0.4463364 0.19381256 -0.67644876 0.33428136 -0.14616935 -0.084156655 0.09423413 0.41354886 0.46319962 0.032005765 -0.2937028 -0.10754494 -0.16591299 0.2780913 -0.049450655 -0.33011657 0.021056665 0.09289311 0.30599537 0.28257996 -0.4577225 0.13274808 0.6659922 0.010351529 0.002027854 0.6947271 0.082663074 0.23487723 -0.37841326 -0.3326084 0.13692126 0.12655407 -0.63571185 0.31774628 -0.22840407 -0.00020592811 -0.44806147 -0.43387315 -0.032317534 0.20288569 0.065058164 0.17989467 -0.07382179 0.33422607 -0.60724205 0.59600145 -0.4948902 0.48114604 -0.034199934 -0.21546479 -0.025792595 0.033736855 0.16203608 -0.09027159 0.042137988 -0.32951018 0.04534581 -0.045523737 0.56481725 -0.07766644 -0.25469112 0.035830084 0.23232791 -0.36401027 0.0027830568 -0.0009789319 -0.38313663 0.049530607 -0.20914915 0.40616992 0.20102403 0.31594133 0.60838145 -0.40763527 -0.24458429 -0.085932046 0.65426403 0.4179048 0.29849985 0.11173582 0.020227661 0.41231275 -0.6099712 0.21944712 0.31010988 -0.42456412 0.22356293 0.09100924 -0.13544323 -0.25275448 0.007294927 0.043096643 -0.043877065 -0.02121673
10177 0.16685048 -0.12614012 -0.06367957 -0.23853119 0.29295427 -0.10291237 -0.05048063 -0.2643051 -0.4770634 -0.14502546 0.1771445 -0.30695832 0.10064177 -0.0684535 0.08918814 0.12858835 0.544231 0.3308288 0.2428918 0.26746127 -0.24431574 -0.012307285 -0.36207876 0.20336445 -0.43286848 -0.048642263 -0.35175508 0.11384342 0.24243742 0.3641167 -0.39092016 -0.37598222 0.408543 -0.11608802 -0.8962953 -0.73067886 -0.388037 -0.00626484 0.20414826 -0.04158632 0.2555211 0.65733016 0.12800407 -0.014616604 0.2546907 0.02004652 -0.3778813 -0.08423315 -0.23686765 -0.043406088 0.21096341 -0.20377748 -0.37716076 0.54101527 -0.42492265 -0.16239952 -0.18470071 0.0039036148 0.40639585 0.24209665 -0.43621895 -0.16994894 0.10714792 -0.0042043207 -0.18061928 0.053364333 0.10569129 0.121072456 0.09339981 -0.00017845079 0.07369481 -0.23474458 -0.3839453 0.26054534 0.05987828 0.5970612 0.37907854 0.08143306 -0.34196237 -0.24863109 -0.19486056 -0.29606146 -0.1508477 0.32554018 -0.2587343 -0.14886776 0.22707812 0.17920522 -0.12907012 -0.36285725 0.041466348 0.25144935 0.39431345 -0.30587175 -0.16497076 0.5697023 0.09925373 -0.042988557 0.16325457 0.327466 0.6122664 0.026698343 0.47303128 0.23458034 0.41427085 0.11130604 -0.53939277 -0.17804818 0.008179955 -0.21495186 -0.20299362 0.2395982 0.11617265 -0.09927126 0.16178736 0.16453105 0.060571577 0.14109147 0.3642415 -0.25496098 -0.12578855 0.48489285 0.28840578 -0.10228201 0.22690779 -0.04673189 -0.34163436 -0.1828812
35797 0.09332162 -0.08836561 -0.17588268 -0.43348774 0.40309533 -0.26004615 0.05807853 0.11539217 -0.0808031 -0.115452856 0.35967767 -0.13943943 -0.24639134 0.041595828 -0.48789686 0.19277559 0.5314386 0.49011657 -0.3016398 -0.19742501 0.5580359 0.03978351 -0.23997957 -0.31718564 -0.5748654 0.4883399 0.139616 0.12913214 0.26100793 0.10263422 0.20620783 -0.11238229 0.18131708 0.04562936 0.18751392 0.12022986 0.40075356 0.19552784 -0.0899223 -0.3417027 -0.23645924 -0.08405117 0.049703207 0.6093156 0.18598032 -0.1642208 0.042888965 0.115520075 -0.12966779 0.058163337 -0.16365996 -0.13921371 0.3056219 0.37624243 0.02172598 -0.0543065 0.76964116 0.5298154 0.32370827 0.40864086 0.08147634 -0.18260461 -0.15603855 0.18159454 0.06013943 0.1924612 -0.40249386 -0.010000232 -0.362893 0.120599754 -0.3542719 -0.19263323 -0.044459306 -0.31264445 -0.19531609 0.26628858 0.055076476 -0.09373427 0.050834898 0.0339747 -0.095679484 0.4868312 0.38122565 0.28648162 0.14636917 -0.24166434 0.15127626 -0.049769875 -0.38337663 -0.028629163 -0.014082967 -0.06736444 0.25334853 -0.0029357262 0.32245788 -0.064011365 0.2701096 -0.2503293 0.41267717 0.07974915 0.4169253 0.236154 -0.22170307 -0.29612744 -0.1296951 -0.26821572 -0.15531656 0.32506517 -0.28031757 -0.098958 0.08036494 -0.14882554 0.33839417 0.12516312 0.4343461 0.2196445 0.4814432 0.09242825 0.40970543 -0.25391075 0.10061871 -0.12435599 0.3545118 0.84005064 -0.17605823 -0.58686626 -0.0038266485 0.19545937
18777 -0.15358 -0.097662196 -0.009483438 0.15756917 0.4219893 -0.010668701 0.52297384 0.08194519 -0.47815257 -0.43315244 0.034579832 0.14214133 -0.0068619107 0.0052280365 0.19428037 -0.49888074 -0.112408325 0.66479826 -0.07134165 -0.4188642 0.2610706 0.26895878 -0.155878 -0.108647645 0.55515164 0.18569896 -0.18458755 -0.32711178 0.21650104 0.89404035 0.029460162 0.32679516 -0.009919428 -0.056808315 0.120022066 0.14493391 -0.10234206 0.1048845 0.5563274 0.32617968 0.37180674 0.08912278 -0.10232063 -0.16367753 -0.35032097 -0.023202062 0.21537966 0.22419702 -0.41534373 -0.5546437 -0.13308302 -0.40470484 -0.13519174 0.3004995 0.04591378 -0.03681813 -0.3991868 -0.1795041 -0.16774969 -0.27803314 -0.22960778 -0.92059183 -0.5206172 0.2548215 -0.34154424 0.17280537 -0.36551592 0.032762635 0.06771314 0.028705724 -0.2058648 -0.14581048 0.057003886 -0.024440402 0.049933016 0.46105662 -0.122991 0.6552683 0.46192718 0.7368848 -0.11229332 -0.54468834 0.4547467 -0.3289216 0.4233994 -0.17496683 -0.3407015 0.104124375 0.31063223 -0.015819822 0.22729021 0.1377483 0.25595897 -0.13638358 0.049111128 -0.32415888 -0.21586761 -0.35611123 -0.109909475 -0.39308318 0.1667174 -0.18103018 0.16925544 0.158394 0.30776474 0.18560123 -0.53868526 0.025703408 0.054440815 -0.19809495 0.04023016 -0.37539655 0.22075789 -0.011800037 0.11407801 0.15638205 0.18401071 0.23716958 0.91862506 -0.08677902 0.2555881 -0.38332382 -0.111248694 -0.1708284 0.043092217 0.2475213 0.31068766 -0.017136335
38205 0.5970467 0.24432865 -0.27259952 0.035166144 0.07969499 0.21678345 -0.29727548 0.086075224 -0.47858623 -0.14978546 -0.19307233 -0.1503944 0.24699455 0.029256597 0.32228693 0.21817839 -0.483865 -0.10114859 0.07137252 0.069744624 0.11560356 -0.17534696 -0.025894882 -0.34220797 -0.08682702 0.25531814 0.14586905 0.017361358 -0.29367146 0.013579717 0.08981711 -0.554641 -0.2397863 -0.082536004 0.50703144 -0.25919297 -0.37584355 0.18294702 -0.11563067 -0.049425006 0.34584475 0.27882996 0.03927765 0.055927504 -0.15669672 0.20021051 -0.44377556 0.08899252 0.048154913 -0.71912634 0.0264861 0.2907884 0.16435347 0.2622915 0.22275713 0.31725857 0.3644242 -0.17964153 -0.07594201 0.18261242 -0.1533472 0.09577682 -0.017941298 0.29706797 0.06650104 -0.038578916 -0.019921917 0.15725312 -0.10007135 0.39590842 -0.3204375 -0.3811965 -0.21237963 0.3471346 0.21664856 0.4849911 0.057423133 -0.122734375 -0.3242043 0.2392182 -0.26849768 0.62962407 -0.22089484 -0.22134446 0.27505687 -0.030011611 -0.24191812 0.23545286 0.0503869 -0.10078474 0.25532222 0.0018736352 0.37126735 0.2399974 -0.18070826 -0.36270908 0.5930354 -0.46325788 -0.33125806 -0.111768275 -0.06538628 0.111117534 0.50722694 0.1561871 0.1746711 0.49772066 -0.21549937 -0.08280148 0.09698496 -0.08013968 0.67142373 -0.02908393 -0.38427854 -0.050924018 0.0039872634 -0.14630322 -0.23727141 0.24165481 0.3636836 -0.21932727 0.14880538 0.012375368 -0.097316824 -0.15303218 -0.34919018 -0.029226122 -0.16063358 0.046885733
89547 -0.15038884 0.4241594 -0.117809854 -0.15178728 0.581749 0.17942265 0.2690505 -0.47584745 -0.46421862 -0.1125891 0.4525022 -0.28551432 0.08059695 0.22251472 -0.24627334 0.16258843 -0.2519238 0.18266873 0.14731091 -0.20908417 0.058343492 0.34872425 0.3178547 0.22588108 -0.24055049 -0.01936804 -0.008371939 -0.07373235 -0.25340155 -0.21460775 -0.011992908 0.17142722 0.13512763 -0.29433963 -0.43986508 0.05779233 -0.22333586 -0.5341562 0.026042862 -0.07252514 0.3135104 -0.05257541 0.2602583 -0.34301102 -0.048751697 0.15088779 -0.20302716 0.42395997 -0.24208327 -0.104581565 0.5936852 0.19009967 -0.22028877 0.32249072 -0.4326553 -0.07069978 -0.0017674284 0.08088004 0.29225433 0.11007464 -0.48445728 0.2455376 0.4665429 0.39603087 0.33884963 -0.01641269 -0.22735809 -0.18224736 -0.3796826 0.2932463 0.56150174 -0.22124685 0.19169779 0.39805058 -0.066039816 -0.08985939 0.39066193 0.3574849 0.60984784 0.121736236 -0.37969565 0.111308806 0.037899636 0.12574828 0.41217068 -0.2973496 -0.4541492 -0.16428955 -0.016372392 -0.36622736 0.5142453 0.23766959 0.2130538 0.2699092 -0.47336662 0.3503173 0.39929527 -0.06018274 0.057809304 -0.04536265 0.59797025 0.04516232 0.1318061 -0.36955383 -0.27222577 0.9672561 0.018335594 0.08918304 0.068207905 0.009732982 -0.25730667 0.11868841 0.068174824 0.15308999 0.26791322 0.34571847 0.24841651 -0.10315698 0.16421053 -0.057846263 0.08866686 0.46803525 0.02072529 0.3912468 0.15551463 0.14298275 -0.25158775 0.14626995
28350 -0.16287838 -0.12159512 0.11335171 -0.23849204 0.28988907 0.27910775 -0.13325712 0.13738383 -0.037221707 0.12691315 -0.0052155103 -0.2582421 -0.07868555 -0.31006584 -0.1082818 -0.44495904 -0.18431447 -0.1706534 -0.274665 0.23409413 -0.06626675 0.17001593 -0.07792521 -0.21109034 -0.15972981 -0.44692445 -0.29368216 0.1530682 -0.18575923 0.23893905 0.17344321 -0.045893636 0.15287912 0.17743786 -0.34791788 0.27185535 0.124589 0.09626019 -0.119764194 0.42287344 0.3461343 0.18865155 -0.3652525 -0.1684464 -0.29222295 -0.066658884 -0.18153356 0.11244495 -0.071014106 -0.23809867 0.37977543 0.2038907 0.100830026 0.0639148 -0.24301307 0.121399984 0.24632385 0.14575984 0.22718938 -0.0012476167 0.12517303 -0.17962752 -0.7278936 -0.07209224 -0.038134515 0.055898968 0.18131621 0.22995135 -0.21893108 0.21139283 0.108317755 -0.43953663 -0.15614967 0.51377726 0.22063938 -0.02066511 0.21773712 0.4064734 0.16029109 0.3447206 0.2064943 -0.20095262 0.11692617 0.3849639 0.15216902 -0.21925427 -0.30355108 0.27693594 -0.08702688 -0.07329173 0.6787498 0.3939423 -0.11079344 0.25237677 0.022570403 0.001776122 0.115692705 0.028037691 -0.29129785 -0.19763373 -0.14047565 0.5654449 0.091899924 0.11683446 -0.25186732 1.2943105 0.02884775 0.45914912 0.21823998 0.09150334 0.3983181 0.39804682 0.14820589 -0.014659397 0.24209632 -0.0100916885 -0.3963827 0.30097547 -0.24273859 -0.17065558 -0.11573606 -0.223458 -0.011258022 -0.16990879 0.45077062 -0.36563474 -0.18256463 -0.36081278
2654 0.014283573 -0.07883469 -0.19418481 -0.35318652 -0.20311719 0.55869013 0.3870653 -0.27531725 -0.30939943 -0.052827556 0.43513843 0.44417587 -0.53943014 0.23215139 0.17645097 0.27393082 -0.2458746 0.20292333 0.08178217 0.108285286 0.5010371 -0.37275416 0.018755982 -0.14377141 -0.6461567 0.49017778 0.0016023181 0.68626726 0.30159527 -0.046690762 0.23773456 -0.26752827 0.36428702 0.15708612 -0.7354998 -0.27561638 -0.2984855 0.42335173 -0.13080603 -0.12869567 -0.31409296 -0.1143646 0.6874077 -0.4653479 0.15201175 0.44962797 0.5623358 0.06274773 0.17815785 -0.15115757 -0.18237382 -0.19560751 0.25867867 0.25754437 -0.35207322 0.21753909 -0.2876972 0.22638084 0.007867066 0.07990243 0.27742326 -0.28145412 -0.07433669 0.8005634 -0.3894414 0.38687593 0.1480103 -0.26986104 0.1203275 -0.21396682 0.044300586 -0.3105116 0.3287101 0.31590167 -0.22171366 0.33544743 -0.15974778 0.37786812 -0.19668348 0.044175092 -0.02072555 0.37190673 -0.1404064 -0.0351465 0.06624343 -0.08020871 0.54494494 -0.0065534706 0.1879181 -0.012834071 0.30786744 -0.15712553 -0.20486899 -0.5572795 0.07735831 0.115504354 0.41216782 -0.13516553 -0.04834616 -0.60061735 0.10957298 -0.05651327 -0.42621735 -0.35221007 -0.21846637 0.43722227 -0.24066387 0.07618904 -0.014015088 0.08919515 -0.416538 -0.3140076 0.17043634 -0.1896765 0.015596277 -0.04725492 0.07527512 -0.35771912 0.34546137 -0.2429856 0.26296434 0.023083603 0.055333093 0.20064414 0.2836267 -0.22873382 0.23595645 -0.13386267
153063 -0.066972636 -0.9830117 -0.17525566 -0.13182972 -0.2197721 0.30054018 0.86824137 0.12903708 0.3611896 -0.09644726 0.42214015 -0.16922948 -0.40498355 0.5804986 -0.54307765 -0.78074485 -0.23580934 0.98812103 0.3012057 0.17687409 -0.10734863 -0.51070434 -0.6299543 -0.39014456 0.056564048 1.4011545 -0.22626203 0.728594 0.4574743 0.5616004 -0.23315276 -0.32284585 -0.85992575 0.20422137 -0.15764195 -0.19935542 0.09419465 0.10256229 -0.110280134 -0.053152405 0.5198355 -0.0083007 0.19095333 -0.67546666 -0.22090845 0.49848765 -0.33018228 -0.28551057 0.4666637 -0.4498221 0.6309384 0.06352642 -0.42694235 0.12768155 -0.19220977 -0.14182574 -0.32672378 -0.6402595 -0.52012473 0.28112176 -0.38737985 -1.1615059 -0.31208926 0.025966514 -0.50589156 -0.5181795 -0.24542147 -0.4329595 -0.30321363 0.83198726 -0.23185222 -1.5298426 0.20044523 -0.4321134 0.2671947 0.3320496 -0.41447562 -0.40362254 -0.90527403 -0.09941276 0.6033138 -0.04919615 -0.49026155 -0.3531239 0.3039179 0.5618349 -0.59252787 -0.15375899 0.74334425 -0.45159003 0.13711207 0.067484066 0.3175546 -0.69795734 -0.31149808 0.19838667 -0.75635785 -0.4660331 -0.1306093 -0.31887513 -0.0045206132 -0.9298415 0.28093192 -0.24863389 0.124085516 0.3355541 0.24740732 0.05141166 0.124409676 -0.5670069 -0.017564302 0.35297012 -0.9518325 -1.0544295 0.40866384 0.0880088 0.27533346 -0.34072325 -0.67716956 -0.35714766 0.09152242 0.54074407 0.19887483 1.0893635 -0.37439236 -1.2246633 -0.2548456 0.16902141
65074 -0.023983235 0.6923301 -0.20655 -0.56637734 0.87206346 -0.5885132 0.694036 0.15263689 -0.23380722 -0.4806981 0.046146564 0.21113051 -0.98126876 0.012014191 0.23948517 0.09827747 0.017624538 0.17036796 0.7273702 -0.89689755 0.12529625 0.07001372 -1.9304142 0.3281942 0.1887608 0.44627574 -0.06814087 0.6819316 0.1122215 0.012889848 -0.12610194 -0.08898367 0.50293875 -0.27675143 0.042108506 0.04290854 0.977442 -0.26503536 0.85809976 -0.18814023 0.15848258 0.44762683 0.16845435 -1.154805 -0.015982464 -0.014165868 -0.1749705 -0.1689727 -0.22685237 -0.123157255 0.75194573 0.10954046 -0.09295076 -0.47272062 -0.068903364 -0.016132062 -0.18102922 0.6058534 -0.81177324 -0.16468759 -0.044568054 -0.71304417 0.24563617 0.4937709 0.5405313 0.34335575 -0.33776003 0.37364054 -0.73630196 0.090910986 0.17341338 -0.024899807 -0.74058443 -0.2603893 -0.02104594 0.6470126 -0.61283153 0.22734237 -0.77381384 -0.18606262 -0.017404286 0.40927747 -0.3754459 0.21041828 0.32185912 0.34266502 -0.5902035 0.40854445 -0.78359896 -0.33008868 0.70504016 0.28667682 0.61131704 -0.31909573 1.2447839 0.0626903 0.91451746 -0.074251525 0.26857212 -0.40681374 -0.48085237 -0.79099417 0.6524954 0.34658232 0.92546475 0.31909084 0.6210815 0.5862896 0.8881063 0.21501866 -0.8019053 0.54423106 0.018358389 -0.43342516 0.29066536 0.12161022 -0.63168037 0.08131849 -0.51274747 -0.6717086 -0.43708858 0.1885635 0.5425786 0.09695168 -0.12132131 -0.09181466 -0.49973008 0.771246
1956 -0.06458384 0.34694782 -0.60684574 0.3003683 -0.02955346 0.4520855 -0.36730862 -0.5248801 0.0007215402 0.029811133 0.11020045 0.024403304 -0.13295232 0.049681604 0.41849416 0.017774245 -0.13218275 0.35820913 -0.27019534 -0.26829568 0.014731836 -0.23834376 -0.51016325 -0.33340186 -0.23472191 0.11500367 -0.37561396 -0.054267816 0.07866644 -0.30036905 0.16608393 -0.12544145 0.5912131 0.11048841 -0.21491656 -0.12903747 0.15630837 0.028842049 -0.07825963 0.076870374 -0.32760566 -0.0058884174 0.09093766 -0.15274554 0.46513033 0.2611938 -0.0484221 0.07558123 -0.32369354 -0.4045945 0.08948941 -0.15891345 -0.20285487 -0.11706134 0.17754486 -0.54526055 -0.15946743 -0.01949615 -0.20898642 0.054170966 0.75678027 -0.14201392 0.1912476 -0.032489914 0.044224035 -0.05856546 0.33452976 -0.118663155 0.03328504 0.4264305 -0.15608166 0.078287914 -0.43150866 -0.004884037 0.13513523 0.3258044 -0.06505746 0.1833852 -0.05053704 0.33247554 0.0380359 0.59692323 -0.013844355 -0.2990711 0.2053269 0.0663356 0.019253252 0.05461789 0.25940984 0.21859214 0.44945586 0.14910458 0.3228462 0.41079256 -0.063097134 -0.028428858 0.11430355 -0.06378036 -0.19392172 -0.32922965 -0.47213203 -0.5183812 0.0892754 0.549482 -0.051419232 0.12536532 0.12059091 -0.031458214 -0.073960826 0.28533152 0.27855232 0.3486813 0.0587694 0.13643037 0.109391846 0.28983256 0.10661559 0.002279791 0.36506248 0.09009322 -0.26388407 0.73306614 -0.26147303 0.45535755 -0.240646 -0.71066004 0.5368524 0.066668496
6910 -0.2566806 -0.82641894 -0.6172817 -0.6134651 0.33978564 -0.6826057 -0.970527 0.54855716 0.03513915 -0.27694586 1.055395 -0.37960353 -0.06890263 -0.16141601 0.64379287 0.32656267 -0.07186563 0.5235338 0.310134 -0.6604618 0.38718933 0.121883474 -0.13748325 0.2240764 -0.5600952 -0.06572769 0.14835891 -0.12803172 0.2918737 0.25625873 -0.4096139 0.17336331 -0.49135026 -0.26732308 0.22807747 -0.2230436 0.047554925 0.6612256 0.18084545 0.04587985 -0.8631826 0.17748208 -0.17840296 -1.0861465 0.4434004 0.013192636 -0.2158781 -0.24838509 0.6158982 -0.42785445 0.027034316 -0.8677041 -0.50259703 0.31430846 0.42836547 -0.105641596 0.062075987 -0.41728848 -0.09308759 0.79780114 0.4381431 -0.5447689 0.06515695 -0.018102786 0.41216663 -0.28695247 0.6313097 0.12353405 -0.44627982 -0.57013977 -0.18300217 -0.5989434 -0.64536345 -0.06964954 -0.043541335 0.19751757 -0.62787956 0.44926617 -0.08085492 0.24837762 -0.5595474 0.16528468 -0.34325394 -0.2703069 0.3387366 -0.50653255 0.10078225 -0.013384159 0.21252823 -0.31562692 -0.21270782 -0.08311034 0.04088072 0.10782632 0.25054145 0.19207922 0.2219959 0.02941677 0.11966674 -0.04259259 0.6519847 0.36740005 -0.39173168 0.17094585 -0.08369473 0.97204167 0.059435703 -0.12506247 0.7730298 0.02587982 0.17762566 -0.9466843 -0.25178564 -0.8134128 0.66620046 -0.5653413 -0.07873584 -0.35984638 0.13665998 0.061162475 0.4409607 -0.06741527 0.59388745 0.36125866 0.3432504 -0.42623386 -0.43591312 -0.7379366
6913 -1.0488183 -0.4154494 -0.39039344 -0.1651852 0.4341855 -0.038364746 -0.40715024 0.48557878 0.22828428 -0.59930694 0.98197347 -0.10479604 0.16412902 0.36623794 -0.23598209 -0.23465157 -0.34456655 0.27973938 -0.5447245 0.086853765 0.32055 0.07585369 0.032687064 -0.07390997 -0.31397498 0.12055458 -0.19325824 0.058602665 0.12298188 0.26023883 0.18384062 -0.43732968 0.5708003 -0.68398684 0.16604993 -0.111602135 0.4980823 0.46597427 0.11363523 -0.18181697 -0.025158262 0.28741005 0.3248451 -0.40949863 0.3007022 -0.15993343 -0.117940776 -0.3737354 0.034845553 -0.46493047 0.47876713 -0.32043895 -0.46442553 -0.17382891 -0.07370684 0.17479059 0.088570856 0.15853705 0.20213927 -0.14103016 0.29354572 -0.1269154 0.40888435 0.27026108 -0.117806524 0.03764278 0.22022161 -0.091578946 -0.46142694 0.15850171 -0.3911273 0.09815858 -0.17276976 -0.059855413 0.3132191 0.31202033 -0.31804436 0.059004746 0.14699179 0.2347835 -0.6858081 -0.3582357 0.27224672 -0.13596831 0.17444019 -0.36842582 -0.011755964 -0.26969737 0.43079963 -0.24221 -0.047883905 -0.31355032 -0.42528695 -0.06819702 0.90276396 -0.26111954 0.013006504 -0.1575073 0.072159775 -0.2891531 0.26878402 0.30168363 0.26089147 0.39393526 0.029970678 0.4958001 0.44635165 0.31820083 0.03173539 -0.39585286 -0.041940548 -0.33379346 -0.113354504 -0.17606273 0.6496425 0.43277863 -0.03195585 -0.42394698 0.130357 0.38512427 -0.24283622 0.18861264 0.09597417 0.1555094 -0.26838169 -0.16465497 -0.54185337 -0.27578717
