2708 128
35 -0.034850493 0.00050813775 -0.1650195 -0.20887403 0.31209594 0.31806317 -0.07750479 0.17974897 -0.118548736 -0.18242298 0.41174507 -0.124031045 0.16221991 0.10967715 0.21241124 0.4903932 0.35039207 -0.083531685 -0.26062045 0.10034211 -0.18438509 0.027071722 -0.19239125 -0.026229305 0.01521893 -0.094027795 0.1967313 -0.038399417 -0.11979571 -0.014162594 0.002618168 -0.14799891 0.14315814 -0.0814903 0.2537234 0.15701097 -0.08737623 -0.07216543 -0.23740533 -0.21826 0.015872316 0.084536985 -0.14568412 -0.0675241 -0.016900891 -0.26951665 0.14712599 0.26147258 -0.19328198 0.14186335 -0.20621629 -0.13280252 -0.04785133 -0.12638211 0.18729989 -0.24167942 -0.058014542 -0.0685842 -0.00750951 -0.014805263 0.050516244 0.0034509674 0.024343604 -0.14679813 -0.018256243 -0.1444753 -0.19454809 0.250726 0.051523246 0.088497214 -0.009170068 -0.014340882 0.18304183 -0.08220841 -0.09865051 -0.21002826 -0.16393702 -0.17095897 0.093162745 -0.11822229 -0.36624873 0.26273376 0.10515275 -0.07868305 0.03648436 0.010646709 -0.06607445 0.15690492 -0.11430549 -0.04869572 -0.04174765 -0.023613669 -0.12692633 -0.016368542 -0.2085131 0.28504124 -0.30696625 0.23580615 -0.066537455 0.04081851 -0.1190598 0.009503185 -0.08410452 -0.10948262 -0.056097556 -0.033704765 0.04718016 0.26731876 -0.32439813 -0.2262934 -0.009320463 0.291861 0.0875563 -0.10626491 0.09364781 -0.084436 -0.38178113 -0.088326104 -0.13680828 0.23127803 0.12423793 -0.052894212 -0.064142086 0.13149057 0.00083582796 0.07280073 -0.23129755 0.005162421
1365 0.047580834 0.15552425 0.027467428 -0.41383815 0.13016534 0.18184981 -0.025794288 -0.09765064 -0.42752516 -0.21347708 0.100394785 -0.12811169 0.28800315 0.17804301 0.28280056 -0.002508451 -0.20915799 0.20379728 0.2056675 -0.0011397874 -0.22309393 -0.08419666 0.11859481 -0.38747492 0.1538306 0.2653679 -0.14867279 -0.04975517 -0.054191284 0.13126145 0.008626758 0.4265821 -0.12527066 -0.057708304 0.17799698 -0.047168583 0.18662094 0.32173193 0.061080337 0.103256926 0.15603226 0.18727075 -0.008925782 0.06854489 -0.047268152 0.22664419 0.040932566 0.02771618 -0.2694011 -0.24847285 -0.20219888 0.00907406 0.14566389 0.007734596 -0.013112264 0.05843825 0.15191534 -0.072216734 -0.3318472 0.6087271 0.010878032 0.03737622 0.03239799 0.02506299 -0.2580915 0.0694607 0.3008474 0.17585969 0.14115086 0.037320603 0.008358264 -0.15072167 0.073302686 -0.07008697 -0.15625268 -0.5343041 0.15007919 0.24750313 0.11236907 0.22426082 -0.13190027 0.09956546 -0.23274638 0.25314692 -0.041242592 0.21677153 -0.08616732 -0.04676891 -0.22937922 -0.4546713 0.15335354 -0.24731703 -0.44350082 -0.12339355 -0.07870436 0.19820724 -0.13023801 -0.12986982 0.120632924 -0.10847937 -0.22769271 -0.09913478 -0.12834626 -0.28800985 0.16980973 0.015331172 -0.10897172 -0.15156968 -0.2968148 0.2939885 -0.091837674 0.14046693 0.31869715 -0.26867616 -0.19682375 -0.104897 -0.008170155 0.059627827 0.24254383 -0.11665558 0.036963757 -0.27982333 0.26546735 -0.19568123 0.23413865 0.11671183 -0.026523374 0.1878759
6213 -0.11838059 -0.09618668 -0.019739578 -0.025453081 0.0920239 -0.04543749 0.06971482 -0.24285766 -0.45021766 0.47531343 0.27785948 0.36305016 -0.07540637 0.02814803 0.16790254 0.023590451 -0.13042527 0.027874675 -0.29585463 -0.36163366 -0.109108016 -0.034933392 -0.03896474 -0.12474996 -0.14381516 -0.019579962 0.008486075 0.046450667 -0.29275635 0.040437672 0.0746574 0.12326376 -0.1802018 -0.1354954 0.020862501 -0.21946599 0.2905777 0.18192086 0.02453096 0.18603998 -0.196507 0.039055683 -0.26355055 0.30878177 -0.007867736 -0.11798345 0.16416833 0.18786946 -0.03519003 0.12055568 -0.16051291 -0.23025307 -0.123160616 0.02511838 0.13904044 -0.05657388 -0.2894109 0.048810337 -0.0882981 0.052284308 -0.31119448 -0.14318888 -0.3846469 -0.17261426 0.2411337 -0.070253044 0.04116516 0.22646591 0.03638177 0.12615688 -0.1822148 -0.27382013 -0.09563932 0.022810593 -0.025757315 -0.09782209 0.22457504 -0.17375146 0.16168648 0.216508 -0.3544726 0.060313184 -0.0505489 -0.124694385 -0.11838131 0.07099478 -0.09168449 -0.061671752 0.08981497 -0.32404575 0.006498056 -0.23434778 -0.24072815 -0.2571698 0.2656594 -0.04925165 -0.28256398 0.12519279 -0.15318158 0.2634235 -0.21643098 0.2261146 -0.053505596 0.22231713 0.23069248 0.019609446 -0.12954149 0.2380278 -0.13235852 0.19292575 -0.16510868 0.27029562 -0.3266517 -0.12817875 0.40500134 -0.053877644 -0.18176052 0.2749439 0.222096 0.071288496 0.06414218 -0.31384388 0.19006078 -0.23981044 0.22307006 -0.4468369 0.077055976 -0.048474908
3229 -0.02522732 0.2646204 0.13572595 -0.19322191 -0.5024761 -0.24136636 -0.043616775 0.063595556 -0.40110114 -0.08483405 0.18431108 -0.39108565 0.42273065 0.11771428 0.31210384 -0.11686354 0.018603759 0.29498518 0.10104853 -0.1601647 -0.03187836 0.12776643 -0.09628404 -0.48115712 -0.19941707 0.22909105 0.15450455 0.117276974 0.057895474 0.17246574 -0.025860557 0.11671643 -0.05243088 0.047583565 0.0815892 0.27938116 0.06898387 -0.12985584 -0.102744445 -0.13352856 -0.2739532 0.014338994 0.087220505 0.21335249 0.15132128 -0.002648707 -0.19656153 -0.04101176 0.26329485 0.13876775 -0.051006116 -0.17215498 0.17397018 -0.33135357 0.009459179 -0.02036643 -0.15911432 -0.17226213 -0.16084494 0.12061025 -0.06450927 0.14275703 -0.1248668 0.04599878 -0.08712896 -0.1762433 0.24928454 0.040208932 -0.17345373 -0.016645573 0.29798663 0.13733684 0.04982594 -0.009204892 0.06079016 -0.18947564 -0.23254636 0.014963817 0.07101723 -0.13570628 0.051089734 0.09244098 -0.1836799 0.051281348 0.05218467 0.07158666 0.20006914 -0.0027892184 -0.15028068 -0.36087623 0.003600225 0.016177401 -0.058686107 0.15268041 -0.13908201 0.069900505 0.06404192 -0.1548397 0.09260117 0.025670843 -0.27907857 -0.1823549 -0.031919315 -0.09168129 0.15593942 -0.025137486 0.16785033 0.09953252 -0.33577856 0.14178239 -0.36069825 0.4355646 0.35900155 -0.22681426 -0.16049515 -0.41062546 -0.090314254 -0.029631276 0.05368812 -0.013794942 0.04131149 0.26275754 0.23762532 -0.25097343 0.15963997 -0.0902231 0.24736045 0.097256765
910 0.026168544 0.1352569 -0.23107076 0.050430838 0.00081964437 0.01344903 0.08916957 -0.24760205 -0.32187316 -0.17789908 -0.4587273 -0.47390342 0.29030493 0.21100514 0.22015855 -0.0002856038 -0.003966143 -0.26430863 -0.09274661 -0.058524504 -0.1206927 -0.18492828 0.12017622 -0.12151944 0.30647397 -0.09155193 0.13516863 0.007158205 0.19425425 -0.21097733 -0.26550427 0.47542825 -0.08234973 0.40837333 -0.12451605 0.140904 0.21355851 0.1784967 0.08177495 0.0329833 0.31163195 0.063821 0.13273762 -0.05177049 0.6580464 -0.11893328 0.29546958 -0.25424212 -0.24492362 -0.18237936 -0.243803 0.28250048 0.4659926 -0.036065817 0.26814848 -0.05941095 -0.4098666 -0.021628499 -0.0059122453 0.3745687 -0.061762527 0.13654022 -0.34696853 -0.24903008 -0.01541961 -0.025696283 0.053470746 0.18542403 -0.19842994 0.30940714 -0.11874519 0.04148483 0.20154043 0.026964532 -0.40195167 -0.38826433 0.13774206 0.19196235 -0.19737032 -0.18071356 -0.21881473 -0.030968567 -0.24884786 -0.14861988 0.0803903 -0.055700637 0.10566815 -0.16264479 0.19180661 -0.16761138 -0.15074763 -0.18929969 -0.4278023 0.24158564 0.123283856 -0.2535022 -0.19543758 0.059939418 0.09708123 -0.14173979 -0.21665284 -0.32599366 0.3380403 0.08466679 0.2841999 0.3573741 -0.12406306 -0.1570366 -0.15616083 0.10462542 -0.39954883 0.1958881 0.04394108 -0.044465248 0.3456385 -0.1237143 -0.21162167 -0.10025926 0.03303259 -0.34074056 0.48839316 0.12444276 -0.07029673 -0.01816805 0.12250558 -0.11796088 -0.02789051 0.105906084
4330 -0.20278105 0.13119212 0.074895374 -0.13981998 -0.30967847 0.028980324 0.28368634 -0.13293496 -0.6973258 -0.21070944 0.17050223 -0.1803149 0.09780179 0.062738605 0.24875478 -0.045291755 -0.3300429 -0.12386635 0.22256348 -0.21562815 0.24266145 0.5021012 0.32493773 -0.15591162 0.017595882 -0.11165054 -0.0042433487 -0.10215364 0.2556887 -0.38454694 -0.0018366395 0.39282075 0.34099358 0.14820871 0.16646168 0.116938345 -0.3200494 0.070535764 -0.021966012 -0.01677574 -0.17365524 -0.030434914 -0.04034451 -0.33318245 -0.07165065 0.16639294 0.15651427 0.27103198 -0.30038506 0.23925932 -0.19169526 0.11995624 -0.01761537 0.15443662 0.04915882 -0.2526389 -0.02181487 0.3270192 -0.0712918 0.10929604 -0.1799746 -0.27133027 -0.09987092 -0.05339852 -0.09767251 0.35380414 0.019481868 0.13678342 -0.0844291 -0.021678621 -0.2608445 0.12153377 0.18234889 0.21411939 -0.0040573706 -0.031699814 0.06788828 0.15158251 -0.031163068 -0.08187135 0.13338453 -0.25932592 -0.08199386 0.032929696 -0.27390414 -0.019754894 0.034745947 -0.18512458 0.019014971 -0.051386554 -0.56954175 -0.5979187 -0.22459577 -0.0429387 -0.05972663 -0.22922304 0.059629656 -0.19882894 0.00019446043 -0.11967147 -0.61291605 0.1535799 0.03099358 -0.10310611 -0.30581436 0.041352533 0.042374592 -0.31311157 -0.41970834 -0.031173704 -0.37874272 0.15873432 -0.10536148 0.03585351 0.43236303 0.14743525 -0.1321374 -0.09273125 -0.07119103 -0.08995563 0.21628286 0.103984885 0.07401092 -0.19654694 0.15489222 0.13118719 -0.37169963 0.22496825
114 0.14449635 -0.16032767 -0.21406943 -0.10061982 0.08012263 -0.28317857 -0.2521301 0.11704635 -0.43898386 0.5268827 0.22607823 0.41723928 -0.19130601 -0.231423 -0.23563784 -0.11077573 -0.16044472 0.14544575 -0.34344277 0.12197919 -0.039417893 -0.14962915 -0.17100143 -0.49587473 -0.21299429 -0.04896719 -0.01472071 0.0065060603 -0.06152324 -0.113652535 -0.16542794 -0.27891448 -0.05732871 0.028169418 0.0042849565 -0.15139021 0.2845804 0.30768025 -0.46453306 0.26971856 -0.3342529 -0.10312402 0.012354753 0.28632247 0.0976777 -0.023766942 -0.002474356 0.178297 -0.009490685 0.23924363 0.04293695 0.045177896 -0.25781912 0.13617796 0.20684552 -0.11382457 -0.41071773 0.18679807 -0.053832784 0.14763767 -0.19623224 0.088153906 -0.53201073 -0.29530373 -0.021031195 0.15536408 0.0835046 0.18051335 -0.22835165 0.0025934959 0.0010114084 -0.24131955 0.034733877 -0.20028783 -0.04398764 -0.19016665 0.047648627 0.11098824 -0.1524784 0.19474435 -0.4561649 0.17298622 0.027858462 -0.17743586 -0.4100537 0.10444178 -0.12348709 0.15868314 0.05833445 -0.44537002 0.076355584 -0.18694863 -0.44958723 -0.16468611 0.20403567 -0.25148726 -0.28387815 -0.10555196 -0.20741366 0.2971233 -0.21996433 0.11436968 -0.51527 0.34916896 0.14488362 0.1719971 -0.1201349 0.24118917 -0.03925679 0.26159155 -0.30503678 0.25138468 -0.4304787 -0.06175082 0.36110806 -0.2700471 -0.057361193 0.13423166 0.06378293 0.0094785625 0.37902164 -0.47525528 0.3262944 -0.19110517 0.44134894 -0.08738173 -0.11575278 0.002586085
3231 -0.032037884 -0.15839426 -0.024912106 -0.3952497 0.05279168 -0.17170869 -0.011267183 0.14009804 -0.010075127 -0.16256346 0.23978873 -0.16914266 0.011601591 0.13373983 0.14385764 -0.37299997 -0.07560972 -0.0909963 0.00085271435 0.015343411 0.111879066 0.04591438 0.06410719 -0.08547073 0.158482 -0.4442549 0.051523764 0.099057384 0.06489715 -0.16933313 0.101398684 -0.044475418 -0.17119548 0.24534933 0.5593943 0.5114288 -0.35933325 0.17749271 -0.059245843 -0.43250754 -0.1819713 0.12139479 -0.26423725 -0.06981232 -0.3954072 -0.13367213 -0.21625516 -0.25035378 0.15102865 0.1331976 0.02319839 -0.7615717 -0.0547795 -0.124625646 -0.102841735 0.25198153 -0.19431823 0.03796785 -0.14157583 0.06620173 -0.07781708 -0.16595553 0.13912974 -0.02664631 -0.035912465 0.12471164 -0.08709155 0.35488522 0.22158113 0.2750765 -0.15039742 -0.2252237 0.199619 -0.039919265 -0.04390217 -0.258913 -0.16431668 0.16602686 0.11996356 0.06432373 -0.00937215 -0.276129 0.1728004 0.013658192 0.08012883 -0.5382076 0.21962708 0.2077418 -0.43313497 0.28650442 0.080489755 0.0028339399 -0.07676432 0.11638549 -0.16948828 0.051870327 -0.010201332 0.25544965 0.36142027 0.07755289 -0.47652295 -0.015054346 -0.49633315 0.21464553 0.39390847 0.16770673 -0.45835727 0.1376496 0.14946564 0.15183145 0.12491527 0.12561761 0.27459583 0.1868998 0.6144393 0.12941338 -0.12288178 -0.3224614 -0.2521272 0.058323067 0.3208043 0.25956133 -0.12808983 -0.10201223 0.05071041 -0.023976099 -0.0809743 -0.09047661
19621 0.15362592 0.17978564 -0.05461135 -0.4094878 -0.25487575 0.16935705 0.3604916 0.24035728 -0.16714124 -0.40305197 0.025951056 -0.43652302 0.1782383 0.30577248 0.18614149 0.12887539 -0.25877827 0.39189452 0.0010957604 -0.16250782 -0.059420567 -0.10348292 0.3093041 -0.21268047 -0.4376896 0.042881116 -0.00087428815 -0.20078932 0.028155424 0.033999845 0.21549292 0.37224844 -0.060438745 -0.018359229 0.05497601 -0.15963994 0.1572978 0.1979381 0.39576262 0.067275554 0.29360285 0.104292065 0.0018923739 0.14994146 0.2750934 0.61887974 -0.07433042 -0.13163692 -0.21795708 -0.3745016 -0.17361994 -0.2669202 -0.014383764 -0.053732354 0.35936093 -0.1605808 0.120984234 0.091364205 -0.064164944 0.21661669 0.09637157 0.2179595 -0.47640622 -0.026919058 0.014853827 -0.10396789 0.12371196 0.37458932 0.18908095 -0.02220816 0.19985238 0.035966497 0.4169459 -0.3976604 -0.10461019 -0.6501553 -0.3028507 0.2710695 0.07049364 -0.5001027 -0.019450044 0.057802092 -0.6168724 0.097266994 -0.014641984 0.17238994 0.19662377 0.2878371 -0.3135995 -0.3408858 -0.12134545 0.1277516 -0.4326496 -0.08851927 0.18483487 0.19239375 0.124904245 0.13316105 0.08830136 0.023649642 -0.4479864 0.006424948 0.3164366 0.053137884 0.40760228 0.21648389 -0.27253026 -0.031106697 -0.17773002 0.25008738 -0.0037830211 0.20768307 -0.12456212 -0.2437181 -0.29127088 -0.12261675 -0.4825434 0.18849583 0.12538414 -0.0021035862 0.0665651 0.06149349 0.31404757 -0.13615651 0.56521904 0.17473257 -0.11904557 -0.012602102
1272 -0.0837784 0.18242045 0.25861707 -0.008995101 0.37683713 0.1387417 -0.042423178 0.18505828 -0.32984662 0.1425752 0.16889884 0.33041096 0.018442806 -0.03777528 0.014844629 0.021613415 0.4851424 -0.08317269 0.1810232 0.29410845 -0.08477228 0.11793762 -0.14016114 -0.12613219 0.34518075 -0.14195909 0.08699562 0.4378684 -0.13681965 -0.20839201 0.035644732 0.08988168 0.08516881 0.012393496 -0.012198985 0.0019594666 -0.041685995 0.29324973 0.43660203 -0.16377005 -0.2658825 -0.12570222 -0.12132458 -0.18164255 -0.054969296 -0.2839671 -0.27481252 0.18518403 0.2719338 -0.11864708 0.106352575 -0.5666572 -0.31118047 -0.09663555 0.0034811809 0.26890698 0.23478758 -0.035148095 -0.24854319 0.11962195 0.07038765 0.17911199 -0.069502115 0.042412657 -0.082309164 0.19310576 0.12812388 0.100093305 0.24948303 0.06298526 -0.19084197 0.01481945 0.03672542 -0.033563744 0.13609293 -0.12658899 0.15902527 -0.16920534 0.018907329 -0.31631738 0.016563578 -0.25478485 -0.17300221 -0.07347847 0.06686265 0.22354195 -0.10183769 -0.22609657 -0.5272547 0.10558204 0.04231941 -0.314693 -0.17554198 -0.13535284 -0.08223825 0.21513979 -0.17337106 0.056802094 -0.0438966 -0.08117752 -0.22983919 -0.053460617 0.026528856 0.20272855 0.43580619 0.12903689 -0.1626033 -0.050185304 -0.11676045 -0.20776397 -0.2964111 0.17550837 0.058764614 0.42932498 0.15092705 -0.036178455 -0.14957541 0.14277025 0.057862982 -0.24829467 0.41420138 0.1798039 0.29008085 0.39510852 0.14169332 0.18568422 0.21099386 0.03618825
2440 -0.36095712 -0.09111922 -0.10656926 0.21209963 -0.051163662 0.23596473 -0.0066476823 0.32172304 0.16562776 0.05739778 0.569067 0.15684283 -0.26535165 0.05615979 0.12723653 -0.5147206 0.37731668 -0.29409227 0.13122419 0.2644553 0.056476917 0.09753379 -0.095751725 -0.038190372 0.13092873 -0.021695146 0.11869124 0.35742727 0.18370637 -0.8481757 0.046938635 -0.01577986 -0.037580777 -0.1568542 -0.2306172 -0.0064367987 -0.40450007 -0.22630838 -0.08178968 -0.44177705 0.06535886 -0.23157814 0.10911826 0.21314041 -0.47838297 -0.16673982 -0.021147199 -0.07894938 -0.4244312 0.10030926 0.42818162 -0.6523695 0.035204448 -0.041299302 -0.23366931 0.35342866 -0.049159348 -0.10159493 -0.19592938 0.69218475 -0.009840877 0.2973318 0.051171772 -0.04669591 -0.19581458 -0.69470567 0.08190775 0.45756805 0.04320066 -0.00849409 -0.15559493 -0.03762421 -0.42878482 -0.03092308 0.31132728 -0.0406132 -0.1472818 -0.24635014 -0.19587837 -0.15424778 0.20970133 -0.13189875 -0.19940467 -0.053009927 -0.04596376 0.23981348 -0.053709663 0.022533514 -0.38649112 -0.33833635 0.14017414 -0.3689367 -0.30116957 -0.4123433 0.044789933 -0.6276704 -0.16836782 -0.24382293 -0.20252089 -0.10978125 0.19158946 0.048533108 0.12347044 0.22682966 0.036137097 0.46320337 0.101872034 0.05798193 -0.14755747 0.17511845 0.066801645 0.32082492 0.35654446 0.07714911 0.26779982 0.09473376 -0.48659208 0.04084087 0.23729225 -0.03482839 0.37595192 0.2095374 0.15652706 0.15721059 0.3407475 0.081873156 -0.22207034 -0.25647622
4584 -0.08192518 0.13354707 -0.011159928 -0.33105668 0.11715579 -0.085743695 -0.20631878 -0.19231711 -0.53067625 0.17775892 -0.066554435 -0.0070465677 -0.21432811 -0.1670445 0.13922964 0.12846695 0.03554702 0.08322276 -0.18444219 -0.11183767 -0.10289296 -0.056977194 -0.06045326 -0.38419235 0.1527906 0.26790315 -0.03347959 0.16598116 -0.277831 0.05702833 -0.113432884 0.035839844 0.084803455 0.11699487 -0.0030165266 -0.1493888 0.34388 0.33261698 -0.006436657 0.009917776 -0.10142907 0.06575894 -0.07722257 0.28067604 0.024968926 0.035123717 0.31400844 0.20434752 -0.25052056 0.10386776 -0.093630396 -0.1313682 -0.17555268 0.058127377 0.15542606 -0.059126955 0.07138916 -0.054707542 0.22429705 -0.033563536 -0.17970507 0.3826659 -0.0022665313 0.1105595 0.059826516 0.02554518 0.049322993 0.040247854 0.24927546 -0.055794798 -0.0734376 -0.085108414 -0.027227966 0.19328776 -0.06334409 -0.3742929 0.3509094 -0.2086651 -0.0031005477 -0.055627525 -0.48439518 0.040047266 -0.19845071 0.076896586 -0.24917227 0.10381814 0.019829435 -0.03344888 -0.15160689 -0.15989302 0.2564771 -0.22943 -0.40322682 -0.44498923 -0.12411033 -0.055865146 -0.35772055 0.021392915 -0.12894152 0.35528973 -0.3715269 -0.014295601 -0.02154413 0.2537085 0.12737656 0.34504053 -0.34724775 0.17997037 -0.17031848 0.30969188 -0.038073007 0.18111277 0.08649158 0.10713116 0.21076775 -0.26359212 -0.11380135 0.2672829 -0.103943564 -0.11266942 0.23437372 -0.39845303 -0.023784287 -0.21529688 0.22609685 -0.35374445 -0.07726727 0.15901884
24966 -0.1740932 0.15458122 -0.019499103 0.2630978 -0.07331524 0.018195553 0.11404625 0.14914294 -0.3423884 -0.08332729 0.079335935 -0.51384693 0.25415465 0.36507866 -0.2628896 -0.20949908 -0.035724528 -0.43582067 0.10429646 -0.3031841 -0.034662843 0.21541053 -0.10860574 -0.57136804 -0.012364056 -0.1858255 0.171423 0.1836854 0.5418436 0.06814129 0.22421701 0.24981737 0.33457088 0.30397806 -0.051560555 0.6185358 -0.22467667 0.05309974 0.1617202 0.15295608 0.3313599 -0.23461999 0.08685532 -0.2786496 0.26654425 0.045874443 -0.19670318 0.2846659 0.14931598 0.10581312 0.10832899 -0.08922914 0.2590374 -0.07914205 -0.31342563 -0.017308053 -0.350071 0.28673208 -0.43320665 0.2719085 -0.3249319 0.11439493 -0.31387812 0.09095048 0.14264242 -0.22947355 -0.441512 0.010213966 -0.38712916 -0.02353137 0.11396939 -0.31489512 0.41811317 0.11248667 -0.43531594 -0.54094374 0.39854184 0.15971941 0.34492606 0.10840352 -0.06078215 0.041805733 0.11047676 0.13046874 -0.28182894 0.071116924 -0.12170711 -0.40261254 -0.28486 -0.100324795 -0.115609005 -0.1901272 -0.12495503 0.49012813 -0.3774867 -0.38273135 0.11878622 0.1575944 0.5087235 0.23326944 -0.04196843 -0.14872412 0.23748276 -0.028585276 0.21213154 0.17839107 0.0943316 0.2763398 -0.3679209 0.79573447 -0.11879595 0.004956691 -0.23675396 -0.07653384 -0.02824854 -0.13518602 -0.12864445 0.22286262 -0.22086827 0.07473862 -0.00753752 0.019517101 -0.046837296 -0.14527959 -0.047561347 0.15870744 0.3835066 -0.1062876
6214 -0.03691525 -0.060722023 0.13401952 0.086950116 0.107951485 0.12311438 -0.31423852 0.10032999 -0.17268294 0.167066 -0.012895117 0.19284716 0.01102606 -0.054585915 -0.0095772 0.3110558 -0.05953733 -0.08112988 -0.29086024 -0.41436028 0.14393929 -0.38082254 0.033292532 -0.2565897 -0.11898697 -0.022463322 -0.04352605 0.36244377 -0.3524506 -0.04026627 -0.15989089 -0.28836468 0.089361325 -0.21906222 0.14330678 -0.19279599 0.28974319 0.44650674 -0.16966745 0.19629936 -0.04991082 0.17214434 -0.24404734 0.23269649 -0.22630586 0.037056327 0.064511515 0.09921038 -0.21746771 0.16124484 0.13042179 -0.035473466 -0.016022488 -0.09338187 -0.045098837 0.18598959 0.014960041 0.09014054 0.07595538 -0.25086638 -0.22424202 0.116631255 -0.18386713 0.17980431 -0.031297803 0.0634464 0.09047162 0.14655939 -0.24802995 0.15211195 0.08869966 -0.13298336 -0.12959489 0.022381218 0.074355684 -0.35807988 0.3562597 -0.1288012 -0.04504374 0.10487631 -0.48403716 -0.110149555 -0.24421085 -0.26032236 -0.38926885 0.33774972 0.21415807 0.044042546 -0.14816141 -0.20219162 0.028522564 -0.03908314 -0.323524 -0.12697028 -0.19589789 0.020350955 -0.29602793 0.13362126 -0.05592902 0.32267487 -0.25445452 0.35205752 -0.05587509 -0.02377679 -0.0007437547 0.3733414 -0.20497662 -0.124583736 -0.41352937 -0.084396824 0.086524814 0.416712 -0.16707696 0.008910883 0.096746035 -0.20094751 -0.10681254 0.3185194 0.07047104 -0.14039163 0.3603596 -0.2021479 0.25223392 -0.3334973 0.14203525 -0.1195078 -0.00015275515 0.11341135
887 -0.24311061 0.13516071 0.07212904 0.19205242 -0.03933711 0.10103917 0.10529916 0.040370047 -0.08924552 0.13870719 0.43311018 -0.08744149 -0.07772286 -0.026374115 0.22872488 -0.012959922 -0.1606933 0.19530837 -0.38201874 -0.31632242 0.036358193 -0.030324727 -0.40859404 0.33885542 -0.005129824 0.027679555 -0.15504907 0.002979335 -0.1828873 -0.032252368 -0.19369307 0.052496396 0.06686374 0.046012893 0.012977707 -0.09859055 0.1590151 0.104774855 0.024791816 0.022217374 -0.027909 -0.028255861 -0.18141578 0.07522032 -0.20640126 -0.12819584 0.28721997 -0.23894173 0.065965205 0.2965629 -0.2837485 -0.34225124 -0.010312294 0.033473715 0.05659342 0.34341606 -0.16032645 0.17808515 -0.33332652 0.2669784 -0.21976465 -0.14498381 0.028825032 0.23586413 0.18537413 0.03056675 0.014751887 0.041522436 -0.013809256 0.058551174 -0.039049257 0.10800295 0.12453417 0.007761104 0.04382826 -0.1614368 0.44888178 -0.1563747 0.08918616 0.14636374 -0.40131986 0.2874444 0.3719732 -0.50252795 0.021270942 0.16424987 -0.0031957666 0.26771912 -0.037987746 0.0028995785 -0.20532556 -0.22709861 -0.19293588 -0.28088716 -0.00808453 0.19550237 -0.18502714 0.07390558 -0.33127755 -0.07209295 -0.011870092 0.10171678 0.3355144 -0.24099125 0.06151968 -0.23611376 -0.15497656 0.051664557 -0.27717814 0.20784073 -0.16985942 0.5408741 -0.15120211 -0.2034816 0.29853186 -0.03507705 -0.14772187 0.16481481 -0.19093052 0.2895408 -0.21549685 -0.4179631 0.005993349 0.17702843 0.48581955 -0.24079634 0.07711699 -0.2278217
2665 0.39045334 -0.07455456 0.28632647 0.011013792 -0.16157499 0.138309 0.10813151 0.2048857 0.2312212 0.17281125 0.52789444 0.294679 0.4587056 0.4020745 -0.070313744 -0.06572801 0.08741163 0.040544495 -0.14445211 -0.45496973 -0.052155096 0.5263225 -0.27677414 -0.6223999 -0.7774114 -0.29298174 0.25499943 0.036117725 0.20107876 0.3127323 -0.44132578 0.9317378 -0.16114339 0.06133049 0.26858878 0.23800802 0.21037613 0.56044 -0.18421511 -0.042079512 0.15147938 -0.2864306 -0.1915354 0.6452488 0.09150757 -0.15395795 0.49374428 -0.02859926 -0.33910048 0.010927022 -0.26269352 -0.23912567 0.6806059 0.46221313 0.26639542 0.038778853 -0.35412973 0.2904279 0.55752206 0.5992596 0.09877115 -0.27971458 0.47301564 -0.10222179 -0.37531054 0.3199461 0.12492125 0.02353027 0.1450668 -0.08742938 0.5216042 -0.109134294 0.7204479 -0.31244895 -0.22459303 -0.039765235 0.06778346 0.021462029 -0.1727452 -0.40388474 -0.056964397 0.19458176 -0.381729 0.16225678 -0.051243536 0.24428627 0.07660848 -0.14381638 -0.38501194 -0.06935826 -0.52188957 -0.08594122 -0.5750178 -0.12506175 0.2957361 -0.19052233 -0.060444944 0.18639663 -0.23686641 0.17639475 -0.26902768 -0.31241181 -0.20116608 -0.34749785 0.44133338 0.41576242 -0.23412454 -0.25855938 -0.7553091 0.4940964 0.3127222 -0.217779 0.71561754 -0.12471748 -0.052157067 0.09465044 -0.098715134 0.26352647 0.23103116 0.22072597 -0.123185344 0.27541617 0.24752082 0.044375084 0.29414704 -0.2617698 0.66838384 0.4334087
20193 -0.123615704 0.03144613 -0.2710907 0.15376599 -0.695839 0.35801432 0.07951572 0.7351942 -0.08288444 -0.026852572 0.053864714 -0.12711139 0.10443987 -0.6560248 -0.22102247 -0.019228399 -0.78188914 -0.5870613 -0.4655271 -0.121297725 -0.21548428 0.260898 -0.00075885333 0.11567863 0.71347684 -0.06694549 0.45697147 -0.25392184 -0.28494254 -0.3393051 0.40202755 -0.004054016 -0.107353166 0.28454223 0.09173954 0.12522455 -0.024736376 0.21927258 -0.13224223 -0.2018562 -0.1539781 -0.361777 0.37416434 0.16156155 -1.1735073 -0.34344143 0.1533441 0.3494987 -0.36913663 0.013381842 0.16063526 0.298748 0.021181848 -0.2751585 0.593211 0.004125874 -0.39890158 0.44781667 0.4344161 0.29895267 0.23774515 0.3682242 -0.09773295 -0.26031405 -0.061332967 -0.26852405 0.06268694 0.20950653 -0.09191493 -0.3092322 0.14361216 0.15386711 0.27512294 0.42218363 -0.19272749 -0.012073484 -0.11988434 -0.7943708 0.3930856 0.55318487 0.22110802 0.56259435 -0.11645592 0.22355889 0.5478258 -0.07421919 0.23123832 -0.3437128 -0.8558204 0.29713035 0.008605989 -0.19351187 -0.28965065 -0.48312113 0.23081796 -0.04770214 0.027795315 0.30306825 -0.164638 -0.27121723 0.089288026 0.028288357 -0.1771597 0.02446848 0.40464348 -0.1645193 -0.40463084 0.66521126 -0.14891133 0.21201503 -0.20854487 0.4475535 -0.06892836 -0.024069034 0.33417183 -0.013763737 -0.82781446 0.0507605 0.21178292 -0.7464792 0.3508531 -0.16406992 0.5656276 -0.06562333 0.19442137 0.08335714 0.52404606 -0.17198618
8224 -0.43831578 0.09586628 -0.12513189 0.040695045 -0.38313222 0.086618066 -0.101685725 0.10401007 0.052587003 -0.20464456 -0.2774475 0.032029774 -0.014410581 0.5765059 -0.20299739 -0.23257926 0.4756922 -0.21523169 0.072621904 0.3137417 -0.3941429 -0.020640409 0.16268533 0.27656573 -0.12015591 -0.0960999 -0.13306127 0.11221308 0.28283644 -0.5302322 -0.44411424 0.14590074 0.0128790485 -0.20017318 0.1722207 -0.030418787 0.054983344 -0.1607205 0.04635896 -0.38214716 -0.27472568 0.17251125 -0.13438548 -0.089091375 -0.3575209 -0.40728518 -0.1418022 0.44395164 -0.056844402 0.12784198 0.18472485 -0.38732103 -0.25681776 0.06784699 -0.22449109 0.49699256 -0.068333216 0.4827102 -0.20511827 0.6668115 0.2898678 -0.028046655 -0.19444284 0.30395153 -0.3439702 -0.07951656 0.019259166 0.12618242 -0.08528041 -0.03605167 -0.19340631 -0.035920486 -0.07847119 0.34663904 0.014932741 -0.080825955 -0.3620387 -0.17664535 0.20503426 0.09078915 -0.35865512 -0.21079233 -0.055116825 -0.06104785 -0.02060715 -0.062761135 -0.49009323 -0.14035906 -0.2874409 0.28461426 -0.23061083 0.06078035 -0.22843009 -0.18681066 -0.13409677 0.15556547 -0.1672238 0.15144116 0.31790915 0.059215337 -0.2577943 0.32832864 -0.25169602 0.16119966 0.27394146 0.4783226 0.10633298 0.09648451 -0.09375498 -0.010600161 0.011218839 -0.06903133 0.15612315 -0.11199486 0.24420923 -0.023308164 -0.45666677 0.2360001 -0.020746497 -0.33527148 0.04294368 0.10835009 0.33995688 0.19610175 0.3941747 0.0014449444 0.12834485 0.07926608
12182 -0.2408481 -0.72088 0.28439608 -0.11538474 -0.33859298 0.12280805 0.2850274 -0.2229312 0.061583795 0.42882854 0.35447818 -0.42437047 0.111968264 0.2506838 -0.30977097 0.47774836 0.20243284 -0.22448546 -0.18074389 0.8875831 0.25550142 -0.1367285 0.1747723 0.02689532 -0.01630626 -0.1133842 0.15056655 0.27656955 0.11907478 0.3013131 0.42006037 -0.04919149 0.2000334 -0.060158253 0.37717482 0.22441238 -0.074990764 0.28511798 0.11849351 0.22551906 -0.23308286 0.021740358 0.11035327 -0.12942508 -0.03939401 0.21049407 0.7406151 -0.0708861 0.09951977 -0.018687211 0.16945982 -0.6233729 -0.13384092 0.36741486 0.41538367 0.33567452 0.275171 0.27744815 0.1514378 0.40874743 0.2002765 -0.3142185 -0.43555313 0.054435764 -0.7539773 -0.065269224 -0.293527 -0.3011926 -0.7903387 0.20813584 -0.06286426 0.055196524 -0.33444962 0.113648005 0.53755355 -0.36558938 -0.20585638 0.004832133 -0.1904707 -0.24387275 0.008620784 -0.36924896 0.13281001 0.2188965 0.1546495 0.07460944 -0.39764816 -0.43511897 0.043292113 -0.3438289 -0.1692421 -0.31332853 0.08096978 0.24848239 0.111591846 -0.41370937 0.085671715 0.31751484 0.21754235 0.6096342 0.12274325 0.22382267 -0.17922555 -0.17245764 0.22843151 0.31145558 0.25268567 -0.002960453 -0.07643151 0.14502132 -0.23761678 0.5636579 0.0479674 -0.15591204 0.25384057 0.12566943 -0.28317988 -0.3722742 -0.33241373 -0.30583727 0.2601789 0.04408654 0.12136142 0.19332595 0.134671 0.21162789 0.72103506 -0.29581746
82920 0.049502295 0.134001 0.028160984 0.17519741 0.61019266 0.2171609 0.004398632 0.117168464 0.08399432 0.1725063 0.1364154 0.09959807 0.115103245 0.57659245 -0.021395398 0.34076533 0.30431706 -0.18070577 -0.56438863 0.27672398 -0.29354298 0.116224416 -0.2718261 -0.18173046 0.1378501 -0.04696972 0.040213197 -0.24644983 0.007136964 -0.10595895 -0.057969008 -0.3555747 0.24959786 0.15122734 0.3173197 0.082046166 -0.25735334 -0.070202105 -0.20946948 -0.19171739 0.15780018 0.071608014 -0.12666877 -0.26144922 -0.0646451 -0.28499264 0.22689097 0.23411581 -0.30604395 0.54440665 -0.041621987 -0.10329758 -0.082035884 -0.48063865 0.6776772 0.14785981 0.16287714 0.44403508 -0.08792658 0.19514678 0.13270706 -0.12867859 0.07253072 -0.0054193214 0.13005704 -0.056738224 -0.1716152 0.48450637 0.028140457 -0.124585785 -0.2784274 -0.21769485 0.17236169 -0.14250919 -0.027021486 -0.22873473 -0.38608363 0.0705506 -0.1287368 -0.0928754 -0.389587 0.5682271 0.20489359 0.06751077 0.15677854 0.04148301 0.1147424 0.34916747 -0.19801992 -0.46082255 -0.26400313 0.0038213648 -0.31287906 -0.22296292 -0.52216905 -0.19371004 -0.19555297 0.627099 0.10869402 0.18658729 -0.21171953 0.29205823 0.21634154 -0.015973788 -0.24223226 -0.51143706 0.036516625 0.42014074 -0.36227682 -0.51801723 -0.41581035 0.2752676 0.46620756 -0.060251668 0.034826204 -0.1869485 -0.44223708 -0.1467848 0.023393279 0.44546002 -0.18328673 0.18515167 -0.39473522 0.14453031 0.11136653 0.11050212 -0.07036823 0.34244832
10169 -0.17863178 -0.17370537 -0.12600148 -0.13257279 -0.05087881 -0.24023376 -0.1395006 0.06941126 -0.0068165627 -0.39245003 0.49720383 -0.12087472 -0.050108366 0.40470225 -0.062274307 -0.11388063 0.19757612 0.34892124 0.012508798 0.25380483 0.10884134 0.05913581 0.08951577 -0.35951528 0.40191066 -0.5256189 0.04949005 0.3098913 -0.42658472 -0.35556474 0.0059331246 -0.1380002 0.09802397 0.2335421 0.1564323 0.26288423 -0.15792044 0.23443072 0.17575079 -0.40921435 -0.080582835 0.050506346 -0.13384901 -0.010766034 -0.35163248 -0.2150227 -0.30914685 -0.1943373 0.4068267 0.045694273 -0.19134489 -0.58336663 0.12263138 -0.06491625 -0.0053347168 0.3884632 -0.03632658 0.18495247 0.015355811 0.16628061 -0.08588632 0.05516938 -0.045109536 0.02327757 0.11724567 -0.0027373317 -0.3154003 0.07866627 0.29194936 0.01699118 -0.07103054 -0.36732444 0.22257057 0.18523568 -0.2340049 -0.29059646 0.036212318 0.09326435 0.020318722 -0.3482683 0.0029778488 -0.20094593 0.1368408 0.25487706 0.3378144 -0.34976822 0.36550933 -0.2909573 -0.32692152 0.16096732 -0.032588646 -0.36722955 -0.037781004 -0.047618683 -0.0058353 0.028372252 -0.22483794 0.37757966 0.22099108 -0.40431404 -0.47202942 0.17403466 -0.6762932 -0.13176146 0.2916674 0.17026523 -0.29482615 0.09984567 0.42108142 -0.19257793 0.01146633 0.29240543 0.20888063 0.24991383 0.56257915 0.24920733 0.1092584 -0.18986076 -0.20018315 -0.008371715 0.13474284 0.1568731 -0.023901606 -0.09143121 0.13690037 0.051736806 0.0081684515 -0.114936635
12350 0.16934669 -0.059083637 0.40039453 -0.27144113 0.038426705 0.115935124 0.3561577 0.13693836 0.045528024 0.22361636 0.29804546 -0.20496352 -0.22424771 0.3635627 0.16002399 0.33075407 -0.097092114 -0.12959564 -0.2532809 0.7376341 0.14942837 -0.07019954 0.18760039 -0.1774807 0.028186774 -0.48519787 0.35046786 -0.12387417 0.29808208 -0.36002862 0.20309703 -0.5660627 -0.05881054 0.029102568 -0.044343196 -0.2155928 -0.05951609 0.35669038 -0.058966897 0.17014274 -0.40791696 -0.14180624 -0.3394685 -0.24392875 -0.16967426 0.02650627 -0.0010600279 0.072923735 -0.20452388 0.00866946 -0.007686564 -0.22693168 0.033536516 0.5546093 0.10426529 -0.08463885 0.10540385 0.30950063 -0.05994725 0.19568849 0.25024012 0.22051358 -0.6190642 0.35204393 -0.10176104 -0.2151869 0.080701254 0.045818027 -0.38710272 0.33514586 0.04084814 -0.47457567 -0.40249726 0.07162774 -0.11840435 -0.31481162 -0.12154662 -0.13983148 -0.21308385 -0.046606436 0.281299 0.31085208 0.1374209 -0.13541208 0.43127918 -0.019161126 -0.123871714 -0.35062125 0.035417058 -0.04892136 -0.071065135 -0.18873137 -0.4782325 -0.1118817 -0.10547949 0.08386088 0.30811888 0.32507977 0.3249931 0.08430035 0.054374054 0.23932153 0.18947546 -0.061719358 -0.024231065 -0.06295079 0.22264332 0.043018863 -0.44016597 -0.14466564 -0.07894149 0.47405386 0.45803198 0.5602123 0.41607782 0.11578561 0.15085807 0.024198238 -0.09416421 -0.090021655 0.30060813 -0.048201084 -0.21196906 0.05177653 0.18965837 -0.18463552 0.68196654 -0.026540209
22563 -0.111012876 0.37485966 -0.3105779 -0.26763335 -0.35231102 0.23962952 0.14278938 -0.28711084 -0.10431441 0.13626356 0.33594772 0.61276865 -0.1939612 0.48667866 0.07635693 -0.32560658 0.16946208 -0.27147847 -0.25276113 -0.12657969 -0.09021133 -0.43941763 -0.006839954 0.20264225 0.17403974 -0.23001046 0.049258094 -0.3436073 -0.03534636 -0.2727725 -0.13766392 0.14974566 0.19105728 -0.034292903 -0.025290897 -0.04250772 0.0462299 -0.34239078 0.308932 -0.1333076 -0.30870485 -0.43139344 0.018470386 -0.22248048 -0.13579863 -0.28634214 -0.059076548 0.34066808 -0.03158229 -0.09807188 0.20187049 0.013036684 0.27367964 0.4122481 -0.06812461 0.26842394 -0.034880053 0.34434375 0.23921722 0.18167463 0.088122636 -0.079768844 0.069927 -0.16446419 -0.3412049 0.117548175 0.3114428 0.20861137 0.01871892 0.20551047 -0.024299206 0.08966425 -0.029300306 0.115332454 0.16480233 -0.15290494 -0.13509272 -0.22690329 -0.1707522 -0.005646477 0.055149604 0.14018176 -0.33958 0.05914903 -0.20107587 0.15462495 0.00811081 -0.12245449 0.20790464 0.2054926 0.05246482 0.326764 -0.13805892 0.1771976 -0.38940907 0.083054096 -0.38342306 0.45400834 0.51004255 -0.025548456 -0.6524759 -0.085829146 0.06524202 0.1795728 0.11078503 0.15661342 -0.02296981 0.25552198 -0.37189922 0.20907697 -0.10864844 0.22521763 -0.062189884 -0.13452053 0.2388758 0.13056795 -0.29681355 -0.12336288 -0.2798158 -0.36233965 0.17604081 0.00029967588 0.49892804 0.5044847 0.24124126 0.13876863 0.22965068 -0.15515736
12576 -0.0022193242 -0.22148423 -0.26456314 -0.3155552 0.052006703 0.031525787 0.42668724 0.39159757 -0.629546 -0.14874521 0.33694342 0.19230986 -0.038569883 0.37290475 0.1263281 0.6085125 -0.2577011 -0.0073311343 -0.3797928 -0.09065089 0.21701717 -0.26096317 -0.28565496 -0.2747603 0.3050784 -0.48105758 -0.10615734 0.09477258 -0.2024178 0.07140705 -0.005842472 -0.24077228 -0.1978998 0.09475391 0.0038182018 0.19691376 0.10032509 -0.18720599 -0.12705126 -0.13791862 0.25588378 -0.46310848 0.16281083 0.088157594 -0.32587954 -0.5981326 0.03089887 -0.027605632 -0.38423404 0.37188298 -0.5251663 -0.38016114 0.23424749 -0.20301685 -0.064273305 -0.22373317 -0.2512083 0.09749738 0.143084 0.042771176 -0.042297564 -0.25913307 0.07332108 -0.2080317 -0.21749175 -0.17325597 -0.14262457 -0.09621946 0.36899334 0.069156826 -0.55961263 -0.20547433 0.14844716 -0.11488396 0.19272137 0.1209283 -0.08534194 -0.42923352 0.10081549 -0.06032087 -0.51745546 -0.16536365 -0.0054050297 -0.2615634 0.31695637 0.18058239 -0.06411088 0.36723036 -0.049640223 -0.12053383 -0.31382957 -0.21251328 0.04513678 -0.32936317 -0.16715962 0.11565186 -0.14056356 0.32852888 -0.56709474 0.25899693 0.11979584 0.24277104 0.12181052 -0.15803818 0.64557815 0.23358539 0.34052813 -0.009373815 0.15966414 0.005523542 -0.106637865 0.45210347 -0.16826391 0.02496522 0.10314078 -0.07321732 -0.21900907 0.28396234 0.0022373556 0.58190477 -0.25113198 -0.54186875 0.099863335 -0.07374099 -0.0022865273 -0.23264916 -0.06175069 -0.2983362
31353 -0.21192737 0.14276965 -0.2542761 -0.5053452 -0.21288428 -0.06583996 -0.029511368 0.012463274 0.075079404 -0.3968709 -0.34782916 -0.425585 0.24377257 0.13515364 -0.57831794 -0.009220012 -0.07549872 -0.060194455 -0.1516671 0.08985275 0.27900892 0.22684433 -0.5503832 0.106930785 -0.41955364 -0.43998572 -0.17895916 0.26919335 0.066467494 -0.14202417 -0.15250221 -0.02599096 0.5176791 0.10526385 0.18818818 0.50212884 -0.5097473 0.51071733 0.66678 0.16794458 -0.4388399 0.37949625 0.21982388 -0.13008429 0.14841324 -0.49813053 -0.12797089 0.0033233021 0.080611885 -0.82252914 0.117713995 0.023811989 0.5774904 0.039943796 0.49667153 -0.50441366 0.02033235 0.4431456 -0.16237861 0.6681657 -0.2958385 0.38178036 0.12880601 -0.16049676 0.10265369 0.25609612 0.515574 0.25552678 -0.7453362 -0.23811777 -0.27438897 -0.52787274 -0.1327792 0.4677838 -0.12903401 -0.3110631 -0.57137334 0.10099011 -0.0714594 -0.13524434 0.23275182 0.20768562 0.08440495 -0.40119085 -0.17885882 0.56567276 0.012674322 -0.643383 -0.23889409 -0.5866028 0.31835052 -0.084305316 -0.5142608 -0.5290044 -0.2085229 -0.22881556 0.11518164 -0.2099976 -0.009763715 0.19084395 -0.49937943 -0.12620763 -0.28394493 0.12217793 0.2509948 0.25662664 0.2924775 0.1288115 -0.04665488 0.39281958 0.08954025 0.8031975 -0.1224958 0.26121238 0.40705672 -0.4305049 -0.012568314 0.020256042 -0.42277253 0.7553718 -0.1554322 0.32401773 -0.64698005 -0.01700685 -0.099903665 -0.36691695 0.59239733 -0.15935099
15429 0.08234324 0.0657868 0.049380705 -0.01177769 -0.16393252 -0.19409016 -0.07018914 0.08884375 -0.24352808 -0.17774343 0.5186234 0.025326837 -0.399006 -0.06779082 0.29124382 0.27635947 0.12794948 -0.06571603 -0.30230832 0.49052185 0.49060503 -0.40149096 0.039268807 -0.6147479 0.21254411 -0.7632807 0.19135123 0.20247708 0.104531266 -0.031277053 0.18665095 -0.2282033 -0.36793396 -0.035864882 0.08680023 -0.20653585 0.30058566 0.262481 0.4368474 -0.45538744 0.07175276 -0.20125651 -0.2662245 -0.3246395 0.052778892 -0.19525254 -0.13850553 0.098036245 0.37309435 -0.054800056 0.064646445 -0.3952455 0.08644705 0.26680917 -0.15834288 0.096099004 -0.04164318 0.56962544 0.18071693 0.092427984 0.060585476 -0.10954531 -0.6353705 0.20369662 -0.35382402 -0.26917246 -0.18815227 -0.105723366 -0.5564552 -0.09792326 -0.30944586 -0.35896444 0.24151014 0.30541173 -0.30049568 -0.41440898 -0.42724907 -0.042130254 -0.21671157 0.22463337 0.27380022 0.35799134 0.34225586 0.006341951 0.19197147 -0.08878248 0.30050668 -0.54910535 -0.09212705 -0.24704266 0.17251904 -0.50286645 -0.31536672 0.05523183 0.013307652 -0.59308213 -0.12267681 0.22530381 0.41062874 -0.30179787 -0.3723819 -0.061309718 -0.029036233 -0.14610653 0.552728 -0.11056248 0.338959 0.19315255 -0.049483944 -0.5072334 0.03352755 0.08035086 0.091148734 0.12961246 0.1418387 0.48585984 -0.36280698 0.21841413 -0.33888406 0.06434608 0.14540176 -0.2790413 -0.24674603 -0.41988507 -0.21550085 0.081102796 0.46581307 -0.21942683
8703 0.35665107 0.19794077 -0.0041916664 0.08828854 -0.02310763 -0.27461287 -0.16157308 0.08265327 -0.2580383 0.7382107 0.059913 0.197153 -0.4498602 0.17130457 0.012885378 -0.070226364 0.2765902 -0.41448763 0.13017046 0.08156818 -0.34837523 -0.32453212 0.7331147 0.2881857 -0.061019365 -0.38902986 -0.16267797 0.07081661 0.13888797 0.042574015 -0.078982145 0.36588168 -0.010489316 0.10801714 0.3917902 -0.34240875 0.3029729 -0.019640483 0.44258484 0.39013243 -0.3460359 -0.5134108 0.00822865 0.28064302 -0.35821378 -0.3683771 -0.063615695 0.6572642 -0.12602206 0.0949415 -0.0738094 -0.24851364 0.17273876 -0.10900659 -0.039539993 0.854595 -0.37103564 0.2239108 0.1553715 0.2665085 -0.33592567 -0.09452954 0.16557702 -0.38587826 0.33799204 -0.79760647 0.22323889 0.3621639 -0.1838636 0.34600046 -0.11604225 -0.4347152 -0.012140866 0.207569 -0.56906843 -0.09028805 -0.09912667 0.101811595 0.022068778 0.11696602 0.25403184 -0.124523476 0.15609528 -0.08617636 0.5928895 0.21242239 -0.0066818846 0.10117869 -0.44220543 0.15213647 0.13999768 -0.14167066 -0.09954946 -0.06467047 -0.22699207 0.053971168 -0.026952473 0.16372378 -0.108813815 0.09170244 0.044046905 -0.07974404 -0.050538648 -0.032071713 0.21982901 0.48762327 -0.31966594 0.043806802 -0.37475318 -0.041503094 0.20645924 0.5375703 -0.03410119 -0.0927999 0.30056152 0.08832055 -0.13525152 -0.18898149 -0.35667044 -0.11244871 0.28066933 -0.15602322 0.38668236 0.2243074 0.14517269 -0.085146494 -0.17238082 0.15372866
39890 -0.16289243 -0.17196268 0.04636234 0.0029484204 -0.036299646 0.22178587 -0.14277235 -0.07498429 -0.08784753 0.24935105 -0.26622778 -0.12513302 0.01574573 0.33502638 0.09267325 -0.2721772 0.0922429 -0.13124883 -0.31279895 -0.05168453 0.06836205 -0.21976751 -0.5422969 -0.59762704 -0.13729893 -0.021247594 -0.074502766 0.8497328 -0.20955653 -0.07482318 0.40656504 -0.31967893 0.6161176 0.027870528 -0.02204972 0.20288692 0.6458216 0.0017776694 -0.10883141 0.0021648996 -0.00080895063 -0.71933186 0.09146275 0.34518757 -0.2504533 0.28082627 -0.07158128 0.61276877 -0.3770672 -0.22163415 0.09467314 -0.54212046 -0.18546316 0.1808473 -0.1081827 -0.17509598 0.2837786 0.019157043 -0.28568327 0.36029774 0.21404661 -0.18621774 -0.07502635 -0.57167697 -0.52591556 0.13167794 0.19612485 0.29883295 -0.33182988 -0.366743 -0.04063887 -0.538774 0.574137 0.3112269 -0.17514303 0.33276463 -0.0567027 0.4898177 -0.4741012 0.48648965 0.2880791 0.17592436 -0.53726417 -0.24674258 -0.17406872 0.29326925 0.2884801 -0.06570197 -0.21232578 0.48948008 -0.16051975 0.023998354 -0.24296804 -0.06980674 -0.09980717 -0.19604181 -0.18653834 0.30573344 0.2850895 0.014790141 -0.1816007 0.33999696 -0.25219142 -0.55774534 -0.38322684 0.52725446 -0.3586529 0.4033546 0.010453495 -0.08732707 -0.9562308 0.4611955 0.48003867 0.26387432 0.08502161 0.3980283 -0.07360665 -0.11765112 -0.0066488483 -0.18947773 0.12303493 -0.056297656 -0.099159665 -0.16725084 0.18018544 -0.6471846 -0.07836957 -0.49791723
2653 -0.22880933 -0.54832363 -0.0604333 -0.48730695 0.10980296 0.16056414 0.27277058 -0.17090045 -0.19162892 0.07735649 0.12029507 -0.3545426 -0.1536354 0.05267965 -0.0538715 0.17585328 0.32343316 -0.30922598 0.0964801 0.2064288 0.17662613 -0.030608075 0.2503115 -0.1870588 -0.30005985 -0.38784358 0.15283254 -0.14526732 -0.29661366 0.13738643 -0.4307933 -0.27353716 -0.058759674 -0.083269954 0.28715116 0.5205155 -0.5552201 0.061065525 -0.090973385 -0.08900339 -0.39369312 -0.14417815 0.09980103 -0.30167973 0.17051284 0.020921962 0.42009556 -0.1586437 -0.057997387 -0.15483795 0.3445385 -0.7626007 -0.3492903 -0.10145748 0.078119434 0.70438975 0.02154806 0.09638338 0.27257332 0.5018569 0.6119955 0.01779815 -0.4125398 -0.17989096 -0.4180588 0.22401322 0.00208211 0.027420208 -0.27565527 -0.10408282 0.07692243 0.16351917 0.0791285 -0.08781345 0.1739774 -0.49120623 -0.011350554 -0.5220461 0.014412932 -0.33099213 0.024051486 0.17330469 -0.088013425 -0.10298449 0.25936845 -0.31502643 -0.21071775 -0.5279784 0.085225604 0.14331202 -0.07426047 -0.23228061 0.069837354 0.18709156 0.03733135 -0.3641305 0.022504758 0.013898116 -0.14088233 0.5115267 -0.4874383 -0.12844053 -0.043119233 0.1595031 -0.56227964 0.3270249 0.17474821 -0.25810158 -0.10207469 0.051647525 -0.36600593 0.3237673 0.22761372 -0.1766206 0.2103462 0.26247987 0.10040152 -0.2877915 -0.22371425 -0.2801546 -0.019621007 -0.27212697 0.1355028 0.18946002 0.27888831 0.45260668 0.49906725 -0.26552612
643221 -0.13628079 0.19896424 0.20850053 -0.3471915 -0.13050571 0.46430814 0.29802117 -0.020348288 -0.42251512 0.8426821 -0.5147069 -0.6340588 0.5251615 0.2678794 -0.6232786 0.28088394 -0.32724014 -0.34758085 0.08475732 0.39063203 -0.09863554 -0.73809916 -0.745453 -0.38577405 -0.38833117 -1.1601293 0.13293202 0.018792592 0.1934432 0.14644063 1.0476931 0.7236805 0.06364556 0.3276112 0.37475353 -0.30044344 -0.36062208 0.14726338 0.11561338 0.073871434 -0.9115791 -0.22742951 0.1659307 0.36897796 -0.023255706 -0.5334355 -0.12279979 -0.3105238 -0.19098917 0.20993492 -0.4716988 0.62494904 0.27024502 0.070061155 -0.35468194 -0.16267666 0.18085055 0.0019529263 0.47283697 -0.34095278 0.026061898 0.31433383 -0.53254604 -0.063996956 -0.13208202 -0.2894908 0.035723366 0.2706815 -0.10690472 0.43557674 0.066602916 0.97516054 1.0152394 0.19116572 -0.60600823 -0.22099635 0.23290773 0.4383067 0.056364004 0.15513544 0.09028314 -0.42498916 -0.10930204 0.44327542 -0.33487758 0.67785424 -0.2588315 0.53904206 -0.31341094 -0.3635405 -0.11268512 -1.5152714 0.09177679 0.11629324 0.02252774 -0.4264351 -0.6487914 -0.11334236 -0.4192355 0.3294484 -0.4644408 0.39528057 -0.33536175 -0.073664874 -0.73495424 0.23802382 -0.15182368 0.39876524 -0.1753322 0.12264312 0.014279559 0.21969183 0.5567543 -0.521823 0.81712687 0.3989379 -0.13482143 -0.38005742 -0.15479402 0.22422451 -0.3728372 -0.3437606 0.30202845 -0.38101256 1.1196287 0.055181403 0.17273478 -0.381063
3220 -0.044261932 -0.049596466 -0.7004825 -0.43342593 -0.16755137 -0.08988279 0.26310825 0.013250895 -0.14424777 0.052381847 0.06218278 0.34877604 0.1340382 0.123932704 -0.22435947 -0.36423677 -0.079410814 -0.41119954 0.03819559 -0.33546674 0.23696303 -0.5489004 -0.21467742 -0.23159276 -0.17581344 -0.4230425 -0.21892788 0.037107185 0.2212119 -0.2130049 0.07075489 0.10337564 0.3050025 -0.10835679 0.06832924 0.13608319 -0.23648444 -0.06712933 0.4355691 -0.14614049 -0.41006225 -0.11041478 -0.24492404 -0.14777295 -0.08704502 -0.16382618 -0.046311542 -0.4663654 0.120835796 0.14740658 0.027456706 -0.28903028 0.011507745 -0.11095759 -0.41389635 0.1393942 -0.21404791 0.46252337 -0.06241475 0.12051805 -0.29330653 0.100768715 0.0957547 0.1559774 -0.63030154 -0.14594533 0.5623301 0.44213605 0.12229449 0.15189376 -0.27529186 -0.14645275 -0.7927336 0.56245846 -0.037040938 -0.21858066 -0.5355498 -0.0024855155 0.2435768 -0.011396539 -0.04457489 0.33800593 -0.36482233 -0.007834124 -0.021626025 -0.21367078 0.5120116 0.0274796 -0.22040275 0.13405912 -0.33051723 -0.20281528 -0.23565021 0.08211233 -0.4595685 0.183258 -0.3320648 0.2717244 -0.016223317 0.111114904 -0.20998304 -0.3228218 -0.58827686 0.16078246 -0.08825121 0.015209082 -0.270224 0.30717906 -0.65364414 0.2544868 -0.014551383 0.04211372 -0.018481888 0.117137864 0.40433785 0.34707424 -0.119239606 -0.22987388 -0.6800399 -0.28550917 0.09006784 0.4654112 0.4250008 0.67651075 -0.17067428 -0.17288665 0.51513493 -0.2669056
3191 -0.44829404 0.301171 -0.1134017 -0.25662762 -0.04776897 -0.3280692 0.27525073 -0.057853572 0.17646286 0.15872607 -0.093712434 -0.3453239 0.23575744 0.33065766 -0.085881464 0.012787144 -0.20555678 -0.12160992 -0.22413099 0.091748506 0.27582854 -0.047368344 -0.069036484 -0.4497582 0.06631925 -0.28990775 -0.3574622 0.4483895 0.025996821 0.017403256 0.40029153 -0.46523023 0.55601764 0.12676911 0.44687048 0.49062672 -0.26880923 -0.10885191 0.045393247 -0.1846396 -0.31269598 -0.4780586 0.12159185 0.17510048 0.2515142 0.44871056 -0.16025056 0.54740834 -0.17868267 0.16421829 0.17028932 -0.581079 -0.24155429 -0.008290244 -0.13636881 -0.30242792 0.09310406 0.010792902 -0.30400947 0.45433006 0.038728338 -0.12228013 0.10698737 -0.22396614 0.00640703 -0.26148698 -0.012473519 0.35466984 -0.30567333 -0.43619278 0.030218951 0.077488095 1.0503047 0.16422015 0.17575477 0.2539971 0.076533526 0.6031919 -0.19609262 0.14522257 0.46329308 -0.12380916 -0.29874673 -0.2510585 -0.08388715 -0.06825193 0.27238375 -0.5565137 0.15579459 0.6968563 -0.22050032 -0.15706222 -0.98511595 0.2538354 -0.11012975 -0.084972 -0.23642707 -0.17912051 -0.10494222 -0.03463789 -0.009184727 -0.40995258 0.009929193 -0.3971527 -0.05679749 0.2679939 0.13044554 0.06294691 -0.5312058 0.277464 -0.19327334 0.19624469 0.30111808 0.16632353 0.07411487 0.33485198 -0.2914261 0.1647847 0.30367932 -0.026915908 0.16620885 0.049347553 0.44014457 -0.44653884 -0.20365535 -0.43736255 -0.14989336 -0.27818772
1481 -0.16080193 0.33577892 0.35351878 0.39551723 -0.4298808 -0.14454617 0.16728376 -0.26924723 0.02120633 0.6520078 0.22871259 0.41792277 0.3154418 -0.2853346 0.26882976 0.5217217 0.096961126 0.055359047 -0.14390701 -0.12721477 0.1233149 -0.30684483 0.2303923 0.010917376 0.26488033 -0.4028811 0.33477023 0.14192715 -0.33604726 -0.02411835 -0.14566793 -0.4761823 -0.46925977 -0.23775917 -0.06227623 0.5705127 -0.048020426 0.048133235 0.23300628 -0.5066693 0.045687966 -0.26028347 0.16080184 0.12946229 0.16415133 -0.14803869 0.05578074 -0.16176449 -0.5923179 0.12184321 -0.18251878 -0.11454726 0.12358872 -0.28960463 -0.113373384 0.014344253 -0.24075948 0.36400223 -0.45066375 0.1333952 -0.23425464 0.21228233 -0.29285902 -0.28654364 -0.43460354 0.028803995 0.08668431 -0.07105914 0.4364911 0.02524459 -0.23527294 -0.3710187 -0.17372338 0.022603918 -0.36093217 -0.32994586 0.19394821 -0.22498506 0.3117954 0.5701849 0.1877185 0.16929317 -0.28670895 0.45330903 -0.29595602 -0.2658033 0.022829454 -0.077096894 -0.39349473 -0.04953511 -0.33806625 0.09885551 -0.40848064 -0.44441056 -0.25641733 -0.34445792 -0.04120588 -0.26753733 -0.45907995 0.15560156 0.16531564 0.08519175 -0.40254465 -0.49763644 -0.26767087 0.46402594 -0.21693961 0.3856697 0.11195777 0.15116215 0.08399333 0.3049365 -0.2904162 -0.13299493 0.19818944 -0.036525268 -0.3513084 -0.06520138 -0.026619792 -0.43134376 0.08266623 0.5099465 0.33736965 -0.2244023 0.37269917 -0.06327537 -0.06709982 -0.22761829
4804 0.12456809 -0.19117406 0.19541378 -0.11184653 -0.08543586 0.06839793 -0.12106119 0.15437514 -0.043834336 0.2947097 0.5209131 -0.20960343 -0.4602502 0.3327287 0.2183563 0.26776326 0.035638515 -0.15179649 -0.36803186 0.5409483 -0.0069257193 -0.38548225 0.21073917 -0.50271463 0.1286319 -0.6098796 0.35369316 0.08931816 -0.12686867 -0.062291373 0.17101438 -0.11266788 -0.018911017 -0.51838446 0.06134389 -0.34350985 -0.29561314 0.417284 0.138797 0.011920552 -0.19970463 0.25538304 -0.26736775 -0.4678238 0.14484376 -0.07138675 0.55831635 -0.1183983 0.1811349 0.30675694 -0.33867627 -0.53593683 0.0019860268 0.3999832 0.29207286 -0.008389801 0.20314406 0.3964164 -0.03580544 -0.033126723 0.027220214 0.32191473 -0.40312478 0.46167237 -0.13507356 -0.16047229 -0.12623468 -0.036121916 -0.49321917 0.037053958 -0.42260832 0.27705458 0.104138814 0.21208459 0.15346287 -0.20128621 -0.44435865 -0.1575954 -0.20467739 0.27160227 0.54353267 0.44754824 0.058567483 0.026988313 0.28192428 0.43691596 0.12636697 -0.64473397 -0.020671604 0.040272634 -0.25088415 -0.35103488 -0.21232975 -0.07890756 0.36507145 -0.22659911 -0.08395773 -0.004935876 0.55408794 0.024902828 -0.055355847 -0.09931952 -0.3537284 -0.28924233 0.45724097 0.5429147 0.68867666 0.20940237 -0.13743618 -0.09201663 -0.029131213 0.3369729 0.1147227 0.13724825 0.3401838 0.27301124 0.03797682 -0.09252943 -0.31937128 0.07569117 0.39733732 0.116300635 0.1232599 -0.22051828 -0.005496419 0.040896207 0.42234838 0.017200124
1688 -0.123702444 0.22515927 -0.31503367 -0.17932536 0.18910903 0.5061001 -0.09479929 0.1785363 -0.17298643 0.010298028 0.6930948 -0.50410634 0.3367983 0.26231498 -0.031806856 0.6920283 0.48138714 -0.13363738 0.09577338 -0.22299966 -0.18262918 0.020743925 -0.109163225 -0.11796192 -0.1889443 -0.15673381 -0.31167832 -0.1305059 0.27033988 0.16940728 -0.059993654 -0.14767808 0.12580551 0.015090149 0.36335018 -0.050773628 -0.041809175 -0.20953643 -0.50621605 -0.70993865 -0.06933857 0.071447074 -0.13632166 -0.17975631 0.12577388 -0.46380678 0.32141834 0.11664165 -0.45035815 0.4428049 -0.5235713 -0.36609432 -0.355096 0.020780643 0.4088045 -0.30157414 -0.16148752 0.23069167 -0.27219358 -0.16102879 0.45590442 0.163796 0.22138964 -0.5039099 -0.024887752 -0.24292131 -0.4312492 0.42263484 -0.23615581 0.00030241138 0.24799334 -0.03304636 0.05490393 -0.21189594 -0.041335788 -0.58963317 -0.21932214 0.18167555 0.12435807 -0.123353034 -0.3236436 0.17895406 0.468746 -0.07917515 0.455717 0.07747173 -0.1170764 -0.15528578 -0.44801778 -0.22025062 0.17252207 -0.0032062375 -0.20019116 0.05031958 -0.64767134 0.04293856 -0.5454895 0.056890484 -0.09838362 0.12487492 -0.03149853 0.34998998 -0.07575574 -0.046017375 -0.026479207 0.1365979 -0.016226068 0.35070208 0.0701038 -0.17198515 -0.24361901 -0.0052700005 0.10904353 0.06041329 -0.1467865 -0.060206655 -0.32979494 -0.19432831 -0.10151979 0.37295294 0.34018773 0.1153725 0.13849367 0.46718258 -0.06763058 -0.16310057 -0.28533426 0.092631236
2658 0.61944723 -0.068373434 0.4374599 -0.13014026 -0.21719687 0.34505358 0.0070734355 0.43921292 0.6438095 0.3271596 0.5123645 0.4595849 0.19176297 0.4271852 -0.24148564 0.08328605 0.114255436 -0.10919548 -0.29145658 -0.49906656 -0.12142208 0.74476033 -0.3087698 -1.0953256 -0.871898 -0.3900502 0.5455064 0.18848597 0.069943585 0.40728104 -0.16713618 0.9642061 -0.56041646 0.069278605 -0.08395177 -0.18132555 0.140634 0.57647026 -0.31819355 -0.16284418 0.19049205 -0.34358206 -0.094778225 0.6928919 -0.054572992 -0.29932946 0.36937082 -0.019740587 -0.39874128 0.49292254 -0.25122997 -0.26686975 0.86353594 0.41282582 0.39360902 0.05906578 -0.22509336 0.6104856 0.5442722 0.73963755 0.013728171 -0.57332826 0.5845419 -0.25281566 -0.5088942 0.38689536 0.028867753 0.16053693 0.26561397 0.23011003 0.6573602 -0.06803972 0.55987144 0.074382074 -0.30870044 0.21865681 -0.006121695 -0.006530173 -0.25453764 -0.6875164 -0.015949091 0.28025317 -0.6837213 0.331368 -0.19919938 0.29714885 -0.15627454 -0.069043875 -0.5763198 -0.23846826 -0.94847244 -0.3385462 -0.6869184 0.050926898 0.05588436 -0.30613437 -0.042791847 -0.017685372 -0.4934343 0.23993778 -0.25128102 -0.46517608 -0.25627184 -0.26782742 0.6767422 0.7074844 -0.38872507 -0.28221136 -0.78153586 0.54650676 0.15885982 -0.40357137 0.74110603 -0.30900985 -0.13586667 -0.11053187 -0.17805113 0.5095253 0.12667994 0.52153134 -0.316504 0.3076262 0.07336793 -0.080501944 0.072056755 -0.392862 1.069638 0.40345967
23738 -0.073856875 -0.107562035 -0.021300869 0.03980249 -0.27774015 0.064232334 0.22296306 -0.32760698 0.038449153 -0.07741855 0.06929769 -0.045955025 0.1481248 0.06263537 -0.23803559 -0.11543276 0.3461701 -0.15742129 0.053842146 0.44620657 -0.45956552 -0.12170053 0.47108373 0.32936856 -0.18386619 -0.22073132 -0.019584434 0.22501352 -0.050708953 -0.5639222 -0.20369713 -0.14761755 -0.048341814 -0.046585124 -0.23186062 0.07449525 -0.17030169 -0.26090938 0.034389034 -0.3673841 0.022904864 -0.30596095 -0.030773468 -0.059047576 0.02755817 -0.1296513 -0.27879173 0.22959125 -0.24797985 0.03514243 0.23540877 -0.3619312 -0.09174583 0.30457675 0.0604631 0.025745433 -0.1653465 0.30697554 0.28146785 0.6953207 0.099029265 -0.38478512 0.056903765 -0.04681672 -0.5069083 0.18087474 0.08409559 0.5489365 -0.25737777 0.24623205 -0.08922365 -0.17321771 0.13524549 0.5317274 0.55515426 -0.1481779 0.012244852 0.113208756 -0.022021083 -0.053357482 -0.025969403 0.16235687 0.22045913 -0.17497237 -0.022146197 0.4752023 -0.2939284 -0.23587057 0.16473699 0.25243774 -0.21725464 -0.20926617 0.13657618 0.0645261 -0.42367193 0.01505004 -0.25859278 0.27618018 0.4081177 0.62104285 -0.28058705 0.44059202 -0.08490834 0.034889393 0.005792988 0.39688054 0.033196658 0.06338336 -0.22880906 0.16980216 -0.085101455 0.37521684 0.39695358 -0.3309242 0.14131495 0.22078398 0.34816635 -0.17354031 -0.06680624 -0.32315427 0.29330993 -0.2754836 0.5315001 0.15882362 0.12487449 0.08668136 0.35894418 -0.21537709
4335 0.2363663 -0.14097936 0.40735182 -0.4032631 -0.5118613 -0.051249783 0.19666557 -0.12623839 0.029291926 -0.1923467 -0.0136129875 -0.1927562 0.42461377 -0.18979697 -0.10608141 -0.19824669 -0.3056114 -0.035053927 0.11177166 0.16117649 0.3431081 -0.11244449 -0.011921679 0.13570192 0.02750535 -0.36864516 0.065516315 -0.0040254677 0.31381682 -0.47871473 0.3349197 0.39713442 0.13009292 0.22003064 0.019294292 0.3043053 -0.39607367 0.3303545 0.05404389 0.2758742 -0.29705766 -0.04619949 -0.047283128 -0.47768065 0.59027356 0.06816136 0.029661573 0.26630065 -0.49384904 -0.38938686 0.12104309 -0.42335624 0.007400897 0.26024264 -0.08188731 -0.1631255 -0.24371552 0.55954576 0.083433814 -0.044156883 -0.4515293 -0.04669643 0.056509323 -0.12352205 0.37653443 0.27651337 -0.1003512 0.35788968 -0.58666104 0.07346352 0.06586133 -0.008554058 0.15343128 0.02918408 -0.24003758 -0.2629615 0.07909388 -0.12880409 0.075741194 -0.08889817 0.07770979 0.005418496 0.04379737 -0.58936906 -0.041915346 0.08422883 -0.066271335 -0.31163073 -0.18494852 0.18684858 -0.6135333 -0.5684872 0.09722233 -0.2695982 -0.7375656 -0.39123207 -0.23079158 0.07244401 0.32764634 -0.10101417 -0.10977328 -0.058731932 -0.06374721 0.0013850186 0.123385325 0.14136133 0.19811969 -0.32409662 -0.5670621 0.22091939 -0.9910073 -0.04341381 -0.048203513 -0.14664783 -0.36056086 -0.19425228 -0.3901872 -0.035917334 -0.03467134 0.36312893 0.047009196 0.047883183 0.265506 -0.85247517 0.3164084 0.12463143 -0.21947797 0.38843313
10796 0.022664608 0.33695683 0.08914838 0.2135466 0.093589716 0.5282229 0.14333612 0.005912717 -0.38231853 0.60415524 0.26357847 0.039421108 0.03429764 0.19486445 0.17633122 -0.27392885 0.12179108 -0.44442496 -0.15306105 -0.490479 0.11978445 -0.15798403 0.5362422 0.024761261 -0.1159814 0.03296258 0.3436134 0.3348541 -0.2540609 -0.017866958 -0.042277567 0.18190876 -0.17638446 -0.0131981475 -0.08291125 0.18508926 0.33716404 -0.11184715 0.44321716 -0.20186454 -0.025045944 0.20908639 0.049531616 -0.21303023 0.074161254 -0.4684972 0.30545923 0.038730323 0.021168154 0.042760655 0.197066 -0.44814724 0.01897906 -0.07559135 -0.15146539 0.38599837 -0.051120166 0.18651725 -0.19534664 0.42644015 0.08605235 -0.030086964 0.0064415606 0.31572467 -0.19968279 -0.13218379 -0.02025944 0.075371094 -0.34123594 0.099514335 -0.12658535 0.13606302 0.03772591 0.0036116252 -0.024438374 0.34193718 -0.12016633 -0.040248357 0.376082 0.23773979 -0.51576966 -0.19387676 0.3853026 -0.18580739 -0.13320655 -0.1104173 -0.048679207 0.1285839 -0.36384523 0.02059894 0.016787358 0.0756021 -0.046634972 -0.4807894 -0.2007772 0.2952185 0.11276505 0.12496958 0.025896434 -0.011441817 -0.22387604 0.11827493 -0.27270037 -0.28929123 0.21133713 0.27376595 -0.12364512 -0.13267007 0.1947244 0.060995884 0.060000923 0.3897825 0.13072047 -0.04620267 0.38409045 0.1302395 0.22067519 0.09298183 0.035464074 -0.030917358 0.4832853 -0.16526821 0.41311476 -0.08840934 0.330503 -0.31452492 0.06178814 -0.11753332
85352 0.15808569 0.3073153 -0.20052674 -0.20456323 0.2956512 0.6087998 -0.24581632 0.05506858 -0.2512805 -0.14053191 0.18351096 -0.12435564 0.10373099 0.095484704 0.036571633 0.45726502 0.49461505 -0.100775965 -0.49483886 0.44018883 -0.1867595 0.115793236 -0.43556914 -0.087322526 0.031590827 0.12147359 0.057925142 -0.15506041 0.0042773956 -0.20221043 -0.4281436 -0.11810021 -0.026408026 -0.050385177 0.4149456 0.22770748 -0.24999465 0.011187113 -0.347997 0.068948016 0.07494233 0.25762585 -0.16246578 0.010173856 0.21086244 -0.51157135 0.30073458 0.11489249 -0.6848198 0.14350104 -0.13055284 -0.2937705 0.040526137 -0.5194079 0.41973048 -0.17054911 0.14108883 0.38043478 -0.13478419 -0.041656055 0.21926093 -0.11044681 0.24412195 0.2690459 0.08724673 -0.44459233 -0.57625514 0.3317147 -0.23176521 -0.10880751 -0.4946985 0.032251604 0.32123902 -0.21323997 -0.03652921 0.06372392 -0.025884552 0.07117772 0.3718123 -0.22945976 -0.21711187 0.7644811 0.16145246 0.03770009 -0.26737216 -0.079690814 0.14737695 -0.15029798 -0.24490236 -0.22142829 0.101917915 0.074793495 -0.20835556 -0.012875669 -0.21096334 0.25634846 -0.27691928 0.48050258 0.13970672 0.16203898 -0.23087093 0.073194094 -0.056016073 0.04950573 -0.15707746 0.19564717 -0.1428809 0.20022313 -0.38019854 -0.444034 -0.35700637 0.01297585 0.18627243 -0.10874393 0.1442741 -0.05791227 -0.6214107 -0.26662567 -0.22669835 0.5044455 0.05235809 0.097313575 -0.14917175 0.0069210175 0.15147008 -0.22942984 -0.16135511 0.26351526
2696 -0.27978995 -0.416455 -0.36183667 0.29454702 -0.23641309 0.43157136 0.21648155 0.1696652 -0.40949675 -0.105459884 -0.17719986 -0.3057192 0.29579622 0.5360329 0.2257419 0.025681645 0.32718942 -0.15097196 0.21306205 -0.1755006 -0.58330846 -0.22736938 -0.31255427 -0.11122315 -0.19454075 -0.122348085 -0.1552318 -0.11174549 0.35680407 0.16477957 -0.19516411 0.7244864 -0.21854942 -0.049951598 -0.30736464 0.6347928 0.65565336 0.82126683 0.08935887 0.15524484 -0.032418486 -0.1090512 0.07513444 0.15441328 0.29265976 -0.8090354 0.92140925 -0.17628212 -0.26498237 0.06688997 -0.09033405 0.12292523 0.96011496 -0.31865913 -0.24457407 -0.22055732 0.118924394 0.18672761 0.54297477 0.73397034 0.16185768 -0.034780454 0.071766146 -0.17394143 0.2548899 0.4030968 -0.029112069 0.25140664 -0.09634386 0.07991369 0.12051141 -0.51763266 0.46167034 -0.66513836 -0.5728699 -0.43101057 0.19902188 0.5629744 -0.24795038 -0.3579903 -0.13419598 0.19049646 0.11313383 0.32296118 -0.3935797 0.37710044 0.28022325 0.19756973 0.009422672 -0.042161882 -0.41255137 -0.22201528 -0.678065 0.41524997 0.056263495 -0.32223475 -0.53130674 0.019065844 -0.21139012 0.06469191 -0.05686232 -0.16344655 0.24614507 -0.05224449 0.66559964 -0.2995832 0.1424499 -0.2774026 -0.42540932 0.66199225 0.14217317 0.46353143 0.49621528 0.36417282 0.3333233 -0.015375444 -0.46819198 -0.20510566 0.2955547 -0.6179773 0.69697165 -0.12794174 0.27613914 -0.20055047 0.10555583 -0.510764 0.26887813 0.30630124
230879 0.7138645 -0.26221615 0.27700987 -0.22088766 -0.26438063 0.31568015 0.18396506 0.35745493 0.6673351 0.14923286 0.65495485 0.57656026 -0.0069870595 0.2735876 0.015849266 0.08075261 0.085281186 -0.13385645 -0.10669348 -0.5820995 -0.30100787 0.8743528 -0.39689112 -1.015135 -0.69561493 -0.26571387 0.6115396 0.35345805 0.13177064 0.31466255 -0.24065688 1.0111974 -0.47338024 0.0413981 -0.14425293 -0.16753441 0.009407607 0.5696539 -0.21424955 -0.11036619 0.11484162 -0.52103704 -0.23643315 0.5760361 0.09840876 -0.45400262 0.38586366 0.04531139 -0.5969248 0.43881974 -0.26726416 -0.15212941 0.7195967 0.39167538 0.39825302 0.21727337 -0.052405022 0.7695893 0.5410608 0.6350909 0.07248026 -0.3696092 0.6578523 -0.13890445 -0.34301114 0.25800902 0.22416717 0.28149086 0.22316933 0.3447176 0.6036504 -0.08596129 0.61747414 0.15231113 -0.35589275 0.23641549 -0.15167493 0.12691823 -0.32952893 -0.758251 -0.17875049 0.16945174 -0.8279825 0.3917851 -0.26110113 0.39637017 -0.12880461 -0.099167556 -0.63497394 -0.1093279 -0.97082955 -0.22475831 -0.6234942 0.45304367 0.15652159 -0.22470945 -0.15550457 -0.27453625 -0.46632 0.27629256 -0.12429463 -0.46793693 -0.62828636 -0.35964197 0.54094094 0.72174084 -0.49936438 -0.20881194 -0.8103121 0.52107924 -0.039845794 -0.21541245 0.7284748 -0.121286236 -0.08524357 -0.4406384 -0.08595748 0.54624903 0.2069365 0.3184289 -0.44816533 0.037833933 -0.00543479 -0.14470795 0.018061824 -0.4424063 0.95503527 0.5684695
16819 -0.21436958 0.27784818 0.39389765 -0.3503457 0.08063345 0.456357 0.38780653 -0.17038254 -0.0035849079 0.60199374 -0.4439006 -0.43424088 0.49427614 0.5749724 -0.4468395 0.6545708 -0.4482144 -0.42851305 0.28142047 0.45802414 -0.037205614 -0.7087259 -1.0303696 -0.32833874 0.2551828 -0.7436798 0.1930229 -0.1303845 0.35155132 -0.27690688 1.2079338 0.633166 -0.2944803 -0.3228715 0.59448725 -0.24887565 -0.08003013 -0.10106202 0.046730403 0.080797866 -0.5538466 -0.093449764 0.39884993 0.57804996 -0.019469677 -0.62334025 -0.11816772 -0.12218996 -0.11111685 0.16593538 -0.45151076 0.19869542 0.22206809 0.25054866 -0.023992116 -0.03791117 -0.024199413 0.114162676 0.29274714 -0.4812915 0.25900677 0.47456807 -0.6361724 -0.1443992 -0.06511179 -0.4529822 -0.017064875 0.00023773393 -0.27475628 0.330283 0.057749707 0.7258174 0.7532019 0.49463087 -0.6078968 0.08458139 -0.03139398 0.3065839 0.44696647 -0.18161447 0.3695962 -0.7579598 -0.107562415 0.36885425 -0.8382967 0.43690157 -0.02499382 0.50274235 -0.4528736 -0.25973424 -0.35050297 -1.2705457 -0.08956631 -0.114191905 0.10412371 -0.47691658 -0.6888494 0.022817872 -0.4507937 0.4822077 -0.8360292 0.58278614 -0.10719656 -0.3001717 -0.3492416 0.10648864 -0.11134021 0.055527706 0.0193769 0.13377233 -0.59069806 0.5291297 0.38473263 -0.40191993 0.73538864 0.4995375 -0.074459605 -0.53484833 0.1794977 0.029027719 -0.63207036 -0.49567595 0.22856988 -0.028422397 0.6326071 0.050006032 0.49017206 0.20567966
117 0.19369301 -0.13443966 -0.151201 0.34335694 0.33341807 -0.17363687 -0.14441912 -0.14107738 -0.5969829 0.3747786 0.23388326 0.29773307 -0.07155608 0.33570328 -0.14420882 0.27560106 0.0063823126 -0.017739344 -0.16764042 -0.36553428 0.07450238 -0.20417865 -0.44513083 -0.43653348 -0.19246335 0.13124035 -0.32104674 0.2395796 -0.08384347 -0.18737157 -0.3251554 -0.46533328 0.21452777 -0.017847992 -0.100334466 0.003950098 0.22081754 0.3370893 -0.2594354 0.6746768 0.3290422 0.020671565 -0.33414808 0.7254231 -0.17624664 -0.16942899 0.31868544 0.20655073 -0.086640485 -0.014449964 -0.24387209 0.011041973 -0.42721024 0.11010304 -0.1489767 0.06293906 -0.38582662 0.040335882 -0.2789949 -0.37432122 0.121239394 0.012410894 -0.38492143 0.18426833 -0.0690728 0.19709127 0.1391317 0.49951696 -0.3691195 -0.21979886 -0.05992712 -0.10692866 -0.031877372 0.248645 -0.271617 -0.22848219 0.14223117 0.2830564 -0.15619159 0.34343615 0.35777384 0.050775334 -0.16310096 -0.53605896 -0.50587523 0.012190376 -0.35312065 -0.09942495 -0.17612866 -0.2815228 0.11390146 -0.22903788 -0.28787377 -0.056085 -0.09658893 -0.25660393 0.021361614 0.12160621 -0.061625443 0.02898306 -0.21657518 0.41321084 -0.25254634 0.033460528 0.18490365 0.2941971 -0.16326879 -0.05960842 -0.14553101 -0.10532795 0.038285505 0.08828256 -0.092720665 -0.05910587 0.46331006 -0.16572662 -0.2767068 -0.02359093 -0.08935169 -0.013339726 0.40762684 -0.5094004 0.5430058 -0.3761952 0.17652015 -0.11955705 0.46356678 -0.021984475
35922 0.20424768 0.24831818 0.14371024 -0.27902073 -0.5928599 0.2625475 0.38826844 -0.16683432 -0.025461238 -0.18770714 -0.31884623 -0.33478063 0.8738952 0.32778874 -0.23456877 0.16529244 0.11871312 0.25261188 -0.018811265 0.16463724 0.17202803 0.23610108 -0.06323513 -0.04697631 -0.045937367 0.16153012 0.3149791 0.09297689 0.19886373 0.14380425 -0.23654692 0.055561405 -0.1082578 -0.13098505 0.24356812 0.23711012 0.006180894 0.3610561 0.2848073 0.522821 -0.31282923 -0.14565295 0.0697695 0.18558966 0.28249502 -0.002231923 0.036496803 -0.10564515 -0.08574262 -0.3304797 0.04173792 -0.5365838 0.3040778 0.07840838 -0.10233983 -0.108413406 -0.58019423 0.10954321 0.30317068 0.03309006 -0.3431344 0.19193478 0.096515134 0.20458847 0.18558523 -0.016091853 0.6647364 0.3581219 -0.43878174 -0.45880994 0.21246156 -0.055781707 0.21267614 0.093241796 0.12502363 -0.53643763 -0.16522937 0.12915967 -0.18412626 -0.32426792 0.22767104 -0.017250787 0.03874683 -0.72715443 -0.28660792 -0.07100946 -0.14866342 -0.21022987 0.12650475 -0.109825015 -0.20395696 -0.520557 -0.13562004 -0.24262705 -0.7850788 -0.33897698 0.143367 0.077596 0.22166675 -0.14728032 -0.23592773 -0.35276383 -0.13430855 -0.086821005 -0.013645016 -0.10522803 0.33542857 0.13910846 -0.2192066 0.17722675 -0.36550602 0.4211683 -0.074739225 -0.009420633 -0.06451812 -0.3128224 -0.38682365 -0.14449163 -0.18773064 0.558183 0.1291345 0.4048672 0.27746007 -0.46776837 0.10586526 0.035182025 -0.12586516 -0.07692626
6334 -0.28404173 -0.18076326 0.26626235 -0.48583227 0.3008515 -0.44600803 0.1673789 -0.10294602 0.14397746 -0.2384049 0.19240497 -0.014506804 -0.20478697 0.24283272 0.36835048 -0.07544534 -0.14765668 0.14431818 -0.19139503 0.16932112 -0.0033384976 0.037226383 0.08671387 -0.16813658 0.28880918 -0.2484607 0.20910722 0.022331582 -0.25784057 -0.19949655 -0.1533602 0.15649755 0.19796744 0.06463854 0.25964814 0.7543328 -0.3291586 -0.1534645 -0.20627335 -0.6735138 -0.22727665 -0.26340535 -0.21477076 0.10417625 -0.23077397 0.13332926 -0.14772795 -0.14921287 0.090618104 0.1670415 -0.21225935 -0.5804684 0.029201072 -0.05617622 -0.13352229 0.515444 0.09833014 0.16318011 -0.14093828 0.21987285 -0.002920931 0.4906089 0.08109949 -0.4165043 0.18369164 0.19607294 -0.11859572 0.21045281 0.024265531 0.15129958 0.0018461184 -0.4510926 -0.14872187 0.018474637 -0.02672461 -0.39878157 -0.15370959 -0.37438127 -0.029885842 0.1731592 -0.27185228 0.03940792 -0.00018317549 0.02191021 0.025397105 -0.40605602 0.18103732 0.13528553 -0.5853683 0.45811924 0.07437414 -0.2691711 0.080752656 0.37633604 -0.16552761 -0.31728885 -0.089417204 0.46208656 0.04495104 0.09100869 -0.63703686 0.058420964 -0.2920055 0.16147394 0.3566539 0.13256688 -0.09645432 0.3874637 0.20439896 -0.12714021 0.11028922 -0.0102895005 0.38372952 0.18850864 0.63641995 0.29346 0.03340824 0.04036662 -0.022421079 0.028486034 0.17026043 0.3112525 -0.09956266 0.034002673 0.011910114 0.119193695 -0.028260252 -0.14748825
39127 0.0988254 0.088313505 0.0316474 -0.14835383 -0.37030032 0.49554914 0.20743062 -0.49350655 0.3628587 0.08238753 0.26838455 -0.15853626 -0.19394791 0.5102876 0.9210811 -0.28146732 0.35867882 -0.78040797 -0.110963784 -0.15751304 0.02417653 -0.37697756 -0.40800694 -0.4074517 0.5268485 -0.4973442 0.110381864 -0.32251722 0.026999269 -0.6943455 -0.013401935 -0.30814984 0.46913537 -0.14250664 0.46441877 0.4758171 -0.050864946 0.20562461 -0.15583512 -0.010715907 0.22625318 -0.123356745 0.21637149 -0.14856341 -0.5843048 -0.18271029 -0.53636545 0.026645878 0.34148368 0.22141117 -0.15247154 -1.2596941 -0.123267114 -0.3555908 -0.14386897 0.060430173 -0.19366798 0.17064944 0.5543076 0.65161127 -0.112236075 -0.5922554 -0.065135986 0.4003942 -0.06032471 0.192132 -0.08284985 0.25524002 0.29456276 0.09794164 0.29303092 -0.13123031 0.302463 -0.5363778 -0.16862734 -0.12921117 -0.19739732 0.4035142 -0.09470494 -0.39085144 -0.16510615 -0.43884814 0.054776113 0.3414256 0.0046493104 -0.02221494 -0.1629398 -0.21035494 -0.69718033 0.44183767 0.31972152 -0.29348275 -0.1594582 -0.4310996 -0.1977243 -0.09234823 -0.32447737 0.4477576 0.45124903 0.09945304 0.22682635 -0.50027895 -0.13760434 0.28216404 0.058012966 0.27636808 -0.44955352 0.27394673 0.13626465 -0.06560331 0.20967631 0.19755772 -0.019657414 0.27583802 0.7701602 -0.4821742 0.24804166 -0.014577296 0.20359458 -0.13287394 0.2902848 0.46327046 0.19773068 0.061003044 0.27877143 -0.04593197 0.30652875 -0.46432412
210871 -0.35952252 0.02208422 -0.2671272 0.21233054 0.0786552 0.37313697 0.12041003 0.28131154 -0.18977937 -0.085346214 0.309076 -0.059117883 -0.18856977 -0.16394332 0.2021029 0.34475192 0.17021216 -0.031899158 -0.35405743 0.15860438 -0.22024131 -0.13444856 -0.23028405 -0.06679467 -0.11139759 -0.0024500003 0.33854175 -0.09400762 -0.55172306 -0.21759824 -0.009797023 -0.00881533 0.041296136 -0.11447964 -0.19232698 0.41062486 0.09774025 -0.21510611 -0.24748121 -0.13535646 0.14348996 0.255923 -0.119198084 -0.11362342 -0.11808371 -0.095726274 0.33883363 0.10218981 -0.006116152 0.11376934 -0.05870543 -0.43880874 -0.29457822 0.07540646 0.37597305 0.09642362 -0.14428508 0.00043283656 -0.029625814 0.13142943 -0.12354785 0.07565377 0.40612543 -0.060741525 0.29034138 0.014861837 0.08927104 -0.017396638 0.23935701 0.17959325 0.009159446 -0.104536355 0.1987065 -0.10768681 -0.44984937 -0.06187673 0.12976561 0.221553 0.30343375 0.10670816 -0.04648442 0.38022882 0.27625716 -0.023563003 0.08401305 0.17607863 -0.13874438 0.29198512 0.019904504 0.20053186 0.036245093 -0.26367885 -0.39144537 -0.20455894 -0.17545599 0.07178639 -0.11228053 0.7188169 0.0064320625 -0.28925654 -0.026360642 -0.19270603 -0.09877919 0.2582056 -0.20365772 -0.17294264 0.08458999 0.012445275 -0.5925139 0.024298286 -0.25197452 0.48082662 0.21706997 -0.160155 -0.027522115 -0.23828879 -0.6306585 -0.051232878 -0.4765385 0.64353853 -0.15988757 -0.31855345 -0.20582727 0.44003886 0.32864788 0.07796809 -0.027252795 0.0027575644
642894 -0.15350842 0.26020843 0.2392122 -0.5461732 -0.24805024 0.32888857 0.46447626 0.09316016 -0.70569855 0.73882586 -0.4916349 -0.68996984 0.21850222 0.32892036 -0.45675227 0.2816456 -0.53513837 -0.4284112 0.08165326 0.52630514 0.11926451 -0.63223094 -0.67885536 -0.38020074 -0.23474276 -0.9338519 0.09831413 -0.07820149 0.033523753 -0.10471302 1.1117219 0.96349293 -0.121435665 0.15021165 0.551091 -0.24984393 -0.22844395 0.0024873894 0.01109617 -0.16414616 -0.9343543 -0.042735778 -0.06793196 0.2687837 -0.068602234 -0.47004092 -0.23007692 -0.26883942 -0.1906085 0.2197016 -0.4631941 0.593577 0.123900235 0.31141475 -0.3434868 -0.13618928 0.1426948 0.27668628 0.28481063 -0.27928907 0.06864416 0.24679779 -0.31105387 -0.052554738 -0.059128765 -0.19821085 0.36327195 0.3425348 -0.15260755 0.57974035 0.20664403 1.0106024 0.9722164 0.009164553 -0.7414022 -0.16932477 0.29234892 0.45794225 0.034022145 0.50297004 0.21509585 -0.1762484 0.25463915 0.34462652 -0.34452233 0.72471917 -0.3680946 0.5700162 -0.38307983 -0.4617099 -0.0004759092 -1.3307986 0.18607746 0.33615443 -0.29645672 -0.62190735 -0.76164407 -0.1707307 -0.38087627 0.5086358 -0.3961582 0.5646311 -0.21435902 0.33004567 -0.6982776 0.3566825 -0.17503232 0.20752873 -0.263561 0.013187651 -0.05573259 -0.24748304 0.484044 -0.9803681 0.87364393 0.3017378 -0.23991679 -0.26745304 -0.15079504 0.5159954 -0.3447597 -0.2863825 0.09319018 -0.2891692 1.084485 -0.037707083 0.34584066 -0.72005403
54131 -0.18821207 -0.038232993 -0.1553964 0.03821127 -0.11948622 0.21535772 0.17471102 0.256766 0.09255868 0.17172034 0.17960949 -0.13094616 0.24361892 -0.13998507 0.4189495 0.7243697 0.268774 -0.026751166 -0.70370656 0.23580228 0.2986708 0.1064933 -0.7993519 -0.37527016 0.049649235 -0.17147931 0.06772862 -0.19723013 -0.055630244 -0.3959671 -0.30311143 -0.2154348 0.24441114 -0.29850677 -0.19341166 0.15058433 -0.27526477 0.08976768 0.07557005 -0.15422304 0.10418708 0.46846837 -0.06421554 0.14174835 -0.024939563 -0.30433112 0.24340087 0.46974656 -0.26907682 0.08172723 -0.559467 -0.15168048 -0.17786916 -0.42765525 0.32272798 -0.1807773 0.06577502 -0.3356653 -0.07117903 0.0726796 -0.16190918 -0.21377496 0.5916849 -0.20970657 0.36488754 -0.3206275 -0.19609384 0.26775122 -0.19237967 0.38144633 -0.057068177 0.121284775 0.02398845 -0.26450348 -0.47268894 0.0635808 0.2542613 0.2699215 0.0066603012 -0.11058358 -0.35555387 0.15446776 0.41834933 0.13553414 0.33421507 -0.2495684 0.036243416 0.2661667 -0.06450299 0.06326316 -0.21651624 -0.032499854 -0.5053674 0.024703622 -0.09572496 -0.18753007 -0.19292529 0.2668237 0.52258027 -0.18089584 -0.74100083 0.06902749 -0.13903028 0.17816433 -0.24467532 0.36391297 -0.2966648 0.17214955 -0.35372278 0.09737898 -0.13566218 0.78095466 0.29257774 -0.33129096 -0.25089544 -0.09060157 -0.23924159 0.13280874 -0.2232617 0.038677294 -0.029122183 -0.24797195 0.14719045 0.49539736 -0.041407302 0.17842433 -0.07616915 0.43611127
3218 -0.43025666 0.006985065 0.13318834 0.13438551 -0.6789439 0.3391873 0.0340406 0.33504218 0.11054015 -0.07454497 0.2441984 0.47310328 -0.018778285 0.13504739 0.34946918 -0.16269141 0.19085278 -0.17435654 -0.07867308 0.0076992204 -0.5898827 -0.21491109 -0.18159203 -0.100175336 0.13487126 -0.3857851 -0.08088086 -0.14143577 -0.26497218 -0.6667539 -0.013658181 0.020730961 0.53184885 -0.103985384 -0.056738827 0.30613473 0.45219716 -0.2454363 0.20587935 -0.3699563 0.23543766 -0.19239654 0.08908291 -0.000736462 -0.2707891 -0.043382097 -0.4178827 0.0688352 -0.018540962 0.1535046 -0.19401093 -0.5444805 -0.22222993 -0.24361043 -0.32290766 0.74277115 0.04584229 0.393091 0.5074514 0.5958945 -0.017354673 0.29826507 -0.44511837 -0.09525518 -0.38904342 0.03541206 -0.21008909 0.26493147 -0.13560349 -0.1591894 0.06612763 0.1553112 0.0027902776 0.23678875 -0.02124851 -0.17436942 -0.11203544 -0.14894237 -0.14127427 -0.32091132 -0.26164517 -0.25416383 0.13854362 0.29477012 -0.107099496 -0.31792235 -0.48565975 -0.21994591 0.19083089 -0.1869527 -0.037017208 -0.42971894 -0.24479003 0.14585584 -0.25705865 0.025015635 -0.16475831 0.05335779 0.06517174 -0.09294215 0.36729792 0.10535386 -0.54525614 0.018201038 -0.14219658 0.57159764 -0.4584411 0.23246813 -0.15796186 -0.11551626 0.28824532 0.5371941 0.11768106 0.31801063 0.0800234 -0.12499716 0.06896011 -0.06697377 0.15665758 0.4668281 0.6418301 0.34300607 0.36242753 0.18025304 0.3292295 -0.19469279 0.15619855 -0.082128264
5348 -0.10731055 -0.22407477 -0.40992114 0.019379629 -0.19114804 0.45021898 0.3055423 0.057789173 -0.36520258 -0.057571497 0.08860059 -0.21595874 0.101624414 0.54255223 0.3381737 -0.08885013 0.2627961 -0.02638061 0.11521889 -0.24679458 -0.59848654 -0.28850347 -0.44693163 0.028899461 -0.2934048 -0.19544564 -0.14089401 -0.190775 0.58255744 0.119736634 -0.24948624 0.6664977 0.0021879608 -0.15812686 -0.26572365 0.61091566 0.4825916 0.69094443 0.09393045 0.20901468 -0.1114703 -0.08954982 -0.019945854 0.04110716 0.1425811 -0.78619957 0.88812673 -0.16996741 -0.24814506 0.101540215 0.017367277 -0.024068784 0.8400944 -0.2351903 -0.26055843 -0.26493964 0.24194779 0.3698502 0.5421494 0.7587628 0.3651311 -0.15295725 0.0035787774 -0.22130474 0.30167818 0.44489378 0.12447989 0.2290798 -0.17566635 -0.21232553 0.17804582 -0.51998216 0.66099894 -0.8375786 -0.56361926 -0.30779976 0.20133083 0.5674684 -0.0010027731 -0.22136368 -0.0772177 0.24257183 -0.16468138 0.4447003 -0.31549507 0.50014544 0.20673013 0.18492961 -0.38896543 -0.33250317 -0.40754226 -0.1792652 -0.58562714 0.4745077 0.14082372 -0.11493387 -0.56010914 -0.05448699 -0.38540167 -0.018500317 -0.07308942 -0.27542314 0.03951514 -0.119285814 0.7420802 -0.22541332 0.19564366 -0.4859114 -0.5206151 0.5780114 0.14914508 0.45293626 0.6366523 0.24279375 0.20089541 -0.1853951 -0.30368212 -0.013333724 0.38909215 -0.719156 0.58449274 -0.23371668 0.22048125 -0.08135421 -0.058907907 -0.51540565 0.31291047 0.48878574
35061 -0.47008845 0.13950196 0.08672342 -0.4013303 0.3369472 0.1760976 0.16216052 0.19668058 -0.18795379 -0.521225 0.4217633 -0.021077128 -0.08929679 0.26037544 0.3759718 0.44208696 0.33137554 -0.19792426 -0.15692355 0.18636544 0.13016972 -0.17262222 -0.19732292 -0.052863073 -0.12029437 -0.23325196 -0.045839146 -0.16345792 -0.28765878 0.024791947 -0.10348606 0.12815581 -0.08113476 0.15248254 0.2603129 0.38438827 0.031840432 0.088058956 -0.16356465 -0.17766607 0.018038262 0.04353549 -0.26257223 0.15588792 0.0132553885 -0.15305708 0.033406325 0.28610018 -0.5658518 0.055872723 -0.041661687 -0.14716357 -0.09337531 -0.2009812 0.2553542 -0.055562045 0.013942053 0.2079376 -0.056400307 -0.15651874 -0.42490023 0.1111906 0.25007647 0.025901232 -0.15942869 -0.18852715 0.16752598 0.34645757 -0.09408376 0.34175828 -0.034502737 0.08134829 0.10489844 -0.09899238 0.17070286 0.12749965 0.41145885 0.49893513 0.27500305 -0.27113733 -0.21150653 0.47894946 -0.021716813 0.1385661 -0.17873216 -0.14811747 0.12746318 -0.0014453861 0.16339158 -0.082412116 0.3762448 -0.10676895 0.10920184 -0.4801813 0.25634646 0.2614131 -0.028502746 0.78741753 0.18273436 -0.33748505 0.06172124 0.03342521 0.011691743 0.026674716 0.118040554 0.099966854 0.29886997 0.25044578 -0.11724478 0.20833664 -0.008930615 0.4956719 0.04663682 0.091411546 -0.2094633 -0.22688088 -0.79377156 -0.11161586 0.08758257 0.08414658 -0.2790692 -0.26581666 -0.19101381 0.1369367 0.43821877 0.06195052 0.06471056 0.400788
34257 0.43282872 0.5603817 0.12472108 -0.61431724 -0.32780012 -0.23862833 0.24875437 0.8724084 0.4118566 0.25382802 0.9648814 -0.29101178 0.11636806 0.37408444 0.38960192 -0.21939507 -0.2722786 -0.13662249 0.7487086 0.21579573 -0.094508216 0.61250883 -0.33035702 0.019820616 0.83697987 -1.387083 0.080893025 0.6382473 -0.28549802 0.12668206 -0.16917847 0.7571651 -0.42096835 -0.22353536 -0.053591095 -0.012055267 0.18246561 -0.36184177 -0.32014328 -0.1595083 0.8970435 -0.39871198 0.23272339 0.22116904 -0.47498345 -0.14467493 0.24514826 0.6862774 0.8227697 -1.086197 -0.9710215 -1.3990432 0.37608892 -0.4453084 0.62707776 0.08608052 0.60283995 0.1271096 0.7947703 0.7038914 -0.10090985 0.3602088 -0.66291916 0.17938419 0.06857705 -0.7585917 0.83446455 0.631961 -0.5883098 0.339309 -0.6356866 0.2858367 0.04746884 0.24628216 0.967396 -0.5448669 0.45610702 0.5032332 0.17998613 0.8795708 -0.2799204 -0.24558204 -0.41343328 0.05049404 -0.4918576 0.061509952 -0.13933705 -0.012634021 -0.80000836 -0.11407339 -0.06634324 -0.20273367 -0.52982605 0.14640987 -0.71584505 -0.3619757 -0.50441897 -0.4603577 -0.1875088 -0.1958035 -0.09042147 0.23529635 -0.9490176 0.118956596 -0.268363 -0.3229914 0.1691726 -0.602685 -0.44893628 0.4531843 0.18801491 -0.071225494 -0.01653152 0.79476637 -0.06219209 -0.15176307 -0.42720968 0.08170367 0.07311382 -0.39438248 0.2784786 -0.32528695 -0.16901906 0.0869863 0.5670289 -0.10786457 0.18180782 0.6645619
54129 -0.20757137 0.035225727 -0.47128543 0.47829646 0.21039768 0.037757322 0.28746617 0.38064826 0.31385604 0.115371 0.65629613 -0.041159093 0.1694838 -0.04231061 0.30014974 0.6208247 0.031608097 0.64899516 0.21971619 0.084922455 0.18086025 -0.5464399 -0.13752379 -0.23414804 0.16090278 0.25477552 -0.06526782 0.20534638 -0.22167197 0.075826414 -0.23165637 0.18439247 0.5073746 -0.38061866 0.04646254 0.33988354 -0.16770107 -0.10825058 -0.12861201 0.23819675 0.068670295 0.33363768 -0.26679567 -0.7319022 -0.20666657 -0.41495225 0.040803123 0.40157858 -0.20984943 -0.06468583 -0.028667318 0.055930614 -0.6651774 -0.7376552 0.015182324 -0.6209818 0.30906153 0.12009562 -0.2671995 0.093287684 0.19369172 0.019675728 -0.059236873 -0.51849675 -0.06287619 -0.52447337 0.1050811 0.120439686 -0.19867088 0.2780196 0.13193415 0.37545392 0.26542163 -0.13182205 -0.19764662 -0.0021292241 -0.11414745 0.17925373 0.008643847 -0.47805193 -0.5899271 0.4537603 0.18888085 -0.17376934 0.21363033 0.19836651 -0.43878388 0.44287345 -0.64164776 0.2784987 -0.13456762 -0.2673719 -0.06932632 0.024214728 -0.1044577 -0.1868758 -0.45022148 0.5267508 -0.075623274 -0.0024069871 -0.29100478 -0.08195241 -0.27453363 0.19039749 0.56090605 0.016933681 -0.08239095 0.49728024 -0.7040472 -0.11107765 0.17148414 0.5808149 -0.17834151 -0.17962694 0.49429685 0.057592086 -0.32894686 0.1491645 0.07866215 0.009740101 0.09028427 -0.096649654 -0.33630687 0.48654875 0.0015049964 -0.36198583 0.18068826 -0.09124676
10177 0.2669743 -0.085951924 -0.041443173 -0.32976875 0.027568273 -0.0607019 0.14178617 -0.036556087 -0.009498536 -0.20880145 0.5831721 -0.006328824 -0.34094873 0.06622828 0.117275074 0.265386 0.16871978 -0.12171061 -0.101215914 0.72287166 0.19828017 -0.18894608 0.19215974 -0.6480692 0.31230038 -0.83147126 0.53481823 0.0436331 -0.11675523 -0.3258329 0.0811259 -0.23241663 0.048307355 -0.37874112 0.043343414 -0.04490024 0.014850434 0.52085835 0.31643647 -0.050490085 -0.38992566 0.11799997 -0.25860727 -0.36483872 -0.014523527 0.10084334 0.1412413 -0.08920259 0.2451276 0.35018483 -0.09832445 -0.58760566 0.20149831 0.33191547 0.21095587 -0.048931785 0.020760622 0.51192427 0.038255412 0.03662495 0.09685237 0.29739833 -0.33876312 0.39288786 -0.13125035 -0.26138172 -0.10079431 0.051291775 -0.3668867 0.025068836 -0.11205016 -0.046085972 0.10236898 0.2133394 -0.44811776 -0.18320209 -0.34036887 -0.11986213 -0.15424275 -0.026269177 0.11212234 0.47429726 0.07505586 0.107982874 0.30755073 0.37321153 0.36323643 -0.5722534 0.10935136 -0.04531222 0.061274905 -0.286684 -0.3338408 0.040254258 0.3497817 -0.2831997 -0.07905089 0.12528254 0.5767924 -0.28562126 -0.03488005 0.25745583 -0.53335583 -0.3396966 0.40720758 0.28095794 0.32509595 0.14976525 -0.08528375 -0.35329252 -0.0028519568 0.4648033 0.19923154 0.51609385 0.4973644 0.4818048 0.080883525 -0.019618887 -0.26929268 0.17107807 0.14754128 -0.26178405 -0.17176066 -0.27273372 -0.14772788 -0.086004354 0.52869916 -0.12159148
35797 -0.41766846 0.39231285 -0.2553081 -0.29098353 0.19240017 0.08754715 0.29913723 0.15287817 -0.13476524 -0.29638106 0.48887372 -0.3038158 0.3473325 0.37983125 0.52960557 -0.4871798 -0.044499405 0.28674904 0.053964417 0.33242652 -0.12754464 -0.10492226 0.06834507 0.022566523 0.07206606 0.19483387 0.20834929 -0.15813291 0.20879814 0.17389025 0.27310094 -0.07508299 0.38754958 -0.40432268 -0.039536823 0.2355224 -0.47520837 0.35817304 0.15073332 0.28030363 -0.28582916 -0.18693635 -0.040124655 0.07043361 0.059285846 -0.01498395 -0.13739553 0.5220334 -0.07489418 -0.17656818 0.0038642066 -0.08301708 0.18429337 -0.046452902 0.10139134 0.05722791 0.019964023 0.5044726 0.24341391 -0.3810629 0.4608174 -0.2668717 0.31619126 -0.14891033 -0.38748795 0.21033993 0.28495836 0.47965798 0.091776155 0.620107 -0.40204048 -0.17321092 0.3356461 0.3290149 0.19920035 -0.35000098 -0.30786243 -0.22629024 0.22924967 -0.26291212 -0.19839622 0.120701276 0.18944316 0.457722 -0.35078138 -0.30668095 -0.06966734 -0.07752559 0.17593871 -0.09785275 -0.26826042 -0.2543307 -0.3043984 0.37288776 -0.13241512 -0.05937849 -0.8727085 -0.2978377 -0.12857556 -0.25397158 -0.13284767 -0.13417624 -0.055580035 -0.48115715 0.19460309 0.30332172 -0.2974403 -0.42818302 -0.280478 0.31221133 -0.21933024 0.05540896 0.387395 0.02896796 -0.093813315 -0.3982294 0.06639707 -0.07261295 -0.42892534 -0.21281534 0.22581857 -0.36642593 -0.03261685 0.15230757 0.15183926 -0.021748291 -0.41471496 0.14194061
18777 -0.21796831 -0.2801902 0.058777954 0.19948958 -0.42436373 0.11810209 -0.4954878 0.039575726 -0.14878169 -0.0052487357 0.07641417 0.065016165 0.23722623 0.28544322 -0.1704015 -0.10015082 0.04803742 0.17962326 -0.23610058 -0.07662983 0.0210804 -0.13113455 -0.12042103 -0.27541968 0.24946277 -0.16742015 0.2423999 0.12264751 0.12986839 -0.092014104 0.19164678 0.23850137 0.010591551 -0.10548687 0.11982728 0.6082419 -0.5150378 0.237813 0.08385632 0.29880065 0.14842595 -0.2657891 -0.6424088 0.4263403 0.39361647 0.23051147 0.009060634 0.2654553 -0.2573559 -0.2885301 0.38516694 -0.40677574 -0.44280347 0.5821555 0.13635929 0.071991 0.025230322 0.35646826 0.34718376 0.11570549 -0.43948895 -0.21836281 -0.54851216 0.061391357 0.5316938 0.32343766 -0.16298734 0.12097855 -0.76689786 -0.19183204 -0.2849122 -0.1877784 -0.031505518 0.20045483 0.17093454 0.20954464 -0.101516835 0.33511493 -0.04262526 0.07796385 0.26490334 0.2048545 0.053790323 -0.4879482 0.21989347 0.85088474 -0.6521869 0.075483866 -0.09920878 0.09289633 -0.3184273 -0.53903234 0.19081958 -0.16904326 -0.7027082 -0.08152466 -0.025314283 0.196764 -0.37615627 -0.34664547 0.14840673 0.45277002 0.016147934 0.12622143 0.090541795 0.062574655 -0.3794455 -0.20004751 -0.4513339 -0.058450196 -0.11246175 0.6671368 -0.01480223 -0.66572565 0.37438217 0.2006101 0.035382483 -0.1463515 -0.011484472 -0.5949504 0.12705657 -0.01898489 0.3165779 -0.4398502 0.3821785 0.09048122 -0.11047711 -0.11958147
38205 -0.3025093 -0.11810835 -0.20423968 0.24574815 0.24237739 0.018544534 0.081647456 0.34219113 0.019034507 0.028754901 0.63586766 0.17497574 0.21958557 -0.029781274 0.41737777 0.28405648 -0.03914988 0.14354259 -0.22829139 -0.09874281 -0.07334981 -0.44904333 -0.29411322 0.06308437 0.24405144 -0.055428967 0.024599606 0.035331476 -0.26593563 0.14863718 0.10016303 -0.04444902 -0.05262261 0.25420272 -0.10002792 0.41262752 0.33221254 -0.464502 -0.27202627 -0.04881394 0.098504856 0.37258342 -0.28534994 -0.077060044 -0.2520121 -0.51158136 0.48841915 -0.063747354 0.018252665 0.2784731 0.082112126 -0.2424559 -0.23847844 0.036504224 0.15366903 -0.117578976 0.07508479 0.30659992 -0.3904381 -0.02961591 -0.39924303 0.12792826 0.12219265 -0.027695553 0.013213608 -0.07894922 0.20456506 0.20273736 0.09067159 -0.02605857 -0.08350304 0.07227302 0.2936193 -0.059471007 -0.249983 -0.38573498 0.18480001 0.020218775 -0.22099648 -0.050001062 -0.1598841 0.4038896 0.5696131 -0.23923135 -0.0716956 0.05941988 -0.36513212 0.27697882 -0.47224438 0.26155907 0.20470473 -0.026611486 -0.1078195 -0.21737334 0.26844412 0.13074815 -0.36095312 0.4586758 -0.11470873 -0.39896172 -0.18781604 0.026910339 -0.009110684 0.45244178 -0.2943151 0.19738117 0.15988822 -0.057119887 -0.8677179 -0.14117378 -0.21760532 0.6412158 -0.19013992 -0.16737649 0.30355847 -0.11891937 -0.16156745 0.12671383 -0.09977963 0.58442104 -0.24605417 -0.23607065 0.10097838 0.5138458 0.49523327 -0.2516275 0.11263567 -0.021649739
89547 0.29675493 -0.011931572 0.14599837 0.15701136 0.19722205 0.041725993 -0.4287694 0.30470017 -0.2599645 -0.009091627 0.45586365 0.13654846 -0.20295313 0.17877603 0.51393217 0.19261697 0.31322587 0.2740738 -0.1374722 0.18644789 -0.31512412 -0.57449293 -0.032369293 -0.6262853 -0.46918818 -0.44206792 -0.15430754 0.19102485 -0.12137732 0.20615566 0.11028685 -0.040378522 0.006772308 -0.20161353 0.2768765 -0.011301267 -0.046491362 -0.31531197 0.23229851 -0.33869636 0.028480709 0.13989732 0.08303635 -0.34013242 0.11772999 -0.24708542 0.49648213 0.17753136 0.063422106 0.038192928 0.15524027 0.0054151323 -0.03436486 0.63307065 -0.30987388 0.12356271 0.13976759 0.22296582 -0.050199505 0.14865865 0.070157416 -0.17772181 -0.39438784 0.25873548 0.018131835 0.13065895 -0.078145064 0.40215483 -0.13804218 0.12678425 -0.49572688 0.2513585 0.69433063 0.17324676 0.34028715 -0.38242796 -0.1376105 -0.18920365 0.05114942 0.21238926 0.34921274 -0.036350705 0.042714044 -0.003105932 0.3005759 -0.30253324 0.11647923 -0.43290254 -0.0073057376 -0.32266694 -0.18694966 -0.05075035 -0.3409218 -0.31330162 -0.00033424323 -0.32379946 0.13993454 0.28719744 -0.1696829 -0.30287236 -0.2776428 -0.6032 -0.06250603 0.5576994 0.25107834 -0.22308473 0.17354745 0.41529822 0.35473537 -0.048458144 -0.5147015 0.1746787 -0.19133134 0.19905671 0.44752038 -0.17235322 -0.09581326 0.31208482 -0.64699644 -0.74228585 0.29536378 -0.44698092 0.4308456 -0.17689943 -0.027498879 0.339911 0.30976427 -0.045169726
28350 0.06807145 -0.2774803 -0.0657848 0.042632237 0.059566792 -0.31022966 0.29628995 -0.030317964 -0.41962928 0.5513701 -0.090248875 0.80685824 -0.05927966 0.0017425356 -0.15501392 -0.0657268 -0.045900583 -0.10107621 -0.16913052 -0.32781383 -0.1758431 -0.2041485 -0.022439003 -0.78476936 -0.25614882 -0.28352162 -0.29656842 -0.18346189 -0.2266903 0.14821745 -0.0499342 0.03314247 -0.1909889 -0.0345225 0.29253304 -0.29562998 0.29331905 0.47827253 -0.07963763 0.19434193 -0.09391675 -0.30353707 -0.1810226 0.46956506 0.28169873 -0.09439691 0.38968104 -0.021749517 -0.05262724 0.13840286 0.052616313 -0.16797824 -0.415456 0.27700925 0.18927711 -0.14092155 -0.39629507 -0.19234395 -0.24150923 -0.1380257 -0.25580263 -0.3200006 -0.38215673 -0.32244217 0.24840242 -0.1300549 0.17123392 0.31074536 0.238594 -0.05838733 -0.40910184 -0.022827145 -0.07797709 -0.07898708 0.0013823882 -0.032662366 0.13237931 0.016541108 0.08789906 0.1710752 -0.29094365 0.1302682 -0.10873736 0.032536924 -0.3421052 -0.019772686 -0.28894094 -0.051021133 -0.19472001 -0.7336075 -0.07879079 -0.1444541 -0.24942076 -0.20527606 0.46829084 -0.38376543 -0.20461875 0.10820228 0.16813082 0.31271031 -0.22758727 0.12980644 -0.4438691 0.31218106 0.13847458 -0.12630998 -0.04253938 0.27819717 -0.055524662 -0.05136556 -0.403315 0.19005537 -0.34913358 -0.17732997 0.5898364 -0.44744083 -0.48940638 0.44468525 -0.03710348 0.02350789 0.36821625 -0.41363344 0.25150108 -0.0356394 0.3453196 -0.5955616 0.11065466 -0.12263701
2654 -0.29439154 -0.3873175 -0.30813482 -0.365965 -0.16184124 0.18772656 0.1289306 -0.2951807 0.23580258 0.05686563 0.232669 0.05158934 -0.20663102 -0.028899595 0.22669768 -0.5138964 0.0573113 -0.62451667 0.24531557 0.09689007 -0.054297823 0.24243014 0.24912967 -0.023231175 -0.2700019 -0.1714062 -0.06821213 -0.005412079 -0.09978605 -0.15320103 -0.07383287 -0.087101914 -0.16135925 -0.21855547 0.5221159 0.7377458 -0.70144373 -0.03479221 0.22869718 -0.14678895 -0.2448828 -0.70384175 -0.27033758 -0.5006853 -0.100277126 -0.18322162 0.11924935 -0.03653869 -0.31311008 0.14224553 0.07823618 -0.4162595 -0.022472095 -0.24057113 0.27305007 0.2400649 0.02674077 -0.2461443 0.11239269 0.38185164 0.42037514 -0.28097203 -0.52490705 -0.15143938 -0.0728484 0.11478264 0.32131323 0.31710237 0.04183823 0.25019306 -0.27631554 0.19309293 0.2816411 0.1702992 0.3115892 -0.7778708 0.27779612 0.16630068 0.28282958 -0.28231856 0.39800283 0.48869765 -0.21121201 -0.033878636 -0.0032111986 -0.3393711 -0.47133023 -0.25845113 0.03644449 0.394675 -0.10399167 -0.20328078 -0.10021064 0.03240797 0.2244169 -0.16640225 0.035325658 0.0031866177 0.27883434 0.3894024 -0.960917 -0.12226485 0.5040906 -0.0010411007 -0.36152464 0.8645777 0.3376538 -0.06569869 -0.09775507 -0.18801898 -0.21350384 0.21518764 0.3478531 0.106475264 -0.026246278 0.14695157 0.09173653 -0.20540741 -0.25390416 -0.017928867 -0.0711497 -0.13530171 0.5442842 -0.14820907 0.14555047 0.39261562 0.21204829 -0.29999098
153063 -0.3719882 0.426174 -0.2203915 -0.00275639 0.81808734 0.93456566 0.7065581 -0.41958427 0.42437765 0.18521649 -0.17637731 -0.36836424 0.4046904 0.49255282 -0.54360545 0.15073474 0.15355174 -0.65275466 0.06234558 0.032919385 0.61812323 0.3334549 -0.75107896 0.013016485 0.043151945 -0.6603168 -0.0038829402 -0.57664216 -0.053418092 0.30928406 0.74308944 -0.2989582 0.25828087 0.4000743 0.74869865 0.8090155 -0.0344634 0.17986073 -0.40753487 0.16899276 0.013094995 -0.4186404 -0.61973166 0.854845 -0.29532433 -0.17047556 -0.6515294 -1.0132443 0.29803506 0.60978454 -0.3008544 0.19530386 -0.40036607 0.81991804 -0.37208435 0.010696999 0.65527755 0.65310854 0.069660895 0.6271254 0.056433454 0.60187536 -0.87043554 0.118009165 0.32053053 -0.6124742 0.016482925 -0.28078386 -0.8059526 0.48165318 -0.001439042 0.34810552 0.56430763 0.3494607 -0.20071144 0.2200049 0.12574923 0.02738091 -0.11326801 -0.43924552 0.7269403 -0.8584678 -0.28586763 0.3017751 -0.5045013 0.49662986 -0.31465673 0.4517901 -0.5082775 0.2869344 -0.32901952 -0.69083625 -1.5321289 -0.39263797 -0.079075575 0.20587915 -0.005652674 -0.00041181053 -0.14781769 0.11290066 -1.2482588 -0.046183888 -0.9320995 0.03424405 0.28221372 0.8348973 0.70565647 0.23397078 -0.23774567 0.5628237 -0.6584014 0.2954768 0.47323415 -0.005171466 -0.29754934 0.39247382 -0.40511754 -0.6860798 0.5750979 0.1876559 -0.67558545 -1.0945852 0.67861176 -0.27218083 -0.2377726 -0.28416103 -0.4002627 -0.1687931
65074 0.62284976 -1.0883166 0.4121058 0.8590998 0.032007944 -0.043050226 0.5540813 -0.31077555 0.053235013 0.5553991 -0.22585852 -0.7146747 0.010429523 0.61669385 -0.048694734 0.25252944 -0.2182865 -0.31342527 -0.24211097 0.020846952 0.21142694 -0.17595208 -0.8305652 -0.7127246 -0.17449327 0.16091225 0.6139499 0.3901476 -0.9190571 1.0327141 0.37163308 0.057708386 -0.14964764 0.25655538 0.72863203 -0.29076552 -0.56203806 0.16600241 0.039532688 -0.57168937 0.14894001 -1.4113764 0.41294459 -0.032956347 -0.60305446 0.8184378 -0.11547994 0.7639324 0.49957392 -0.02007973 -0.14919348 0.5356881 -0.113548495 0.066193774 -0.5560545 -0.3241192 -0.30891386 1.0877264 -0.35544872 0.6861353 -0.081489764 0.2384917 0.02874226 -0.32017887 -0.4049402 -0.8189535 0.8284903 0.5060199 -0.07902736 0.7779515 0.30138546 -0.14778782 0.8685793 0.0034603083 -0.5489574 -0.09955591 -0.11251201 0.2637016 0.5781684 -0.5732234 0.33551672 0.054565527 -0.057341497 -0.6510564 -0.27971593 0.31022424 0.21060152 -0.84867 -0.3683925 -0.3874099 -0.6099126 0.56022924 -0.24009348 -0.19252943 0.04128435 0.34940335 -0.8925542 0.24384907 -0.124123186 -0.9534383 -0.08965309 0.6841159 -0.7166357 0.39605802 -0.1464281 0.75539696 -0.1587898 -0.37143612 -0.18179685 0.8432088 -0.7545828 0.67243284 0.6869207 0.56690353 0.37536854 0.7231573 -0.6465504 -0.52762514 -0.38794282 -0.04900949 -0.61182237 0.22282621 -0.33569324 -0.5329332 0.051200826 0.1284749 0.12707332 -0.8424486
1956 -0.36928883 -0.31070593 -0.15814093 -0.27547324 0.08986104 -0.19841646 -0.10918527 0.6506327 0.28979677 0.5395227 0.3773512 -0.2025609 -0.03391034 -0.2664456 0.12766714 0.09443202 0.048550453 -0.6818068 -0.007526489 0.37145525 -0.11476694 -0.11495065 0.2324743 -0.3306871 -0.1851362 0.04909744 0.050580207 -0.0977293 0.16191114 -0.05221154 -0.27182198 -0.41074774 -0.12886256 -0.10400188 0.45382664 0.124649465 -0.048625406 -0.14395969 -0.2845482 -0.5263336 0.4244152 -0.2303185 -0.34745905 0.0045544547 0.056088556 0.037936214 -0.20160906 0.24778546 -0.62281907 0.054863386 -0.2081344 0.18903586 -0.037882652 -0.1486297 0.062240828 0.40415028 -0.487988 0.13643073 -0.047166437 0.36087534 -0.18925056 0.010748242 -0.09632251 0.18570338 0.09727173 -0.043735996 0.3674301 0.22761188 -0.010737563 0.19095427 0.05173204 0.38699168 0.28441623 0.20418456 -0.12570012 -0.5619206 -0.04797032 -0.6268863 0.16052009 -0.19862866 -0.09990572 -0.2512883 0.19875684 0.18930364 -0.06830608 -0.07420398 -0.24934047 0.01773709 -0.5829325 0.08395269 -0.4695723 0.13125297 0.07665189 -0.2671338 -0.029088026 0.3912221 -0.008314476 -0.32870302 -0.0099169705 0.0014473354 0.049184173 -0.20904478 0.0003920101 -0.022872472 0.28381976 -0.2512565 0.112072505 0.05856165 -0.3721944 0.21390036 0.18382171 0.46644858 0.19197704 -0.37203136 0.31322694 0.47499335 -0.8590339 -0.68232214 -0.09344166 0.08327005 -0.27526897 0.15775037 -0.18591887 0.43355763 -0.048109315 -0.1376852 -0.08532519 0.29879096
6910 -0.4114303 0.62048995 -0.15449949 0.16768762 0.23479617 0.30855697 0.19138648 0.05166771 -0.4211051 -0.7779005 0.9083883 -0.6895255 0.012207876 0.7052182 0.52696705 0.15183951 -0.38002497 -0.13260764 -0.1491979 -0.27202606 -0.082912065 0.51132464 0.40376595 -1.0458251 -0.5124478 0.0014390647 0.6621426 -0.28243688 0.37003806 0.09768688 0.078361616 0.0071093226 -0.23072669 -0.52135843 0.9627554 -0.26573828 0.09447349 0.77666265 0.24242078 -0.08825067 -0.54589623 0.34820926 0.8596694 -0.059368078 -0.66588706 -0.24334762 -0.471985 -0.256969 0.2501441 0.031906947 0.5146285 -0.50373954 -0.121463016 0.075305246 0.629695 -0.39862126 0.060109142 0.15595542 -0.10521576 0.3291173 -0.7879539 -0.27766907 -0.020859225 -0.072093815 0.2842779 -0.03227343 0.6018774 -0.15565379 0.3983742 0.32697573 0.679339 0.5089552 -0.48204675 0.86546373 -0.37194785 0.04399752 0.35690826 0.5067222 -0.25327912 0.07490949 -0.27690038 -0.03568259 -0.25674337 -0.07465361 -0.9011736 -0.065688536 -0.33972687 0.041675165 0.112830624 0.38172367 -0.42871082 -0.08809791 0.13458894 0.3893345 -0.3262299 -0.77974623 0.39457196 -0.2042962 -0.46787062 0.07774341 -0.22828077 0.11570242 0.08691137 -0.26570448 -0.59162056 0.5830464 -0.10493504 0.2906894 -0.78405815 -0.26998478 -1.0703925 0.28501827 0.61364967 -0.19655557 0.36499038 0.6465955 -0.65597856 -0.36541885 -0.2108195 0.05346923 -0.00055076595 -0.44752192 0.42797247 -0.13939075 0.34881163 0.18089083 0.6595405 0.05726694
6913 0.1306595 0.5965938 0.049894936 -0.1832772 -0.34172198 0.120395556 0.40626717 0.05176289 -0.5533666 0.086800896 -0.17234951 -0.41539198 0.0077982927 -0.22392043 0.20453279 0.224846 -0.40158832 -0.28597748 0.043451384 -0.22082251 0.20553353 0.56722957 0.1501802 -0.60395646 -0.691746 -0.44144115 0.28912288 -0.43329042 0.5156604 -0.23223116 0.82298315 0.58308554 0.091250315 0.10393892 0.10882271 -0.18028118 -0.42983124 0.16747318 -0.2161287 -0.286111 -0.22833465 -0.11202137 0.4013526 -0.49747533 -0.17373335 -0.11002106 -0.2334429 0.07301237 -0.40114075 0.45206788 -0.39478993 0.1056779 -0.083549075 0.78283584 -0.1814794 -0.24329941 0.08560088 0.35698155 -0.11178905 0.3238466 -0.3952079 -0.4822305 0.079928935 -0.11843632 0.08552901 0.47782782 0.3352117 0.013434521 -0.10743493 -0.19421552 -0.32493737 0.32753113 0.3602368 0.5812301 -0.10395691 -0.43764153 -0.0044081504 0.4354736 -0.18096508 -0.35155597 -0.27508226 -0.18473713 0.1860267 -0.032415923 -0.8971318 -0.17414068 -0.3279349 -0.26701027 -0.27450192 -0.22704239 -0.20060986 -0.422177 0.22537889 -0.002662988 -0.24691914 -0.7365842 -0.13330466 -0.044386785 -0.25990558 -0.3500633 -0.3346942 0.30203244 -0.06291678 -0.3484195 -0.45210108 -0.14178833 0.101138644 -0.3842221 -0.4148588 0.07983399 -0.6135463 0.17690368 0.016555835 0.0027486975 0.7700051 0.2500723 -0.22065379 -0.6448748 -0.07538918 -0.19159879 0.5220278 0.12678355 0.008012091 -0.10016195 0.25797462 0.09508177 -0.25070742 0.38765904
